<?xml version="1.0"?>
<MethodSetup Method="BDT::BDTG">
  <GeneralInfo>
    <Info name="TMVA Release" value="4.2.0 [262656]"/>
    <Info name="ROOT Release" value="6.02/05 [393733]"/>
    <Info name="Creator" value="cyeh"/>
    <Info name="Date" value="Wed Feb 17 14:38:23 2016"/>
    <Info name="Host" value="Linux cmsbuild13.cern.ch 2.6.32-504.8.1.el6.x86_64 #1 SMP Wed Jan 28 08:50:46 CET 2015 x86_64 x86_64 x86_64 GNU/Linux"/>
    <Info name="Dir" value="/afs/cern.ch/user/c/cyeh/2016_EnergyRegression/TMVA"/>
    <Info name="Training events" value="237449"/>
    <Info name="TrainingTime" value="4.17823275e+02"/>
    <Info name="AnalysisType" value="Regression"/>
  </GeneralInfo>
  <Options>
    <Option name="V" modified="No">False</Option>
    <Option name="VerbosityLevel" modified="No">Default</Option>
    <Option name="VarTransform" modified="No">None</Option>
    <Option name="H" modified="No">False</Option>
    <Option name="CreateMVAPdfs" modified="No">False</Option>
    <Option name="IgnoreNegWeightsInTraining" modified="No">False</Option>
    <Option name="NTrees" modified="Yes">500</Option>
    <Option name="MaxDepth" modified="Yes">5</Option>
    <Option name="MinNodeSize" modified="Yes">1</Option>
    <Option name="nCuts" modified="Yes">500</Option>
    <Option name="BoostType" modified="Yes">Grad</Option>
    <Option name="AdaBoostR2Loss" modified="No">quadratic</Option>
    <Option name="UseBaggedBoost" modified="No">False</Option>
    <Option name="Shrinkage" modified="Yes">1.000000e-01</Option>
    <Option name="AdaBoostBeta" modified="No">5.000000e-01</Option>
    <Option name="UseRandomisedTrees" modified="No">False</Option>
    <Option name="UseNvars" modified="No">3</Option>
    <Option name="UsePoissonNvars" modified="No">True</Option>
    <Option name="BaggedSampleFraction" modified="No">6.000000e-01</Option>
    <Option name="UseYesNoLeaf" modified="No">False</Option>
    <Option name="NegWeightTreatment" modified="Yes">ignorenegweightsintraining</Option>
    <Option name="Css" modified="No">1.000000e+00</Option>
    <Option name="Cts_sb" modified="No">1.000000e+00</Option>
    <Option name="Ctb_ss" modified="No">1.000000e+00</Option>
    <Option name="Cbb" modified="No">1.000000e+00</Option>
    <Option name="NodePurityLimit" modified="No">5.000000e-01</Option>
    <Option name="SeparationType" modified="No">regressionvariance</Option>
    <Option name="DoBoostMonitor" modified="No">False</Option>
    <Option name="UseFisherCuts" modified="No">False</Option>
    <Option name="MinLinCorrForFisher" modified="No">8.000000e-01</Option>
    <Option name="UseExclusiveVars" modified="No">False</Option>
    <Option name="DoPreselection" modified="No">False</Option>
    <Option name="SigToBkgFraction" modified="No">1.000000e+00</Option>
    <Option name="PruneMethod" modified="Yes">costcomplexity</Option>
    <Option name="PruneStrength" modified="Yes">5.000000e+00</Option>
    <Option name="PruningValFraction" modified="No">5.000000e-01</Option>
    <Option name="nEventsMin" modified="No">0</Option>
    <Option name="UseBaggedGrad" modified="Yes">False</Option>
    <Option name="GradBaggingFraction" modified="No">6.000000e-01</Option>
    <Option name="UseNTrainEvents" modified="No">0</Option>
    <Option name="NNodesMax" modified="No">0</Option>
  </Options>
  <Variables NVar="7">
    <Variable VarIndex="0" Expression="EleSCPhi" Label="EleSCPhi" Title="EleSCPhi" Unit="" Internal="EleSCPhi" Type="F" Min="-3.14157987e+00" Max="3.14159226e+00"/>
    <Variable VarIndex="1" Expression="EleSCEta" Label="EleSCEta" Title="EleSCEta" Unit="" Internal="EleSCEta" Type="F" Min="-1.47696829e+00" Max="1.47587752e+00"/>
    <Variable VarIndex="2" Expression="EleSigmaIEtaIEta" Label="EleSigmaIEtaIEta" Title="EleSigmaIEtaIEta" Unit="" Internal="EleSigmaIEtaIEta" Type="F" Min="8.52398516e-05" Max="2.12237407e-02"/>
    <Variable VarIndex="3" Expression="EleSigmaIPhiIPhi" Label="EleSigmaIPhiIPhi" Title="EleSigmaIPhiIPhi" Unit="" Internal="EleSigmaIPhiIPhi" Type="F" Min="1.88061327e-03" Max="2.42291465e-02"/>
    <Variable VarIndex="4" Expression="EleSCEtaWidth" Label="EleSCEtaWidth" Title="EleSCEtaWidth" Unit="" Internal="EleSCEtaWidth" Type="F" Min="1.95325259e-03" Max="5.16791701e-01"/>
    <Variable VarIndex="5" Expression="EleSCPhiWidth" Label="EleSCPhiWidth" Title="EleSCPhiWidth" Unit="" Internal="EleSCPhiWidth" Type="F" Min="3.35158524e-03" Max="1.06153870e+00"/>
    <Variable VarIndex="6" Expression="EleHoverE" Label="EleHoverE" Title="EleHoverE" Unit="" Internal="EleHoverE" Type="F" Min="0.00000000e+00" Max="3.69959474e-01"/>
  </Variables>
  <Spectators NSpec="0"/>
  <Classes NClass="1">
    <Class Name="Regression" Index="0"/>
  </Classes>
  <Targets NTrgt="1">
    <Target TargetIndex="0" Expression="EleTrueEn/EleEn" Label="EleTrueEn/EleEn" Title="EleTrueEn/EleEn" Unit="" Internal="EleTrueEn_D_EleEn" Type="F" Min="6.83084056e-02" Max="3.93986487e+00"/>
  </Targets>
  <Transformations NTransformations="0"/>
  <MVAPdfs/>
  <Weights NTrees="500" AnalysisType="1">
    <BinaryTree type="DecisionTree" boostWeight="9.9238348007202148e-01" itree="0">
      <Node pos="s" depth="0" NCoef="0" IVar="5" Cut="5.4043184965848923e-02" cType="1" res="-2.4785669520497322e-03" rms="2.2898202762007713e-02" purity="1.0000000000000000e+00" nType="0">
        <Node pos="l" depth="1" NCoef="0" IVar="5" Cut="3.1884454190731049e-02" cType="1" res="4.3566729873418808e-03" rms="1.8539251759648323e-02" purity="1.0000000000000000e+00" nType="0">
          <Node pos="l" depth="2" NCoef="0" IVar="4" Cut="1.0998574085533619e-02" cType="1" res="6.6745770163834095e-03" rms="1.5900978818535805e-02" purity="1.0000000000000000e+00" nType="0">
            <Node pos="l" depth="3" NCoef="0" IVar="5" Cut="1.8728552386164665e-02" cType="1" res="7.1247923187911510e-03" rms="1.5360926277935505e-02" purity="1.0000000000000000e+00" nType="0">
              <Node pos="l" depth="4" NCoef="0" IVar="1" Cut="-5.2657526731491089e-01" cType="1" res="7.9446705058217049e-03" rms="1.3450562022626400e-02" purity="1.0000000000000000e+00" nType="0">
                <Node pos="l" depth="5" NCoef="0" IVar="-1" Cut="0.0000000000000000e+00" cType="1" res="9.8364683799445629e-04" rms="1.4029088430106640e-02" purity="1.0000000000000000e+00" nType="-99"/>
                <Node pos="r" depth="5" NCoef="0" IVar="-1" Cut="0.0000000000000000e+00" cType="1" res="8.0628035357221961e-04" rms="1.3270581141114235e-02" purity="1.0000000000000000e+00" nType="-99"/>
              </Node>
              <Node pos="r" depth="4" NCoef="0" IVar="6" Cut="5.0475256284698844e-04" cType="1" res="5.4792948067188263e-03" rms="1.8503176048398018e-02" purity="1.0000000000000000e+00" nType="0">
                <Node pos="l" depth="5" NCoef="0" IVar="-1" Cut="0.0000000000000000e+00" cType="1" res="7.3942815652117133e-04" rms="1.7243765294551849e-02" purity="1.0000000000000000e+00" nType="-99"/>
                <Node pos="r" depth="5" NCoef="0" IVar="-1" Cut="0.0000000000000000e+00" cType="1" res="1.5607115346938372e-04" rms="2.1808028221130371e-02" purity="1.0000000000000000e+00" nType="-99"/>
              </Node>
            </Node>
            <Node pos="r" depth="3" NCoef="0" IVar="5" Cut="1.9717728719115257e-02" cType="1" res="-2.7508341008797288e-04" rms="2.1494798362255096e-02" purity="1.0000000000000000e+00" nType="0">
              <Node pos="l" depth="4" NCoef="0" IVar="-1" Cut="0.0000000000000000e+00" cType="1" res="2.9681806336157024e-04" rms="1.9683999940752983e-02" purity="1.0000000000000000e+00" nType="-99"/>
              <Node pos="r" depth="4" NCoef="0" IVar="-1" Cut="0.0000000000000000e+00" cType="1" res="-7.5792544521391392e-04" rms="2.3498509079217911e-02" purity="1.0000000000000000e+00" nType="-99"/>
            </Node>
          </Node>
          <Node pos="r" depth="2" NCoef="0" IVar="6" Cut="4.1115926578640938e-03" cType="1" res="-3.8559190579690039e-04" rms="2.2273780778050423e-02" purity="1.0000000000000000e+00" nType="0">
            <Node pos="l" depth="3" NCoef="0" IVar="1" Cut="9.6815454959869385e-01" cType="1" res="3.2871321309357882e-03" rms="2.0944066345691681e-02" purity="1.0000000000000000e+00" nType="0">
              <Node pos="l" depth="4" NCoef="0" IVar="1" Cut="-9.2389422655105591e-01" cType="1" res="1.8196932505816221e-03" rms="2.0722687244415283e-02" purity="1.0000000000000000e+00" nType="0">
                <Node pos="l" depth="5" NCoef="0" IVar="-1" Cut="0.0000000000000000e+00" cType="1" res="1.0105349356308579e-03" rms="2.0892094820737839e-02" purity="1.0000000000000000e+00" nType="-99"/>
                <Node pos="r" depth="5" NCoef="0" IVar="-1" Cut="0.0000000000000000e+00" cType="1" res="-7.7382901508826762e-05" rms="2.0109299570322037e-02" purity="1.0000000000000000e+00" nType="-99"/>
              </Node>
              <Node pos="r" depth="4" NCoef="0" IVar="1" Cut="1.1712801456451416e+00" cType="1" res="8.7385121732950211e-03" rms="2.0861530676484108e-02" purity="1.0000000000000000e+00" nType="0">
                <Node pos="l" depth="5" NCoef="0" IVar="-1" Cut="0.0000000000000000e+00" cType="1" res="9.3492784071713686e-04" rms="2.0894967019557953e-02" purity="1.0000000000000000e+00" nType="-99"/>
                <Node pos="r" depth="5" NCoef="0" IVar="-1" Cut="0.0000000000000000e+00" cType="1" res="1.1865952983498573e-03" rms="2.0815793424844742e-02" purity="1.0000000000000000e+00" nType="-99"/>
              </Node>
            </Node>
            <Node pos="r" depth="3" NCoef="0" IVar="1" Cut="9.0950936079025269e-01" cType="1" res="-7.1584219112992287e-03" rms="2.3051040247082710e-02" purity="1.0000000000000000e+00" nType="0">
              <Node pos="l" depth="4" NCoef="0" IVar="1" Cut="-7.8472018241882324e-01" cType="1" res="-8.6530391126871109e-03" rms="2.2528054192662239e-02" purity="1.0000000000000000e+00" nType="0">
                <Node pos="l" depth="5" NCoef="0" IVar="-1" Cut="0.0000000000000000e+00" cType="1" res="-2.7104452601633966e-04" rms="2.4027416482567787e-02" purity="1.0000000000000000e+00" nType="-99"/>
                <Node pos="r" depth="5" NCoef="0" IVar="-1" Cut="0.0000000000000000e+00" cType="1" res="-1.5155028086155653e-03" rms="2.1322904154658318e-02" purity="1.0000000000000000e+00" nType="-99"/>
              </Node>
              <Node pos="r" depth="4" NCoef="0" IVar="-1" Cut="0.0000000000000000e+00" cType="1" res="-1.9939975754823536e-04" rms="2.4136375635862350e-02" purity="1.0000000000000000e+00" nType="-99"/>
            </Node>
          </Node>
        </Node>
        <Node pos="r" depth="1" NCoef="0" IVar="6" Cut="7.3844206053763628e-04" cType="1" res="-1.6972484067082405e-02" rms="2.4457963183522224e-02" purity="1.0000000000000000e+00" nType="0">
          <Node pos="l" depth="2" NCoef="0" IVar="1" Cut="-1.1102713346481323e+00" cType="1" res="-7.2231492958962917e-03" rms="2.6365270838141441e-02" purity="1.0000000000000000e+00" nType="0">
            <Node pos="l" depth="3" NCoef="0" IVar="4" Cut="1.2506327591836452e-02" cType="1" res="2.0711894612759352e-03" rms="2.7101472020149231e-02" purity="1.0000000000000000e+00" nType="0">
              <Node pos="l" depth="4" NCoef="0" IVar="-1" Cut="0.0000000000000000e+00" cType="1" res="1.0832650586962700e-03" rms="2.5315232574939728e-02" purity="1.0000000000000000e+00" nType="-99"/>
              <Node pos="r" depth="4" NCoef="0" IVar="-1" Cut="0.0000000000000000e+00" cType="1" res="-6.6809874260798097e-04" rms="2.8031973168253899e-02" purity="1.0000000000000000e+00" nType="-99"/>
            </Node>
            <Node pos="r" depth="3" NCoef="0" IVar="1" Cut="1.0366600751876831e+00" cType="1" res="-9.2360349372029305e-03" rms="2.5765141472220421e-02" purity="1.0000000000000000e+00" nType="0">
              <Node pos="l" depth="4" NCoef="0" IVar="4" Cut="9.7895674407482147e-03" cType="1" res="-1.2704359367489815e-02" rms="2.4172643199563026e-02" purity="1.0000000000000000e+00" nType="0">
                <Node pos="l" depth="5" NCoef="0" IVar="-1" Cut="0.0000000000000000e+00" cType="1" res="-9.2901696916669607e-04" rms="2.3951705545186996e-02" purity="1.0000000000000000e+00" nType="-99"/>
                <Node pos="r" depth="5" NCoef="0" IVar="-1" Cut="0.0000000000000000e+00" cType="1" res="-3.0774569604545832e-03" rms="2.3473644629120827e-02" purity="1.0000000000000000e+00" nType="-99"/>
              </Node>
              <Node pos="r" depth="4" NCoef="0" IVar="4" Cut="1.2981482781469822e-02" cType="1" res="4.7302292659878731e-04" rms="2.7541305869817734e-02" purity="1.0000000000000000e+00" nType="0">
                <Node pos="l" depth="5" NCoef="0" IVar="-1" Cut="0.0000000000000000e+00" cType="1" res="8.9156004833057523e-04" rms="2.5940835475921631e-02" purity="1.0000000000000000e+00" nType="-99"/>
                <Node pos="r" depth="5" NCoef="0" IVar="-1" Cut="0.0000000000000000e+00" cType="1" res="-1.4523719437420368e-03" rms="2.8200218454003334e-02" purity="1.0000000000000000e+00" nType="-99"/>
              </Node>
            </Node>
          </Node>
          <Node pos="r" depth="2" NCoef="0" IVar="5" Cut="7.8175403177738190e-02" cType="1" res="-2.3291286081075668e-02" rms="2.0828684791922569e-02" purity="1.0000000000000000e+00" nType="0">
            <Node pos="l" depth="3" NCoef="0" IVar="3" Cut="1.4290365390479565e-02" cType="1" res="-1.8649432808160782e-02" rms="2.2307967767119408e-02" purity="1.0000000000000000e+00" nType="0">
              <Node pos="l" depth="4" NCoef="0" IVar="4" Cut="9.2614293098449707e-03" cType="1" res="-2.0232815295457840e-02" rms="2.1015480160713196e-02" purity="1.0000000000000000e+00" nType="0">
                <Node pos="l" depth="5" NCoef="0" IVar="-1" Cut="0.0000000000000000e+00" cType="1" res="-2.2611450403928757e-03" rms="2.2733341902494431e-02" purity="1.0000000000000000e+00" nType="-99"/>
                <Node pos="r" depth="5" NCoef="0" IVar="-1" Cut="0.0000000000000000e+00" cType="1" res="-3.6212443374097347e-03" rms="2.0468689501285553e-02" purity="1.0000000000000000e+00" nType="-99"/>
              </Node>
              <Node pos="r" depth="4" NCoef="0" IVar="5" Cut="6.5940693020820618e-02" cType="1" res="-1.4116993173956871e-02" rms="2.5104019790887833e-02" purity="1.0000000000000000e+00" nType="0">
                <Node pos="l" depth="5" NCoef="0" IVar="-1" Cut="0.0000000000000000e+00" cType="1" res="-1.9589615985751152e-03" rms="2.5323217734694481e-02" purity="1.0000000000000000e+00" nType="-99"/>
                <Node pos="r" depth="5" NCoef="0" IVar="-1" Cut="0.0000000000000000e+00" cType="1" res="-3.3177379518747330e-03" rms="2.4555958807468414e-02" purity="1.0000000000000000e+00" nType="-99"/>
              </Node>
            </Node>
            <Node pos="r" depth="3" NCoef="0" IVar="5" Cut="1.0369257628917694e-01" cType="1" res="-2.6700915768742561e-02" rms="1.8960734829306602e-02" purity="1.0000000000000000e+00" nType="0">
              <Node pos="l" depth="4" NCoef="0" IVar="6" Cut="7.4967421591281891e-02" cType="1" res="-2.4975948035717010e-02" rms="2.0177900791168213e-02" purity="1.0000000000000000e+00" nType="0">
                <Node pos="l" depth="5" NCoef="0" IVar="-1" Cut="0.0000000000000000e+00" cType="1" res="-5.8760149404406548e-03" rms="1.9103232771158218e-02" purity="1.0000000000000000e+00" nType="-99"/>
                <Node pos="r" depth="5" NCoef="0" IVar="-1" Cut="0.0000000000000000e+00" cType="1" res="-6.2210382893681526e-03" rms="2.4465935304760933e-02" purity="1.0000000000000000e+00" nType="-99"/>
              </Node>
              <Node pos="r" depth="4" NCoef="0" IVar="2" Cut="9.7738662734627724e-03" cType="1" res="-2.8681771829724312e-02" rms="1.7247132956981659e-02" purity="1.0000000000000000e+00" nType="0">
                <Node pos="l" depth="5" NCoef="0" IVar="-1" Cut="0.0000000000000000e+00" cType="1" res="-1.0516614653170109e-02" rms="1.6085769981145859e-02" purity="1.0000000000000000e+00" nType="-99"/>
                <Node pos="r" depth="5" NCoef="0" IVar="-1" Cut="0.0000000000000000e+00" cType="1" res="-1.3940337114036083e-02" rms="2.0685389637947083e-02" purity="1.0000000000000000e+00" nType="-99"/>
              </Node>
            </Node>
          </Node>
        </Node>
      </Node>
    </BinaryTree>
    <BinaryTree type="DecisionTree" boostWeight="1.0000000000000000e+00" itree="1">
      <Node pos="s" depth="0" NCoef="0" IVar="5" Cut="5.4043184965848923e-02" cType="1" res="-2.3084715940058231e-03" rms="2.2153709083795547e-02" purity="1.0000000000000000e+00" nType="0">
        <Node pos="l" depth="1" NCoef="0" IVar="5" Cut="3.1884454190731049e-02" cType="1" res="3.8806581869721413e-03" rms="1.8142381682991982e-02" purity="1.0000000000000000e+00" nType="0">
          <Node pos="l" depth="2" NCoef="0" IVar="4" Cut="1.1090873740613461e-02" cType="1" res="5.9539787471294403e-03" rms="1.5685776248574257e-02" purity="1.0000000000000000e+00" nType="0">
            <Node pos="l" depth="3" NCoef="0" IVar="5" Cut="1.8728552386164665e-02" cType="1" res="6.3359346240758896e-03" rms="1.5205873176455498e-02" purity="1.0000000000000000e+00" nType="0">
              <Node pos="l" depth="4" NCoef="0" IVar="3" Cut="1.1739702895283699e-02" cType="1" res="7.0864576846361160e-03" rms="1.3367945328354836e-02" purity="1.0000000000000000e+00" nType="0">
                <Node pos="l" depth="5" NCoef="0" IVar="-1" Cut="0.0000000000000000e+00" cType="1" res="7.0127111393958330e-04" rms="1.2406106106936932e-02" purity="1.0000000000000000e+00" nType="-99"/>
                <Node pos="r" depth="5" NCoef="0" IVar="-1" Cut="0.0000000000000000e+00" cType="1" res="8.6455570999532938e-04" rms="1.5077612362802029e-02" purity="1.0000000000000000e+00" nType="-99"/>
              </Node>
              <Node pos="r" depth="4" NCoef="0" IVar="6" Cut="5.0475256284698844e-04" cType="1" res="4.8308372497558594e-03" rms="1.8252132460474968e-02" purity="1.0000000000000000e+00" nType="0">
                <Node pos="l" depth="5" NCoef="0" IVar="-1" Cut="0.0000000000000000e+00" cType="1" res="6.5902608912438154e-04" rms="1.7068536952137947e-02" purity="1.0000000000000000e+00" nType="-99"/>
                <Node pos="r" depth="5" NCoef="0" IVar="-1" Cut="0.0000000000000000e+00" cType="1" res="1.2455273827072233e-04" rms="2.1411458030343056e-02" purity="1.0000000000000000e+00" nType="-99"/>
              </Node>
            </Node>
            <Node pos="r" depth="3" NCoef="0" IVar="5" Cut="1.8095038831233978e-02" cType="1" res="-6.6977326059713960e-04" rms="2.1371245384216309e-02" purity="1.0000000000000000e+00" nType="0">
              <Node pos="l" depth="4" NCoef="0" IVar="-1" Cut="0.0000000000000000e+00" cType="1" res="2.4918929557316005e-04" rms="1.9306095317006111e-02" purity="1.0000000000000000e+00" nType="-99"/>
              <Node pos="r" depth="4" NCoef="0" IVar="-1" Cut="0.0000000000000000e+00" cType="1" res="-6.8080285564064980e-04" rms="2.3332186043262482e-02" purity="1.0000000000000000e+00" nType="-99"/>
            </Node>
          </Node>
          <Node pos="r" depth="2" NCoef="0" IVar="6" Cut="3.5976434592157602e-03" cType="1" res="-3.6120705772191286e-04" rms="2.1734293550252914e-02" purity="1.0000000000000000e+00" nType="0">
            <Node pos="l" depth="3" NCoef="0" IVar="1" Cut="9.3872004747390747e-01" cType="1" res="2.9142603743821383e-03" rms="2.0565140992403030e-02" purity="1.0000000000000000e+00" nType="0">
              <Node pos="l" depth="4" NCoef="0" IVar="1" Cut="-8.7752616405487061e-01" cType="1" res="1.5659466153010726e-03" rms="2.0358311012387276e-02" purity="1.0000000000000000e+00" nType="0">
                <Node pos="l" depth="5" NCoef="0" IVar="-1" Cut="0.0000000000000000e+00" cType="1" res="8.7108107982203364e-04" rms="2.0609177649021149e-02" purity="1.0000000000000000e+00" nType="-99"/>
                <Node pos="r" depth="5" NCoef="0" IVar="-1" Cut="0.0000000000000000e+00" cType="1" res="-9.4563052698504180e-05" rms="1.9773442298173904e-02" purity="1.0000000000000000e+00" nType="-99"/>
              </Node>
              <Node pos="r" depth="4" NCoef="0" IVar="1" Cut="1.1312382221221924e+00" cType="1" res="7.6150191016495228e-03" rms="2.0591242238879204e-02" purity="1.0000000000000000e+00" nType="0">
                <Node pos="l" depth="5" NCoef="0" IVar="-1" Cut="0.0000000000000000e+00" cType="1" res="7.5816520256921649e-04" rms="2.0103983581066132e-02" purity="1.0000000000000000e+00" nType="-99"/>
                <Node pos="r" depth="5" NCoef="0" IVar="-1" Cut="0.0000000000000000e+00" cType="1" res="1.0566195705905557e-03" rms="2.0800888538360596e-02" purity="1.0000000000000000e+00" nType="-99"/>
              </Node>
            </Node>
            <Node pos="r" depth="3" NCoef="0" IVar="4" Cut="8.7568676099181175e-03" cType="1" res="-6.3790078274905682e-03" rms="2.2523630410432816e-02" purity="1.0000000000000000e+00" nType="0">
              <Node pos="l" depth="4" NCoef="0" IVar="2" Cut="8.8851256296038628e-03" cType="1" res="-1.7621064325794578e-03" rms="2.2584736347198486e-02" purity="1.0000000000000000e+00" nType="0">
                <Node pos="l" depth="5" NCoef="0" IVar="-1" Cut="0.0000000000000000e+00" cType="1" res="1.2490498193074018e-05" rms="2.4074204266071320e-02" purity="1.0000000000000000e+00" nType="-99"/>
                <Node pos="r" depth="5" NCoef="0" IVar="-1" Cut="0.0000000000000000e+00" cType="1" res="-4.7823585919104517e-04" rms="2.0935019478201866e-02" purity="1.0000000000000000e+00" nType="-99"/>
              </Node>
              <Node pos="r" depth="4" NCoef="0" IVar="1" Cut="9.2821484804153442e-01" cType="1" res="-8.0721983686089516e-03" rms="2.2262498736381531e-02" purity="1.0000000000000000e+00" nType="0">
                <Node pos="l" depth="5" NCoef="0" IVar="-1" Cut="0.0000000000000000e+00" cType="1" res="-1.3442559866234660e-03" rms="2.1864911541342735e-02" purity="1.0000000000000000e+00" nType="-99"/>
                <Node pos="r" depth="5" NCoef="0" IVar="-1" Cut="0.0000000000000000e+00" cType="1" res="-2.2204611741472036e-04" rms="2.2784942761063576e-02" purity="1.0000000000000000e+00" nType="-99"/>
              </Node>
            </Node>
          </Node>
        </Node>
        <Node pos="r" depth="1" NCoef="0" IVar="6" Cut="7.3844206053763628e-04" cType="1" res="-1.5432331711053848e-02" rms="2.4084853008389473e-02" purity="1.0000000000000000e+00" nType="0">
          <Node pos="l" depth="2" NCoef="0" IVar="1" Cut="-1.0926021337509155e+00" cType="1" res="-6.4275991171598434e-03" rms="2.5687403976917267e-02" purity="1.0000000000000000e+00" nType="0">
            <Node pos="l" depth="3" NCoef="0" IVar="4" Cut="1.1976094916462898e-02" cType="1" res="1.6042387578636408e-03" rms="2.6433562859892845e-02" purity="1.0000000000000000e+00" nType="0">
              <Node pos="l" depth="4" NCoef="0" IVar="-1" Cut="0.0000000000000000e+00" cType="1" res="1.0777001734822989e-03" rms="2.4674743413925171e-02" purity="1.0000000000000000e+00" nType="-99"/>
              <Node pos="r" depth="4" NCoef="0" IVar="-1" Cut="0.0000000000000000e+00" cType="1" res="-5.6278746342286468e-04" rms="2.7135446667671204e-02" purity="1.0000000000000000e+00" nType="-99"/>
            </Node>
            <Node pos="r" depth="3" NCoef="0" IVar="1" Cut="1.1421833038330078e+00" cType="1" res="-8.2633439451456070e-03" rms="2.5156302377581596e-02" purity="1.0000000000000000e+00" nType="0">
              <Node pos="l" depth="4" NCoef="0" IVar="4" Cut="1.0786411352455616e-02" cType="1" res="-1.0971809737384319e-02" rms="2.4047330021858215e-02" purity="1.0000000000000000e+00" nType="0">
                <Node pos="l" depth="5" NCoef="0" IVar="-1" Cut="0.0000000000000000e+00" cType="1" res="-1.0687608737498522e-03" rms="2.3712035268545151e-02" purity="1.0000000000000000e+00" nType="-99"/>
                <Node pos="r" depth="5" NCoef="0" IVar="-1" Cut="0.0000000000000000e+00" cType="1" res="-3.2068928703665733e-03" rms="2.3542888462543488e-02" purity="1.0000000000000000e+00" nType="-99"/>
              </Node>
              <Node pos="r" depth="4" NCoef="0" IVar="4" Cut="1.2510996311903000e-02" cType="1" res="1.8304605036973953e-03" rms="2.6588877663016319e-02" purity="1.0000000000000000e+00" nType="0">
                <Node pos="l" depth="5" NCoef="0" IVar="-1" Cut="0.0000000000000000e+00" cType="1" res="1.0240573901683092e-03" rms="2.4975290521979332e-02" purity="1.0000000000000000e+00" nType="-99"/>
                <Node pos="r" depth="5" NCoef="0" IVar="-1" Cut="0.0000000000000000e+00" cType="1" res="-6.7942723399028182e-04" rms="2.7512863278388977e-02" purity="1.0000000000000000e+00" nType="-99"/>
              </Node>
            </Node>
          </Node>
          <Node pos="r" depth="2" NCoef="0" IVar="5" Cut="8.4208309650421143e-02" cType="1" res="-2.1268537268042564e-02" rms="2.1018303930759430e-02" purity="1.0000000000000000e+00" nType="0">
            <Node pos="l" depth="3" NCoef="0" IVar="5" Cut="6.5904803574085236e-02" cType="1" res="-1.7452064901590347e-02" rms="2.2083275020122528e-02" purity="1.0000000000000000e+00" nType="0">
              <Node pos="l" depth="4" NCoef="0" IVar="1" Cut="8.7475955486297607e-01" cType="1" res="-1.4451371505856514e-02" rms="2.2423256188631058e-02" purity="1.0000000000000000e+00" nType="0">
                <Node pos="l" depth="5" NCoef="0" IVar="-1" Cut="0.0000000000000000e+00" cType="1" res="-2.5685669388622046e-03" rms="2.1680109202861786e-02" purity="1.0000000000000000e+00" nType="-99"/>
                <Node pos="r" depth="5" NCoef="0" IVar="-1" Cut="0.0000000000000000e+00" cType="1" res="-1.5290514566004276e-03" rms="2.3962108418345451e-02" purity="1.0000000000000000e+00" nType="-99"/>
              </Node>
              <Node pos="r" depth="4" NCoef="0" IVar="1" Cut="-1.0864007472991943e+00" cType="1" res="-1.9705148413777351e-02" rms="2.1551620215177536e-02" purity="1.0000000000000000e+00" nType="0">
                <Node pos="l" depth="5" NCoef="0" IVar="-1" Cut="0.0000000000000000e+00" cType="1" res="-2.7899232227355242e-03" rms="2.4390403181314468e-02" purity="1.0000000000000000e+00" nType="-99"/>
                <Node pos="r" depth="5" NCoef="0" IVar="-1" Cut="0.0000000000000000e+00" cType="1" res="-3.9314418099820614e-03" rms="2.0707352086901665e-02" purity="1.0000000000000000e+00" nType="-99"/>
              </Node>
            </Node>
            <Node pos="r" depth="3" NCoef="0" IVar="5" Cut="1.2322361767292023e-01" cType="1" res="-2.5246402248740196e-02" rms="1.9050491973757744e-02" purity="1.0000000000000000e+00" nType="0">
              <Node pos="l" depth="4" NCoef="0" IVar="6" Cut="8.7740205228328705e-02" cType="1" res="-2.4318987503647804e-02" rms="1.9730875268578529e-02" purity="1.0000000000000000e+00" nType="0">
                <Node pos="l" depth="5" NCoef="0" IVar="-1" Cut="0.0000000000000000e+00" cType="1" res="-6.4465100876986980e-03" rms="1.8815618008375168e-02" purity="1.0000000000000000e+00" nType="-99"/>
                <Node pos="r" depth="5" NCoef="0" IVar="-1" Cut="0.0000000000000000e+00" cType="1" res="-7.0796175859868526e-03" rms="2.4003352969884872e-02" purity="1.0000000000000000e+00" nType="-99"/>
              </Node>
              <Node pos="r" depth="4" NCoef="0" IVar="4" Cut="2.0483788102865219e-02" cType="1" res="-2.7931330725550652e-02" rms="1.6638280823826790e-02" purity="1.0000000000000000e+00" nType="0">
                <Node pos="l" depth="5" NCoef="0" IVar="-1" Cut="0.0000000000000000e+00" cType="1" res="-1.2543207965791225e-02" rms="1.7843117937445641e-02" purity="1.0000000000000000e+00" nType="-99"/>
                <Node pos="r" depth="5" NCoef="0" IVar="-1" Cut="0.0000000000000000e+00" cType="1" res="-1.3197517022490501e-02" rms="1.5613600611686707e-02" purity="1.0000000000000000e+00" nType="-99"/>
              </Node>
            </Node>
          </Node>
        </Node>
      </Node>
    </BinaryTree>
    <BinaryTree type="DecisionTree" boostWeight="1.0000000000000000e+00" itree="2">
      <Node pos="s" depth="0" NCoef="0" IVar="5" Cut="5.4043184965848923e-02" cType="1" res="-2.1444831509143114e-03" rms="2.1503260359168053e-02" purity="1.0000000000000000e+00" nType="0">
        <Node pos="l" depth="1" NCoef="0" IVar="5" Cut="3.2795079052448273e-02" cType="1" res="3.4582042135298252e-03" rms="1.7792219296097755e-02" purity="1.0000000000000000e+00" nType="0">
          <Node pos="l" depth="2" NCoef="0" IVar="4" Cut="1.1183172464370728e-02" cType="1" res="5.2505149506032467e-03" rms="1.5605339780449867e-02" purity="1.0000000000000000e+00" nType="0">
            <Node pos="l" depth="3" NCoef="0" IVar="5" Cut="1.9924532622098923e-02" cType="1" res="5.5834124796092510e-03" rms="1.5180751681327820e-02" purity="1.0000000000000000e+00" nType="0">
              <Node pos="l" depth="4" NCoef="0" IVar="1" Cut="-4.8539301753044128e-01" cType="1" res="6.2655685469508171e-03" rms="1.3489628210663795e-02" purity="1.0000000000000000e+00" nType="0">
                <Node pos="l" depth="5" NCoef="0" IVar="-1" Cut="0.0000000000000000e+00" cType="1" res="7.8680680599063635e-04" rms="1.3959544710814953e-02" purity="1.0000000000000000e+00" nType="-99"/>
                <Node pos="r" depth="5" NCoef="0" IVar="-1" Cut="0.0000000000000000e+00" cType="1" res="6.3361378852277994e-04" rms="1.3325066305696964e-02" purity="1.0000000000000000e+00" nType="-99"/>
              </Node>
              <Node pos="r" depth="4" NCoef="0" IVar="6" Cut="5.0475256284698844e-04" cType="1" res="4.0921051986515522e-03" rms="1.8254054710268974e-02" purity="1.0000000000000000e+00" nType="0">
                <Node pos="l" depth="5" NCoef="0" IVar="-1" Cut="0.0000000000000000e+00" cType="1" res="5.7875720085576177e-04" rms="1.7120277509093285e-02" purity="1.0000000000000000e+00" nType="-99"/>
                <Node pos="r" depth="5" NCoef="0" IVar="-1" Cut="0.0000000000000000e+00" cType="1" res="5.6608674640301615e-05" rms="2.1200953051447868e-02" purity="1.0000000000000000e+00" nType="-99"/>
              </Node>
            </Node>
            <Node pos="r" depth="3" NCoef="0" IVar="5" Cut="1.8097069114446640e-02" cType="1" res="-1.1094446526840329e-03" rms="2.1229417994618416e-02" purity="1.0000000000000000e+00" nType="0">
              <Node pos="l" depth="4" NCoef="0" IVar="-1" Cut="0.0000000000000000e+00" cType="1" res="2.0119661348871887e-04" rms="1.9298236817121506e-02" purity="1.0000000000000000e+00" nType="-99"/>
              <Node pos="r" depth="4" NCoef="0" IVar="-1" Cut="0.0000000000000000e+00" cType="1" res="-7.0166157092899084e-04" rms="2.2871935740113258e-02" purity="1.0000000000000000e+00" nType="-99"/>
            </Node>
          </Node>
          <Node pos="r" depth="2" NCoef="0" IVar="6" Cut="3.5976434592157602e-03" cType="1" res="-4.7199148684740067e-04" rms="2.1312613040208817e-02" purity="1.0000000000000000e+00" nType="0">
            <Node pos="l" depth="3" NCoef="0" IVar="4" Cut="1.0591786354780197e-02" cType="1" res="2.5009897071868181e-03" rms="2.0307000726461411e-02" purity="1.0000000000000000e+00" nType="0">
              <Node pos="l" depth="4" NCoef="0" IVar="2" Cut="9.0251509100198746e-03" cType="1" res="3.7045958451926708e-03" rms="1.9814999774098396e-02" purity="1.0000000000000000e+00" nType="0">
                <Node pos="l" depth="5" NCoef="0" IVar="-1" Cut="0.0000000000000000e+00" cType="1" res="6.7372713238000870e-04" rms="1.9731830805540085e-02" purity="1.0000000000000000e+00" nType="-99"/>
                <Node pos="r" depth="5" NCoef="0" IVar="-1" Cut="0.0000000000000000e+00" cType="1" res="1.7831986770033836e-04" rms="1.9691010937094688e-02" purity="1.0000000000000000e+00" nType="-99"/>
              </Node>
              <Node pos="r" depth="4" NCoef="0" IVar="2" Cut="9.0063773095607758e-03" cType="1" res="-2.3360666818916798e-03" rms="2.1505501121282578e-02" purity="1.0000000000000000e+00" nType="0">
                <Node pos="l" depth="5" NCoef="0" IVar="-1" Cut="0.0000000000000000e+00" cType="1" res="1.4777344767935574e-04" rms="2.0506542176008224e-02" purity="1.0000000000000000e+00" nType="-99"/>
                <Node pos="r" depth="5" NCoef="0" IVar="-1" Cut="0.0000000000000000e+00" cType="1" res="-1.0014895815402269e-03" rms="2.1833626553416252e-02" purity="1.0000000000000000e+00" nType="-99"/>
              </Node>
            </Node>
            <Node pos="r" depth="3" NCoef="0" IVar="1" Cut="-9.6847373247146606e-01" cType="1" res="-5.8575947768986225e-03" rms="2.2023377940058708e-02" purity="1.0000000000000000e+00" nType="0">
              <Node pos="l" depth="4" NCoef="0" IVar="-1" Cut="0.0000000000000000e+00" cType="1" res="-8.5703650256618857e-06" rms="2.3293821141123772e-02" purity="1.0000000000000000e+00" nType="-99"/>
              <Node pos="r" depth="4" NCoef="0" IVar="1" Cut="7.0918339490890503e-01" cType="1" res="-7.0466711185872555e-03" rms="2.1567134186625481e-02" purity="1.0000000000000000e+00" nType="0">
                <Node pos="l" depth="5" NCoef="0" IVar="-1" Cut="0.0000000000000000e+00" cType="1" res="-1.2869930360466242e-03" rms="2.0561229437589645e-02" purity="1.0000000000000000e+00" nType="-99"/>
                <Node pos="r" depth="5" NCoef="0" IVar="-1" Cut="0.0000000000000000e+00" cType="1" res="-3.0043264268897474e-04" rms="2.2728353738784790e-02" purity="1.0000000000000000e+00" nType="-99"/>
              </Node>
            </Node>
          </Node>
        </Node>
        <Node pos="r" depth="1" NCoef="0" IVar="6" Cut="7.3844206053763628e-04" cType="1" res="-1.4024810865521431e-02" rms="2.3746751248836517e-02" purity="1.0000000000000000e+00" nType="0">
          <Node pos="l" depth="2" NCoef="0" IVar="5" Cut="8.3666555583477020e-02" cType="1" res="-5.7238084264099598e-03" rms="2.5083314627408981e-02" purity="1.0000000000000000e+00" nType="0">
            <Node pos="l" depth="3" NCoef="0" IVar="1" Cut="-1.0454841852188110e+00" cType="1" res="-3.5744246561080217e-03" rms="2.4197041988372803e-02" purity="1.0000000000000000e+00" nType="0">
              <Node pos="l" depth="4" NCoef="0" IVar="-1" Cut="0.0000000000000000e+00" cType="1" res="5.2036583656445146e-04" rms="2.4321626871824265e-02" purity="1.0000000000000000e+00" nType="-99"/>
              <Node pos="r" depth="4" NCoef="0" IVar="1" Cut="9.7721856832504272e-01" cType="1" res="-5.3056259639561176e-03" rms="2.3853296414017677e-02" purity="1.0000000000000000e+00" nType="0">
                <Node pos="l" depth="5" NCoef="0" IVar="-1" Cut="0.0000000000000000e+00" cType="1" res="-1.3223276473581791e-03" rms="2.2767130285501480e-02" purity="1.0000000000000000e+00" nType="-99"/>
                <Node pos="r" depth="5" NCoef="0" IVar="-1" Cut="0.0000000000000000e+00" cType="1" res="3.5929543082602322e-04" rms="2.4619957432150841e-02" purity="1.0000000000000000e+00" nType="-99"/>
              </Node>
            </Node>
            <Node pos="r" depth="3" NCoef="0" IVar="1" Cut="9.2819744348526001e-01" cType="1" res="-1.1235909536480904e-02" rms="2.6437630876898766e-02" purity="1.0000000000000000e+00" nType="0">
              <Node pos="l" depth="4" NCoef="0" IVar="1" Cut="-9.1626286506652832e-01" cType="1" res="-1.3109575957059860e-02" rms="2.5511760264635086e-02" purity="1.0000000000000000e+00" nType="0">
                <Node pos="l" depth="5" NCoef="0" IVar="-1" Cut="0.0000000000000000e+00" cType="1" res="-2.0300506148487329e-03" rms="2.7882169932126999e-02" purity="1.0000000000000000e+00" nType="-99"/>
                <Node pos="r" depth="5" NCoef="0" IVar="-1" Cut="0.0000000000000000e+00" cType="1" res="-4.3906131759285927e-03" rms="2.2865679115056992e-02" purity="1.0000000000000000e+00" nType="-99"/>
              </Node>
              <Node pos="r" depth="4" NCoef="0" IVar="-1" Cut="0.0000000000000000e+00" cType="1" res="-2.0012666936963797e-03" rms="2.8071813285350800e-02" purity="1.0000000000000000e+00" nType="-99"/>
            </Node>
          </Node>
          <Node pos="r" depth="2" NCoef="0" IVar="5" Cut="8.2197345793247223e-02" cType="1" res="-1.9404910504817963e-02" rms="2.1166076883673668e-02" purity="1.0000000000000000e+00" nType="0">
            <Node pos="l" depth="3" NCoef="0" IVar="1" Cut="-1.1158522367477417e+00" cType="1" res="-1.5502082183957100e-02" rms="2.1962232887744904e-02" purity="1.0000000000000000e+00" nType="0">
              <Node pos="l" depth="4" NCoef="0" IVar="-1" Cut="0.0000000000000000e+00" cType="1" res="-1.7764871008694172e-03" rms="2.4405844509601593e-02" purity="1.0000000000000000e+00" nType="-99"/>
              <Node pos="r" depth="4" NCoef="0" IVar="1" Cut="9.9995261430740356e-01" cType="1" res="-1.6596097499132156e-02" rms="2.1297922357916832e-02" purity="1.0000000000000000e+00" nType="0">
                <Node pos="l" depth="5" NCoef="0" IVar="-1" Cut="0.0000000000000000e+00" cType="1" res="-3.1380986329168081e-03" rms="2.0048061385750771e-02" purity="1.0000000000000000e+00" nType="-99"/>
                <Node pos="r" depth="5" NCoef="0" IVar="-1" Cut="0.0000000000000000e+00" cType="1" res="-2.0573602523654699e-03" rms="2.3924460634589195e-02" purity="1.0000000000000000e+00" nType="-99"/>
              </Node>
            </Node>
            <Node pos="r" depth="3" NCoef="0" IVar="5" Cut="1.1151928454637527e-01" cType="1" res="-2.3029593750834465e-02" rms="1.9718728959560394e-02" purity="1.0000000000000000e+00" nType="0">
              <Node pos="l" depth="4" NCoef="0" IVar="6" Cut="7.9529941082000732e-02" cType="1" res="-2.1633854135870934e-02" rms="2.0435515791177750e-02" purity="1.0000000000000000e+00" nType="0">
                <Node pos="l" depth="5" NCoef="0" IVar="-1" Cut="0.0000000000000000e+00" cType="1" res="-5.2625336684286594e-03" rms="1.9567908719182014e-02" purity="1.0000000000000000e+00" nType="-99"/>
                <Node pos="r" depth="5" NCoef="0" IVar="-1" Cut="0.0000000000000000e+00" cType="1" res="-5.5802240967750549e-03" rms="2.4050319567322731e-02" purity="1.0000000000000000e+00" nType="-99"/>
              </Node>
              <Node pos="r" depth="4" NCoef="0" IVar="2" Cut="9.6511887386441231e-03" cType="1" res="-2.5233423337340355e-02" rms="1.8315279856324196e-02" purity="1.0000000000000000e+00" nType="0">
                <Node pos="l" depth="5" NCoef="0" IVar="-1" Cut="0.0000000000000000e+00" cType="1" res="-9.5145283266901970e-03" rms="1.7313696444034576e-02" purity="1.0000000000000000e+00" nType="-99"/>
                <Node pos="r" depth="5" NCoef="0" IVar="-1" Cut="0.0000000000000000e+00" cType="1" res="-1.2902992777526379e-02" rms="2.0669057965278625e-02" purity="1.0000000000000000e+00" nType="-99"/>
              </Node>
            </Node>
          </Node>
        </Node>
      </Node>
    </BinaryTree>
    <BinaryTree type="DecisionTree" boostWeight="1.0000000000000000e+00" itree="3">
      <Node pos="s" depth="0" NCoef="0" IVar="5" Cut="5.8267481625080109e-02" cType="1" res="-1.9778031855821609e-03" rms="2.0940298214554787e-02" purity="1.0000000000000000e+00" nType="0">
        <Node pos="l" depth="1" NCoef="0" IVar="5" Cut="3.9522852748632431e-02" cType="1" res="2.6925520505756140e-03" rms="1.7844488844275475e-02" purity="1.0000000000000000e+00" nType="0">
          <Node pos="l" depth="2" NCoef="0" IVar="4" Cut="1.0603581555187702e-02" cType="1" res="4.2702443897724152e-03" rms="1.6103908419609070e-02" purity="1.0000000000000000e+00" nType="0">
            <Node pos="l" depth="3" NCoef="0" IVar="5" Cut="2.0679002627730370e-02" cType="1" res="4.8355460166931152e-03" rms="1.5555076301097870e-02" purity="1.0000000000000000e+00" nType="0">
              <Node pos="l" depth="4" NCoef="0" IVar="3" Cut="1.1593311093747616e-02" cType="1" res="5.6633497588336468e-03" rms="1.3417816720902920e-02" purity="1.0000000000000000e+00" nType="0">
                <Node pos="l" depth="5" NCoef="0" IVar="-1" Cut="0.0000000000000000e+00" cType="1" res="5.5392307695001364e-04" rms="1.2369739823043346e-02" purity="1.0000000000000000e+00" nType="-99"/>
                <Node pos="r" depth="5" NCoef="0" IVar="-1" Cut="0.0000000000000000e+00" cType="1" res="6.9846143014729023e-04" rms="1.4992013573646545e-02" purity="1.0000000000000000e+00" nType="-99"/>
              </Node>
              <Node pos="r" depth="4" NCoef="0" IVar="6" Cut="5.0475256284698844e-04" cType="1" res="3.4917111042886972e-03" rms="1.8427303060889244e-02" purity="1.0000000000000000e+00" nType="0">
                <Node pos="l" depth="5" NCoef="0" IVar="-1" Cut="0.0000000000000000e+00" cType="1" res="5.2140362095087767e-04" rms="1.7425201833248138e-02" purity="1.0000000000000000e+00" nType="-99"/>
                <Node pos="r" depth="5" NCoef="0" IVar="-1" Cut="0.0000000000000000e+00" cType="1" res="6.2342769524548203e-06" rms="2.0857295021414757e-02" purity="1.0000000000000000e+00" nType="-99"/>
              </Node>
            </Node>
            <Node pos="r" depth="3" NCoef="0" IVar="5" Cut="1.9698610529303551e-02" cType="1" res="-1.4221666788216680e-04" rms="1.9313104450702667e-02" purity="1.0000000000000000e+00" nType="0">
              <Node pos="l" depth="4" NCoef="0" IVar="5" Cut="1.2651343829929829e-02" cType="1" res="2.8668928425759077e-03" rms="1.7058696597814560e-02" purity="1.0000000000000000e+00" nType="0">
                <Node pos="l" depth="5" NCoef="0" IVar="-1" Cut="0.0000000000000000e+00" cType="1" res="4.7220085980370641e-04" rms="1.3693394139409065e-02" purity="1.0000000000000000e+00" nType="-99"/>
                <Node pos="r" depth="5" NCoef="0" IVar="-1" Cut="0.0000000000000000e+00" cType="1" res="9.4759983767289668e-05" rms="2.0210100337862968e-02" purity="1.0000000000000000e+00" nType="-99"/>
              </Node>
              <Node pos="r" depth="4" NCoef="0" IVar="2" Cut="8.9611411094665527e-03" cType="1" res="-3.2077471259981394e-03" rms="2.0926261320710182e-02" purity="1.0000000000000000e+00" nType="0">
                <Node pos="l" depth="5" NCoef="0" IVar="-1" Cut="0.0000000000000000e+00" cType="1" res="6.9681009335909039e-05" rms="1.9628204405307770e-02" purity="1.0000000000000000e+00" nType="-99"/>
                <Node pos="r" depth="5" NCoef="0" IVar="-1" Cut="0.0000000000000000e+00" cType="1" res="-8.7996077490970492e-04" rms="2.1398590877652168e-02" purity="1.0000000000000000e+00" nType="-99"/>
              </Node>
            </Node>
          </Node>
          <Node pos="r" depth="2" NCoef="0" IVar="6" Cut="3.5976434592157602e-03" cType="1" res="-2.1516501437872648e-03" rms="2.1650603041052818e-02" purity="1.0000000000000000e+00" nType="0">
            <Node pos="l" depth="3" NCoef="0" IVar="1" Cut="9.3902999162673950e-01" cType="1" res="1.1434778571128845e-03" rms="2.0927716046571732e-02" purity="1.0000000000000000e+00" nType="0">
              <Node pos="l" depth="4" NCoef="0" IVar="1" Cut="-8.2930010557174683e-01" cType="1" res="-2.6734051061794162e-04" rms="2.0686035975813866e-02" purity="1.0000000000000000e+00" nType="0">
                <Node pos="l" depth="5" NCoef="0" IVar="-1" Cut="0.0000000000000000e+00" cType="1" res="6.3737307209521532e-04" rms="2.0907614380121231e-02" purity="1.0000000000000000e+00" nType="-99"/>
                <Node pos="r" depth="5" NCoef="0" IVar="-1" Cut="0.0000000000000000e+00" cType="1" res="-3.8124757702462375e-04" rms="2.0032942295074463e-02" purity="1.0000000000000000e+00" nType="-99"/>
              </Node>
              <Node pos="r" depth="4" NCoef="0" IVar="4" Cut="9.3866847455501556e-03" cType="1" res="5.8911526575684547e-03" rms="2.1037476137280464e-02" purity="1.0000000000000000e+00" nType="0">
                <Node pos="l" depth="5" NCoef="0" IVar="-1" Cut="0.0000000000000000e+00" cType="1" res="1.0206286096945405e-03" rms="2.1196177229285240e-02" purity="1.0000000000000000e+00" nType="-99"/>
                <Node pos="r" depth="5" NCoef="0" IVar="-1" Cut="0.0000000000000000e+00" cType="1" res="6.2766566406935453e-04" rms="2.0841803401708603e-02" purity="1.0000000000000000e+00" nType="-99"/>
              </Node>
            </Node>
            <Node pos="r" depth="3" NCoef="0" IVar="1" Cut="1.0750182867050171e+00" cType="1" res="-7.2180074639618397e-03" rms="2.1764891222119331e-02" purity="1.0000000000000000e+00" nType="0">
              <Node pos="l" depth="4" NCoef="0" IVar="1" Cut="-7.8266030550003052e-01" cType="1" res="-8.3371205255389214e-03" rms="2.1246723830699921e-02" purity="1.0000000000000000e+00" nType="0">
                <Node pos="l" depth="5" NCoef="0" IVar="-1" Cut="0.0000000000000000e+00" cType="1" res="-4.4825766235589981e-04" rms="2.2725826129317284e-02" purity="1.0000000000000000e+00" nType="-99"/>
                <Node pos="r" depth="5" NCoef="0" IVar="-1" Cut="0.0000000000000000e+00" cType="1" res="-1.4855791814625263e-03" rms="2.0227797329425812e-02" purity="1.0000000000000000e+00" nType="-99"/>
              </Node>
              <Node pos="r" depth="4" NCoef="0" IVar="-1" Cut="0.0000000000000000e+00" cType="1" res="-1.6950149438343942e-04" rms="2.3540591821074486e-02" purity="1.0000000000000000e+00" nType="-99"/>
            </Node>
          </Node>
        </Node>
        <Node pos="r" depth="1" NCoef="0" IVar="6" Cut="7.3844206053763628e-04" cType="1" res="-1.3669505715370178e-02" rms="2.3404661566019058e-02" purity="1.0000000000000000e+00" nType="0">
          <Node pos="l" depth="2" NCoef="0" IVar="1" Cut="-1.1220508813858032e+00" cType="1" res="-5.8461683802306652e-03" rms="2.4910420179367065e-02" purity="1.0000000000000000e+00" nType="0">
            <Node pos="l" depth="3" NCoef="0" IVar="-1" Cut="0.0000000000000000e+00" cType="1" res="2.4378793023061007e-04" rms="2.5706559419631958e-02" purity="1.0000000000000000e+00" nType="-99"/>
            <Node pos="r" depth="3" NCoef="0" IVar="1" Cut="1.0553932189941406e+00" cType="1" res="-7.3539093136787415e-03" rms="2.4473883211612701e-02" purity="1.0000000000000000e+00" nType="0">
              <Node pos="l" depth="4" NCoef="0" IVar="4" Cut="1.1185148730874062e-02" cType="1" res="-9.9251708015799522e-03" rms="2.3383568972349167e-02" purity="1.0000000000000000e+00" nType="0">
                <Node pos="l" depth="5" NCoef="0" IVar="-1" Cut="0.0000000000000000e+00" cType="1" res="-1.0764737380668521e-03" rms="2.3277664557099342e-02" purity="1.0000000000000000e+00" nType="-99"/>
                <Node pos="r" depth="5" NCoef="0" IVar="-1" Cut="0.0000000000000000e+00" cType="1" res="-3.1922529451549053e-03" rms="2.2659972310066223e-02" purity="1.0000000000000000e+00" nType="-99"/>
              </Node>
              <Node pos="r" depth="4" NCoef="0" IVar="4" Cut="1.3022813014686108e-02" cType="1" res="6.8876972363796085e-05" rms="2.5988860055804253e-02" purity="1.0000000000000000e+00" nType="0">
                <Node pos="l" depth="5" NCoef="0" IVar="-1" Cut="0.0000000000000000e+00" cType="1" res="7.6645769877359271e-04" rms="2.4878842756152153e-02" purity="1.0000000000000000e+00" nType="-99"/>
                <Node pos="r" depth="5" NCoef="0" IVar="-1" Cut="0.0000000000000000e+00" cType="1" res="-1.1600085999816656e-03" rms="2.6414060965180397e-02" purity="1.0000000000000000e+00" nType="-99"/>
              </Node>
            </Node>
          </Node>
          <Node pos="r" depth="2" NCoef="0" IVar="5" Cut="8.4301590919494629e-02" cType="1" res="-1.8345396965742111e-02" rms="2.1115185692906380e-02" purity="1.0000000000000000e+00" nType="0">
            <Node pos="l" depth="3" NCoef="0" IVar="1" Cut="-1.1158522367477417e+00" cType="1" res="-1.4951216056942940e-02" rms="2.1707907319068909e-02" purity="1.0000000000000000e+00" nType="0">
              <Node pos="l" depth="4" NCoef="0" IVar="-1" Cut="0.0000000000000000e+00" cType="1" res="-1.9305262248963118e-03" rms="2.4021212011575699e-02" purity="1.0000000000000000e+00" nType="-99"/>
              <Node pos="r" depth="4" NCoef="0" IVar="1" Cut="1.0620297193527222e+00" cType="1" res="-1.5917360782623291e-02" rms="2.1095139905810356e-02" purity="1.0000000000000000e+00" nType="0">
                <Node pos="l" depth="5" NCoef="0" IVar="-1" Cut="0.0000000000000000e+00" cType="1" res="-3.0625595245510340e-03" rms="1.9982568919658661e-02" purity="1.0000000000000000e+00" nType="-99"/>
                <Node pos="r" depth="5" NCoef="0" IVar="-1" Cut="0.0000000000000000e+00" cType="1" res="-2.0956334192305803e-03" rms="2.3798320442438126e-02" purity="1.0000000000000000e+00" nType="-99"/>
              </Node>
            </Node>
            <Node pos="r" depth="3" NCoef="0" IVar="5" Cut="1.2527178227901459e-01" cType="1" res="-2.1339891478419304e-02" rms="2.0107883960008621e-02" purity="1.0000000000000000e+00" nType="0">
              <Node pos="l" depth="4" NCoef="0" IVar="6" Cut="8.7740205228328705e-02" cType="1" res="-2.0412471145391464e-02" rms="2.0562933757901192e-02" purity="1.0000000000000000e+00" nType="0">
                <Node pos="l" depth="5" NCoef="0" IVar="-1" Cut="0.0000000000000000e+00" cType="1" res="-5.2543422207236290e-03" rms="1.9836260005831718e-02" purity="1.0000000000000000e+00" nType="-99"/>
                <Node pos="r" depth="5" NCoef="0" IVar="-1" Cut="0.0000000000000000e+00" cType="1" res="-5.7855057530105114e-03" rms="2.3993706330657005e-02" purity="1.0000000000000000e+00" nType="-99"/>
              </Node>
              <Node pos="r" depth="4" NCoef="0" IVar="5" Cut="1.3835543394088745e-01" cType="1" res="-2.4378733709454536e-02" rms="1.8210764974355698e-02" purity="1.0000000000000000e+00" nType="0">
                <Node pos="l" depth="5" NCoef="0" IVar="-1" Cut="0.0000000000000000e+00" cType="1" res="-8.8705094531178474e-03" rms="1.9436022266745567e-02" purity="1.0000000000000000e+00" nType="-99"/>
                <Node pos="r" depth="5" NCoef="0" IVar="-1" Cut="0.0000000000000000e+00" cType="1" res="-1.3938315212726593e-02" rms="1.6954774037003517e-02" purity="1.0000000000000000e+00" nType="-99"/>
              </Node>
            </Node>
          </Node>
        </Node>
      </Node>
    </BinaryTree>
    <BinaryTree type="DecisionTree" boostWeight="1.0000000000000000e+00" itree="4">
      <Node pos="s" depth="0" NCoef="0" IVar="5" Cut="6.2491782009601593e-02" cType="1" res="-1.8227200489491224e-03" rms="2.0456017926335335e-02" purity="1.0000000000000000e+00" nType="0">
        <Node pos="l" depth="1" NCoef="0" IVar="5" Cut="4.0299367159605026e-02" cType="1" res="2.0923994015902281e-03" rms="1.7857573926448822e-02" purity="1.0000000000000000e+00" nType="0">
          <Node pos="l" depth="2" NCoef="0" IVar="4" Cut="1.1017967946827412e-02" cType="1" res="3.7754797376692295e-03" rms="1.5994580462574959e-02" purity="1.0000000000000000e+00" nType="0">
            <Node pos="l" depth="3" NCoef="0" IVar="5" Cut="2.0682288333773613e-02" cType="1" res="4.1719623841345310e-03" rms="1.5552601777017117e-02" purity="1.0000000000000000e+00" nType="0">
              <Node pos="l" depth="4" NCoef="0" IVar="1" Cut="5.6181305646896362e-01" cType="1" res="5.0112507306039333e-03" rms="1.3400716707110405e-02" purity="1.0000000000000000e+00" nType="0">
                <Node pos="l" depth="5" NCoef="0" IVar="-1" Cut="0.0000000000000000e+00" cType="1" res="5.0614617066457868e-04" rms="1.3140354305505753e-02" purity="1.0000000000000000e+00" nType="-99"/>
                <Node pos="r" depth="5" NCoef="0" IVar="-1" Cut="0.0000000000000000e+00" cType="1" res="6.5528223058208823e-04" rms="1.4288700185716152e-02" purity="1.0000000000000000e+00" nType="-99"/>
              </Node>
              <Node pos="r" depth="4" NCoef="0" IVar="6" Cut="9.5902979373931885e-03" cType="1" res="2.8717648237943649e-03" rms="1.8319969996809959e-02" purity="1.0000000000000000e+00" nType="0">
                <Node pos="l" depth="5" NCoef="0" IVar="-1" Cut="0.0000000000000000e+00" cType="1" res="4.3808939517475665e-04" rms="1.7415324226021767e-02" purity="1.0000000000000000e+00" nType="-99"/>
                <Node pos="r" depth="5" NCoef="0" IVar="-1" Cut="0.0000000000000000e+00" cType="1" res="-1.2737805081997067e-04" rms="2.1043265238404274e-02" purity="1.0000000000000000e+00" nType="-99"/>
              </Node>
            </Node>
            <Node pos="r" depth="3" NCoef="0" IVar="5" Cut="1.9680559635162354e-02" cType="1" res="-1.6913207946345210e-03" rms="2.0396696403622627e-02" purity="1.0000000000000000e+00" nType="0">
              <Node pos="l" depth="4" NCoef="0" IVar="-1" Cut="0.0000000000000000e+00" cType="1" res="1.5253420860972255e-04" rms="1.8526935949921608e-02" purity="1.0000000000000000e+00" nType="-99"/>
              <Node pos="r" depth="4" NCoef="0" IVar="-1" Cut="0.0000000000000000e+00" cType="1" res="-6.5096508478745818e-04" rms="2.1532850340008736e-02" purity="1.0000000000000000e+00" nType="-99"/>
            </Node>
          </Node>
          <Node pos="r" depth="2" NCoef="0" IVar="6" Cut="3.5976434592157602e-03" cType="1" res="-2.5201905518770218e-03" rms="2.1510250866413116e-02" purity="1.0000000000000000e+00" nType="0">
            <Node pos="l" depth="3" NCoef="0" IVar="1" Cut="8.7427026033401489e-01" cType="1" res="6.4717035274952650e-04" rms="2.0920451730489731e-02" purity="1.0000000000000000e+00" nType="0">
              <Node pos="l" depth="4" NCoef="0" IVar="1" Cut="-8.5635566711425781e-01" cType="1" res="-7.6855393126606941e-04" rms="2.0685497671365738e-02" purity="1.0000000000000000e+00" nType="0">
                <Node pos="l" depth="5" NCoef="0" IVar="-1" Cut="0.0000000000000000e+00" cType="1" res="5.5011222139000893e-04" rms="2.1037178114056587e-02" purity="1.0000000000000000e+00" nType="-99"/>
                <Node pos="r" depth="5" NCoef="0" IVar="-1" Cut="0.0000000000000000e+00" cType="1" res="-4.4122099643573165e-04" rms="2.0001448690891266e-02" purity="1.0000000000000000e+00" nType="-99"/>
              </Node>
              <Node pos="r" depth="4" NCoef="0" IVar="1" Cut="1.1753207445144653e+00" cType="1" res="4.7908551059663296e-03" rms="2.1053280681371689e-02" purity="1.0000000000000000e+00" nType="0">
                <Node pos="l" depth="5" NCoef="0" IVar="-1" Cut="0.0000000000000000e+00" cType="1" res="4.0002504829317331e-04" rms="2.1013861522078514e-02" purity="1.0000000000000000e+00" nType="-99"/>
                <Node pos="r" depth="5" NCoef="0" IVar="-1" Cut="0.0000000000000000e+00" cType="1" res="8.8033534120768309e-04" rms="2.0986817777156830e-02" purity="1.0000000000000000e+00" nType="-99"/>
              </Node>
            </Node>
            <Node pos="r" depth="3" NCoef="0" IVar="2" Cut="9.0499883517622948e-03" cType="1" res="-7.1086664684116840e-03" rms="2.1525738760828972e-02" purity="1.0000000000000000e+00" nType="0">
              <Node pos="l" depth="4" NCoef="0" IVar="5" Cut="5.1152333617210388e-02" cType="1" res="-4.4930726289749146e-03" rms="2.1837063133716583e-02" purity="1.0000000000000000e+00" nType="0">
                <Node pos="l" depth="5" NCoef="0" IVar="-1" Cut="0.0000000000000000e+00" cType="1" res="-3.4297234378755093e-04" rms="2.1348301321268082e-02" purity="1.0000000000000000e+00" nType="-99"/>
                <Node pos="r" depth="5" NCoef="0" IVar="-1" Cut="0.0000000000000000e+00" cType="1" res="-1.0518227936699986e-03" rms="2.2080615162849426e-02" purity="1.0000000000000000e+00" nType="-99"/>
              </Node>
              <Node pos="r" depth="4" NCoef="0" IVar="4" Cut="9.3990871682763100e-03" cType="1" res="-9.6667958423495293e-03" rms="2.0902611315250397e-02" purity="1.0000000000000000e+00" nType="0">
                <Node pos="l" depth="5" NCoef="0" IVar="-1" Cut="0.0000000000000000e+00" cType="1" res="-8.5355504415929317e-04" rms="2.0274503156542778e-02" purity="1.0000000000000000e+00" nType="-99"/>
                <Node pos="r" depth="5" NCoef="0" IVar="-1" Cut="0.0000000000000000e+00" cType="1" res="-1.7939456738531590e-03" rms="2.0995737984776497e-02" purity="1.0000000000000000e+00" nType="-99"/>
              </Node>
            </Node>
          </Node>
        </Node>
        <Node pos="r" depth="1" NCoef="0" IVar="6" Cut="7.3844206053763628e-04" cType="1" res="-1.3362982310354710e-02" rms="2.3098517209291458e-02" purity="1.0000000000000000e+00" nType="0">
          <Node pos="l" depth="2" NCoef="0" IVar="1" Cut="-1.1218922138214111e+00" cType="1" res="-6.0855499468743801e-03" rms="2.4732198566198349e-02" purity="1.0000000000000000e+00" nType="0">
            <Node pos="l" depth="3" NCoef="0" IVar="-1" Cut="0.0000000000000000e+00" cType="1" res="1.9247460295446217e-04" rms="2.5673223659396172e-02" purity="1.0000000000000000e+00" nType="-99"/>
            <Node pos="r" depth="3" NCoef="0" IVar="1" Cut="1.1332060098648071e+00" cType="1" res="-7.5635737739503384e-03" rms="2.4272138252854347e-02" purity="1.0000000000000000e+00" nType="0">
              <Node pos="l" depth="4" NCoef="0" IVar="4" Cut="9.5336074009537697e-03" cType="1" res="-9.7610466182231903e-03" rms="2.3389473557472229e-02" purity="1.0000000000000000e+00" nType="0">
                <Node pos="l" depth="5" NCoef="0" IVar="-1" Cut="0.0000000000000000e+00" cType="1" res="-6.4735440537333488e-04" rms="2.3247560486197472e-02" purity="1.0000000000000000e+00" nType="-99"/>
                <Node pos="r" depth="5" NCoef="0" IVar="-1" Cut="0.0000000000000000e+00" cType="1" res="-2.4868275504559278e-03" rms="2.3071654140949249e-02" purity="1.0000000000000000e+00" nType="-99"/>
              </Node>
              <Node pos="r" depth="4" NCoef="0" IVar="-1" Cut="0.0000000000000000e+00" cType="1" res="5.4621855269942898e-06" rms="2.5700956583023071e-02" purity="1.0000000000000000e+00" nType="-99"/>
            </Node>
          </Node>
          <Node pos="r" depth="2" NCoef="0" IVar="5" Cut="9.6391580998897552e-02" cType="1" res="-1.7353795468807220e-02" rms="2.1112112328410149e-02" purity="1.0000000000000000e+00" nType="0">
            <Node pos="l" depth="3" NCoef="0" IVar="4" Cut="9.4584347680211067e-03" cType="1" res="-1.5052288770675659e-02" rms="2.1502312272787094e-02" purity="1.0000000000000000e+00" nType="0">
              <Node pos="l" depth="4" NCoef="0" IVar="-1" Cut="0.0000000000000000e+00" cType="1" res="-1.6735945828258991e-03" rms="2.2527527064085007e-02" purity="1.0000000000000000e+00" nType="-99"/>
              <Node pos="r" depth="4" NCoef="0" IVar="3" Cut="1.5744974836707115e-02" cType="1" res="-1.5719462186098099e-02" rms="2.1277865394949913e-02" purity="1.0000000000000000e+00" nType="0">
                <Node pos="l" depth="5" NCoef="0" IVar="-1" Cut="0.0000000000000000e+00" cType="1" res="-3.2121019903570414e-03" rms="2.0600395277142525e-02" purity="1.0000000000000000e+00" nType="-99"/>
                <Node pos="r" depth="5" NCoef="0" IVar="-1" Cut="0.0000000000000000e+00" cType="1" res="-2.4757357314229012e-03" rms="2.3777188733220100e-02" purity="1.0000000000000000e+00" nType="-99"/>
              </Node>
            </Node>
            <Node pos="r" depth="3" NCoef="0" IVar="4" Cut="1.5455774031579494e-02" cType="1" res="-2.0736118778586388e-02" rms="2.0051430910825729e-02" purity="1.0000000000000000e+00" nType="0">
              <Node pos="l" depth="4" NCoef="0" IVar="3" Cut="1.2623028829693794e-02" cType="1" res="-1.8476478755474091e-02" rms="2.1460145711898804e-02" purity="1.0000000000000000e+00" nType="0">
                <Node pos="l" depth="5" NCoef="0" IVar="-1" Cut="0.0000000000000000e+00" cType="1" res="-5.6336554698646069e-03" rms="2.0391561090946198e-02" purity="1.0000000000000000e+00" nType="-99"/>
                <Node pos="r" depth="5" NCoef="0" IVar="-1" Cut="0.0000000000000000e+00" cType="1" res="-5.8320667594671249e-03" rms="2.2436592727899551e-02" purity="1.0000000000000000e+00" nType="-99"/>
              </Node>
              <Node pos="r" depth="4" NCoef="0" IVar="5" Cut="1.3685300946235657e-01" cType="1" res="-2.1727861836552620e-02" rms="1.9317599013447762e-02" purity="1.0000000000000000e+00" nType="0">
                <Node pos="l" depth="5" NCoef="0" IVar="-1" Cut="0.0000000000000000e+00" cType="1" res="-6.1122025363147259e-03" rms="1.9775914028286934e-02" purity="1.0000000000000000e+00" nType="-99"/>
                <Node pos="r" depth="5" NCoef="0" IVar="-1" Cut="0.0000000000000000e+00" cType="1" res="-1.2222453020513058e-02" rms="1.7719900235533714e-02" purity="1.0000000000000000e+00" nType="-99"/>
              </Node>
            </Node>
          </Node>
        </Node>
      </Node>
    </BinaryTree>
    <BinaryTree type="DecisionTree" boostWeight="1.0000000000000000e+00" itree="5">
      <Node pos="s" depth="0" NCoef="0" IVar="5" Cut="6.2491782009601593e-02" cType="1" res="-1.6741550061851740e-03" rms="2.0020276308059692e-02" purity="1.0000000000000000e+00" nType="0">
        <Node pos="l" depth="1" NCoef="0" IVar="5" Cut="4.1361764073371887e-02" cType="1" res="1.8667991971597075e-03" rms="1.7577074468135834e-02" purity="1.0000000000000000e+00" nType="0">
          <Node pos="l" depth="2" NCoef="0" IVar="4" Cut="1.1276960372924805e-02" cType="1" res="3.3182022161781788e-03" rms="1.5911553055047989e-02" purity="1.0000000000000000e+00" nType="0">
            <Node pos="l" depth="3" NCoef="0" IVar="5" Cut="2.0573537796735764e-02" cType="1" res="3.6390793975442648e-03" rms="1.5540754422545433e-02" purity="1.0000000000000000e+00" nType="0">
              <Node pos="l" depth="4" NCoef="0" IVar="1" Cut="-4.8539301753044128e-01" cType="1" res="4.4610309414565563e-03" rms="1.3354439288377762e-02" purity="1.0000000000000000e+00" nType="0">
                <Node pos="l" depth="5" NCoef="0" IVar="-1" Cut="0.0000000000000000e+00" cType="1" res="5.8466795599088073e-04" rms="1.3832125812768936e-02" purity="1.0000000000000000e+00" nType="-99"/>
                <Node pos="r" depth="5" NCoef="0" IVar="-1" Cut="0.0000000000000000e+00" cType="1" res="4.4589542085304856e-04" rms="1.3188292272388935e-02" purity="1.0000000000000000e+00" nType="-99"/>
              </Node>
              <Node pos="r" depth="4" NCoef="0" IVar="6" Cut="9.5902979373931885e-03" cType="1" res="2.4452132638543844e-03" rms="1.8189756199717522e-02" purity="1.0000000000000000e+00" nType="0">
                <Node pos="l" depth="5" NCoef="0" IVar="-1" Cut="0.0000000000000000e+00" cType="1" res="3.8512877654284239e-04" rms="1.7338976263999939e-02" purity="1.0000000000000000e+00" nType="-99"/>
                <Node pos="r" depth="5" NCoef="0" IVar="-1" Cut="0.0000000000000000e+00" cType="1" res="-1.4707149239256978e-04" rms="2.0713862031698227e-02" purity="1.0000000000000000e+00" nType="-99"/>
              </Node>
            </Node>
            <Node pos="r" depth="3" NCoef="0" IVar="5" Cut="1.9613467156887054e-02" cType="1" res="-2.6052559260278940e-03" rms="2.0772129297256470e-02" purity="1.0000000000000000e+00" nType="0">
              <Node pos="l" depth="4" NCoef="0" IVar="-1" Cut="0.0000000000000000e+00" cType="1" res="5.1566796173574403e-05" rms="1.9107850268483162e-02" purity="1.0000000000000000e+00" nType="-99"/>
              <Node pos="r" depth="4" NCoef="0" IVar="-1" Cut="0.0000000000000000e+00" cType="1" res="-7.9872109927237034e-04" rms="2.1637892350554466e-02" purity="1.0000000000000000e+00" nType="-99"/>
            </Node>
          </Node>
          <Node pos="r" depth="2" NCoef="0" IVar="6" Cut="3.5976434592157602e-03" cType="1" res="-2.4290294386446476e-03" rms="2.1197851747274399e-02" purity="1.0000000000000000e+00" nType="0">
            <Node pos="l" depth="3" NCoef="0" IVar="4" Cut="8.5937781259417534e-03" cType="1" res="4.6607042895630002e-04" rms="2.0692246034741402e-02" purity="1.0000000000000000e+00" nType="0">
              <Node pos="l" depth="4" NCoef="0" IVar="3" Cut="1.1181614361703396e-02" cType="1" res="4.1663367301225662e-03" rms="1.9713165238499641e-02" purity="1.0000000000000000e+00" nType="0">
                <Node pos="l" depth="5" NCoef="0" IVar="-1" Cut="0.0000000000000000e+00" cType="1" res="2.4869557819329202e-04" rms="1.8401307985186577e-02" purity="1.0000000000000000e+00" nType="-99"/>
                <Node pos="r" depth="5" NCoef="0" IVar="-1" Cut="0.0000000000000000e+00" cType="1" res="7.0185674121603370e-04" rms="2.0283618941903114e-02" purity="1.0000000000000000e+00" nType="-99"/>
              </Node>
              <Node pos="r" depth="4" NCoef="0" IVar="1" Cut="9.2847132682800293e-01" cType="1" res="-8.9039304293692112e-04" rms="2.0876111462712288e-02" purity="1.0000000000000000e+00" nType="0">
                <Node pos="l" depth="5" NCoef="0" IVar="-1" Cut="0.0000000000000000e+00" cType="1" res="-3.5676467814482749e-04" rms="2.0646624267101288e-02" purity="1.0000000000000000e+00" nType="-99"/>
                <Node pos="r" depth="5" NCoef="0" IVar="-1" Cut="0.0000000000000000e+00" cType="1" res="5.2878522546961904e-04" rms="2.0819047465920448e-02" purity="1.0000000000000000e+00" nType="-99"/>
              </Node>
            </Node>
            <Node pos="r" depth="3" NCoef="0" IVar="1" Cut="9.6309614181518555e-01" cType="1" res="-6.5617468208074570e-03" rms="2.1225899457931519e-02" purity="1.0000000000000000e+00" nType="0">
              <Node pos="l" depth="4" NCoef="0" IVar="1" Cut="-7.8395903110504150e-01" cType="1" res="-7.7215991914272308e-03" rms="2.0789686590433121e-02" purity="1.0000000000000000e+00" nType="0">
                <Node pos="l" depth="5" NCoef="0" IVar="-1" Cut="0.0000000000000000e+00" cType="1" res="-4.8205375787802041e-04" rms="2.2047992795705795e-02" purity="1.0000000000000000e+00" nType="-99"/>
                <Node pos="r" depth="5" NCoef="0" IVar="-1" Cut="0.0000000000000000e+00" cType="1" res="-1.4399957144632936e-03" rms="1.9858367741107941e-02" purity="1.0000000000000000e+00" nType="-99"/>
              </Node>
              <Node pos="r" depth="4" NCoef="0" IVar="-1" Cut="0.0000000000000000e+00" cType="1" res="-2.8628460131585598e-04" rms="2.2339481860399246e-02" purity="1.0000000000000000e+00" nType="-99"/>
            </Node>
          </Node>
        </Node>
        <Node pos="r" depth="1" NCoef="0" IVar="6" Cut="7.3844206053763628e-04" cType="1" res="-1.2111522257328033e-02" rms="2.2927634418010712e-02" purity="1.0000000000000000e+00" nType="0">
          <Node pos="l" depth="2" NCoef="0" IVar="1" Cut="-1.0158832073211670e+00" cType="1" res="-5.4282848723232746e-03" rms="2.4309957399964333e-02" purity="1.0000000000000000e+00" nType="0">
            <Node pos="l" depth="3" NCoef="0" IVar="4" Cut="1.3191672042012215e-02" cType="1" res="-1.9625000277301297e-05" rms="2.5088798254728317e-02" purity="1.0000000000000000e+00" nType="0">
              <Node pos="l" depth="4" NCoef="0" IVar="-1" Cut="0.0000000000000000e+00" cType="1" res="8.4199139382690191e-04" rms="2.3986665531992912e-02" purity="1.0000000000000000e+00" nType="-99"/>
              <Node pos="r" depth="4" NCoef="0" IVar="-1" Cut="0.0000000000000000e+00" cType="1" res="-1.1376367183402181e-03" rms="2.5394851341843605e-02" purity="1.0000000000000000e+00" nType="-99"/>
            </Node>
            <Node pos="r" depth="3" NCoef="0" IVar="1" Cut="1.1173300743103027e+00" cType="1" res="-6.9887586869299412e-03" rms="2.3853691294789314e-02" purity="1.0000000000000000e+00" nType="0">
              <Node pos="l" depth="4" NCoef="0" IVar="4" Cut="9.5336074009537697e-03" cType="1" res="-9.2591671273112297e-03" rms="2.2927513346076012e-02" purity="1.0000000000000000e+00" nType="0">
                <Node pos="l" depth="5" NCoef="0" IVar="-1" Cut="0.0000000000000000e+00" cType="1" res="-6.2126258853822947e-04" rms="2.2802108898758888e-02" purity="1.0000000000000000e+00" nType="-99"/>
                <Node pos="r" depth="5" NCoef="0" IVar="-1" Cut="0.0000000000000000e+00" cType="1" res="-2.4205516092479229e-03" rms="2.2601362317800522e-02" purity="1.0000000000000000e+00" nType="-99"/>
              </Node>
              <Node pos="r" depth="4" NCoef="0" IVar="-1" Cut="0.0000000000000000e+00" cType="1" res="-3.6591602111002430e-05" rms="2.5255212560296059e-02" purity="1.0000000000000000e+00" nType="-99"/>
            </Node>
          </Node>
          <Node pos="r" depth="2" NCoef="0" IVar="5" Cut="9.2403374612331390e-02" cType="1" res="-1.5776490792632103e-02" rms="2.1258942782878876e-02" purity="1.0000000000000000e+00" nType="0">
            <Node pos="l" depth="3" NCoef="0" IVar="2" Cut="8.8312262669205666e-03" cType="1" res="-1.3284963555634022e-02" rms="2.1471133455634117e-02" purity="1.0000000000000000e+00" nType="0">
              <Node pos="l" depth="4" NCoef="0" IVar="5" Cut="7.5088694691658020e-02" cType="1" res="-1.0781121440231800e-02" rms="2.2370833903551102e-02" purity="1.0000000000000000e+00" nType="0">
                <Node pos="l" depth="5" NCoef="0" IVar="-1" Cut="0.0000000000000000e+00" cType="1" res="-1.4685550704598427e-03" rms="2.2497938945889473e-02" purity="1.0000000000000000e+00" nType="-99"/>
                <Node pos="r" depth="5" NCoef="0" IVar="-1" Cut="0.0000000000000000e+00" cType="1" res="-2.5914325378835201e-03" rms="2.2027943283319473e-02" purity="1.0000000000000000e+00" nType="-99"/>
              </Node>
              <Node pos="r" depth="4" NCoef="0" IVar="1" Cut="9.9989539384841919e-01" cType="1" res="-1.4591970480978489e-02" rms="2.0867168903350830e-02" purity="1.0000000000000000e+00" nType="0">
                <Node pos="l" depth="5" NCoef="0" IVar="-1" Cut="0.0000000000000000e+00" cType="1" res="-2.9053271282464266e-03" rms="2.0371004939079285e-02" purity="1.0000000000000000e+00" nType="-99"/>
                <Node pos="r" depth="5" NCoef="0" IVar="-1" Cut="0.0000000000000000e+00" cType="1" res="-2.2551314905285835e-03" rms="2.2749023512005806e-02" purity="1.0000000000000000e+00" nType="-99"/>
              </Node>
            </Node>
            <Node pos="r" depth="3" NCoef="0" IVar="4" Cut="1.5455774031579494e-02" cType="1" res="-1.8717626109719276e-02" rms="2.0621864125132561e-02" purity="1.0000000000000000e+00" nType="0">
              <Node pos="l" depth="4" NCoef="0" IVar="4" Cut="1.2581830844283104e-02" cType="1" res="-1.6594840213656425e-02" rms="2.1731724962592125e-02" purity="1.0000000000000000e+00" nType="0">
                <Node pos="l" depth="5" NCoef="0" IVar="-1" Cut="0.0000000000000000e+00" cType="1" res="-4.1449172422289848e-03" rms="2.2312302142381668e-02" purity="1.0000000000000000e+00" nType="-99"/>
                <Node pos="r" depth="5" NCoef="0" IVar="-1" Cut="0.0000000000000000e+00" cType="1" res="-5.2174618467688560e-03" rms="2.1291414275765419e-02" purity="1.0000000000000000e+00" nType="-99"/>
              </Node>
              <Node pos="r" depth="4" NCoef="0" IVar="5" Cut="1.3302877545356750e-01" cType="1" res="-1.9847856834530830e-02" rms="1.9913738593459129e-02" purity="1.0000000000000000e+00" nType="0">
                <Node pos="l" depth="5" NCoef="0" IVar="-1" Cut="0.0000000000000000e+00" cType="1" res="-5.1841270178556442e-03" rms="2.0267063751816750e-02" purity="1.0000000000000000e+00" nType="-99"/>
                <Node pos="r" depth="5" NCoef="0" IVar="-1" Cut="0.0000000000000000e+00" cType="1" res="-1.0236125439405441e-02" rms="1.8857294693589211e-02" purity="1.0000000000000000e+00" nType="-99"/>
              </Node>
            </Node>
          </Node>
        </Node>
      </Node>
    </BinaryTree>
    <BinaryTree type="DecisionTree" boostWeight="1.0000000000000000e+00" itree="6">
      <Node pos="s" depth="0" NCoef="0" IVar="5" Cut="6.4603932201862335e-02" cType="1" res="-1.5344739658758044e-03" rms="1.9656680524349213e-02" purity="1.0000000000000000e+00" nType="0">
        <Node pos="l" depth="1" NCoef="0" IVar="5" Cut="4.6263877302408218e-02" cType="1" res="1.5412210486829281e-03" rms="1.7477560788393021e-02" purity="1.0000000000000000e+00" nType="0">
          <Node pos="l" depth="2" NCoef="0" IVar="4" Cut="1.1069766245782375e-02" cType="1" res="2.7350487653166056e-03" rms="1.6164401546120644e-02" purity="1.0000000000000000e+00" nType="0">
            <Node pos="l" depth="3" NCoef="0" IVar="4" Cut="8.5219703614711761e-03" cType="1" res="3.1335800886154175e-03" rms="1.5730259940028191e-02" purity="1.0000000000000000e+00" nType="0">
              <Node pos="l" depth="4" NCoef="0" IVar="1" Cut="1.3861495256423950e+00" cType="1" res="4.2727957479655743e-03" rms="1.5229093842208385e-02" purity="1.0000000000000000e+00" nType="0">
                <Node pos="l" depth="5" NCoef="0" IVar="-1" Cut="0.0000000000000000e+00" cType="1" res="4.9583165673539042e-04" rms="1.4780415222048759e-02" purity="1.0000000000000000e+00" nType="-99"/>
                <Node pos="r" depth="5" NCoef="0" IVar="-1" Cut="0.0000000000000000e+00" cType="1" res="-1.4783177175559103e-04" rms="2.2877963259816170e-02" purity="1.0000000000000000e+00" nType="-99"/>
              </Node>
              <Node pos="r" depth="4" NCoef="0" IVar="5" Cut="1.7005674540996552e-02" cType="1" res="2.1769793238490820e-03" rms="1.6076840460300446e-02" purity="1.0000000000000000e+00" nType="0">
                <Node pos="l" depth="5" NCoef="0" IVar="-1" Cut="0.0000000000000000e+00" cType="1" res="4.0371442446485162e-04" rms="1.2913334183394909e-02" purity="1.0000000000000000e+00" nType="-99"/>
                <Node pos="r" depth="5" NCoef="0" IVar="-1" Cut="0.0000000000000000e+00" cType="1" res="1.0095979087054729e-04" rms="1.8103936687111855e-02" purity="1.0000000000000000e+00" nType="-99"/>
              </Node>
            </Node>
            <Node pos="r" depth="3" NCoef="0" IVar="5" Cut="2.5076376274228096e-02" cType="1" res="-2.3509110324084759e-03" rms="2.0251028239727020e-02" purity="1.0000000000000000e+00" nType="0">
              <Node pos="l" depth="4" NCoef="0" IVar="5" Cut="1.4025220647454262e-02" cType="1" res="3.9162408211268485e-04" rms="1.8981691449880600e-02" purity="1.0000000000000000e+00" nType="0">
                <Node pos="l" depth="5" NCoef="0" IVar="-1" Cut="0.0000000000000000e+00" cType="1" res="2.0955892978236079e-04" rms="1.6290627419948578e-02" purity="1.0000000000000000e+00" nType="-99"/>
                <Node pos="r" depth="5" NCoef="0" IVar="-1" Cut="0.0000000000000000e+00" cType="1" res="-1.9846722716465592e-04" rms="2.1220989525318146e-02" purity="1.0000000000000000e+00" nType="-99"/>
              </Node>
              <Node pos="r" depth="4" NCoef="0" IVar="2" Cut="9.1448510065674782e-03" cType="1" res="-4.6452442184090614e-03" rms="2.0981157198548317e-02" purity="1.0000000000000000e+00" nType="0">
                <Node pos="l" depth="5" NCoef="0" IVar="-1" Cut="0.0000000000000000e+00" cType="1" res="-3.1170982401818037e-04" rms="2.0200256258249283e-02" purity="1.0000000000000000e+00" nType="-99"/>
                <Node pos="r" depth="5" NCoef="0" IVar="-1" Cut="0.0000000000000000e+00" cType="1" res="-1.3188812881708145e-03" rms="2.1510878577828407e-02" purity="1.0000000000000000e+00" nType="-99"/>
              </Node>
            </Node>
          </Node>
          <Node pos="r" depth="2" NCoef="0" IVar="6" Cut="9.2510832473635674e-03" cType="1" res="-3.1618610955774784e-03" rms="2.1254820749163628e-02" purity="1.0000000000000000e+00" nType="0">
            <Node pos="l" depth="3" NCoef="0" IVar="2" Cut="8.9794592931866646e-03" cType="1" res="-5.8463576715439558e-04" rms="2.0822532474994659e-02" purity="1.0000000000000000e+00" nType="0">
              <Node pos="l" depth="4" NCoef="0" IVar="4" Cut="1.0532050393521786e-02" cType="1" res="1.5797754749655724e-03" rms="2.0656730979681015e-02" purity="1.0000000000000000e+00" nType="0">
                <Node pos="l" depth="5" NCoef="0" IVar="-1" Cut="0.0000000000000000e+00" cType="1" res="4.0607305709272623e-04" rms="2.0596701651811600e-02" purity="1.0000000000000000e+00" nType="-99"/>
                <Node pos="r" depth="5" NCoef="0" IVar="-1" Cut="0.0000000000000000e+00" cType="1" res="-1.1109738261438906e-04" rms="2.0549552515149117e-02" purity="1.0000000000000000e+00" nType="-99"/>
              </Node>
              <Node pos="r" depth="4" NCoef="0" IVar="4" Cut="9.0899504721164703e-03" cType="1" res="-2.9295133426785469e-03" rms="2.0747406408190727e-02" purity="1.0000000000000000e+00" nType="0">
                <Node pos="l" depth="5" NCoef="0" IVar="-1" Cut="0.0000000000000000e+00" cType="1" res="6.9708868977613747e-05" rms="1.9952379167079926e-02" purity="1.0000000000000000e+00" nType="-99"/>
                <Node pos="r" depth="5" NCoef="0" IVar="-1" Cut="0.0000000000000000e+00" cType="1" res="-7.4192875763401389e-04" rms="2.0889164879918098e-02" purity="1.0000000000000000e+00" nType="-99"/>
              </Node>
            </Node>
            <Node pos="r" depth="3" NCoef="0" IVar="1" Cut="9.1598325967788696e-01" cType="1" res="-7.4303848668932915e-03" rms="2.1276105195283890e-02" purity="1.0000000000000000e+00" nType="0">
              <Node pos="l" depth="4" NCoef="0" IVar="1" Cut="-7.6867848634719849e-01" cType="1" res="-8.4746554493904114e-03" rms="2.0857272669672966e-02" purity="1.0000000000000000e+00" nType="0">
                <Node pos="l" depth="5" NCoef="0" IVar="-1" Cut="0.0000000000000000e+00" cType="1" res="-7.0594204589724541e-04" rms="2.2440262138843536e-02" purity="1.0000000000000000e+00" nType="-99"/>
                <Node pos="r" depth="5" NCoef="0" IVar="-1" Cut="0.0000000000000000e+00" cType="1" res="-1.6021502669900656e-03" rms="1.9846348091959953e-02" purity="1.0000000000000000e+00" nType="-99"/>
              </Node>
              <Node pos="r" depth="4" NCoef="0" IVar="-1" Cut="0.0000000000000000e+00" cType="1" res="-5.4492597701027989e-04" rms="2.2450374439358711e-02" purity="1.0000000000000000e+00" nType="-99"/>
            </Node>
          </Node>
        </Node>
        <Node pos="r" depth="1" NCoef="0" IVar="6" Cut="7.3844206053763628e-04" cType="1" res="-1.1377949267625809e-02" rms="2.2763842716813087e-02" purity="1.0000000000000000e+00" nType="0">
          <Node pos="l" depth="2" NCoef="0" IVar="1" Cut="-1.1155004501342773e+00" cType="1" res="-5.2232309244573116e-03" rms="2.4097690358757973e-02" purity="1.0000000000000000e+00" nType="0">
            <Node pos="l" depth="3" NCoef="0" IVar="-1" Cut="0.0000000000000000e+00" cType="1" res="1.4539476251229644e-04" rms="2.4954430758953094e-02" purity="1.0000000000000000e+00" nType="-99"/>
            <Node pos="r" depth="3" NCoef="0" IVar="1" Cut="1.0513272285461426e+00" cType="1" res="-6.5116723999381065e-03" rms="2.3711893707513809e-02" purity="1.0000000000000000e+00" nType="0">
              <Node pos="l" depth="4" NCoef="0" IVar="4" Cut="1.1122783645987511e-02" cType="1" res="-8.5335373878479004e-03" rms="2.2855671122670174e-02" purity="1.0000000000000000e+00" nType="0">
                <Node pos="l" depth="5" NCoef="0" IVar="-1" Cut="0.0000000000000000e+00" cType="1" res="-1.0079158237203956e-03" rms="2.2773178294301033e-02" purity="1.0000000000000000e+00" nType="-99"/>
                <Node pos="r" depth="5" NCoef="0" IVar="-1" Cut="0.0000000000000000e+00" cType="1" res="-2.7530144434422255e-03" rms="2.2469768300652504e-02" purity="1.0000000000000000e+00" nType="-99"/>
              </Node>
              <Node pos="r" depth="4" NCoef="0" IVar="-1" Cut="0.0000000000000000e+00" cType="1" res="-2.8772509540431201e-04" rms="2.5096287950873375e-02" purity="1.0000000000000000e+00" nType="-99"/>
            </Node>
          </Node>
          <Node pos="r" depth="2" NCoef="0" IVar="5" Cut="9.6442297101020813e-02" cType="1" res="-1.4602054841816425e-02" rms="2.1335670724511147e-02" purity="1.0000000000000000e+00" nType="0">
            <Node pos="l" depth="3" NCoef="0" IVar="4" Cut="9.6939802169799805e-03" cType="1" res="-1.2502515688538551e-02" rms="2.1407851949334145e-02" purity="1.0000000000000000e+00" nType="0">
              <Node pos="l" depth="4" NCoef="0" IVar="-1" Cut="0.0000000000000000e+00" cType="1" res="-1.4174517709761858e-03" rms="2.1847115829586983e-02" purity="1.0000000000000000e+00" nType="-99"/>
              <Node pos="r" depth="4" NCoef="0" IVar="1" Cut="-1.1088396310806274e+00" cType="1" res="-1.3139282353222370e-02" rms="2.1268229931592941e-02" purity="1.0000000000000000e+00" nType="0">
                <Node pos="l" depth="5" NCoef="0" IVar="-1" Cut="0.0000000000000000e+00" cType="1" res="-1.9622815307229757e-03" rms="2.3008529096841812e-02" purity="1.0000000000000000e+00" nType="-99"/>
                <Node pos="r" depth="5" NCoef="0" IVar="-1" Cut="0.0000000000000000e+00" cType="1" res="-2.7624457143247128e-03" rms="2.0721023902297020e-02" purity="1.0000000000000000e+00" nType="-99"/>
              </Node>
            </Node>
            <Node pos="r" depth="3" NCoef="0" IVar="4" Cut="1.5455774031579494e-02" cType="1" res="-1.7464708536863327e-02" rms="2.0899739116430283e-02" purity="1.0000000000000000e+00" nType="0">
              <Node pos="l" depth="4" NCoef="0" IVar="4" Cut="1.3315487653017044e-02" cType="1" res="-1.5209989622235298e-02" rms="2.2038375958800316e-02" purity="1.0000000000000000e+00" nType="0">
                <Node pos="l" depth="5" NCoef="0" IVar="-1" Cut="0.0000000000000000e+00" cType="1" res="-4.3944716453552246e-03" rms="2.2313648834824562e-02" purity="1.0000000000000000e+00" nType="-99"/>
                <Node pos="r" depth="5" NCoef="0" IVar="-1" Cut="0.0000000000000000e+00" cType="1" res="-5.0203856080770493e-03" rms="2.1712189540266991e-02" purity="1.0000000000000000e+00" nType="-99"/>
              </Node>
              <Node pos="r" depth="4" NCoef="0" IVar="5" Cut="1.3882273435592651e-01" cType="1" res="-1.8450543284416199e-02" rms="2.0303394645452499e-02" purity="1.0000000000000000e+00" nType="0">
                <Node pos="l" depth="5" NCoef="0" IVar="-1" Cut="0.0000000000000000e+00" cType="1" res="-4.9933176487684250e-03" rms="2.0532693713903427e-02" purity="1.0000000000000000e+00" nType="-99"/>
                <Node pos="r" depth="5" NCoef="0" IVar="-1" Cut="0.0000000000000000e+00" cType="1" res="-1.0456309653818607e-02" rms="1.9335310906171799e-02" purity="1.0000000000000000e+00" nType="-99"/>
              </Node>
            </Node>
          </Node>
        </Node>
      </Node>
    </BinaryTree>
    <BinaryTree type="DecisionTree" boostWeight="1.0000000000000000e+00" itree="7">
      <Node pos="s" depth="0" NCoef="0" IVar="5" Cut="6.6716082394123077e-02" cType="1" res="-1.4041187241673470e-03" rms="1.9373575225472450e-02" purity="1.0000000000000000e+00" nType="0">
        <Node pos="l" depth="1" NCoef="0" IVar="5" Cut="4.6858973801136017e-02" cType="1" res="1.2779792305082083e-03" rms="1.7401607707142830e-02" purity="1.0000000000000000e+00" nType="0">
          <Node pos="l" depth="2" NCoef="0" IVar="4" Cut="1.0914371348917484e-02" cType="1" res="2.4243115913122892e-03" rms="1.6081953421235085e-02" purity="1.0000000000000000e+00" nType="0">
            <Node pos="l" depth="3" NCoef="0" IVar="4" Cut="8.5354028269648552e-03" cType="1" res="2.8289263136684895e-03" rms="1.5634434297680855e-02" purity="1.0000000000000000e+00" nType="0">
              <Node pos="l" depth="4" NCoef="0" IVar="1" Cut="1.3861495256423950e+00" cType="1" res="3.8240659050643444e-03" rms="1.5187032520771027e-02" purity="1.0000000000000000e+00" nType="0">
                <Node pos="l" depth="5" NCoef="0" IVar="-1" Cut="0.0000000000000000e+00" cType="1" res="4.4348114170134068e-04" rms="1.4761169441044331e-02" purity="1.0000000000000000e+00" nType="-99"/>
                <Node pos="r" depth="5" NCoef="0" IVar="-1" Cut="0.0000000000000000e+00" cType="1" res="-1.2342155969236046e-04" rms="2.2599192336201668e-02" purity="1.0000000000000000e+00" nType="-99"/>
              </Node>
              <Node pos="r" depth="4" NCoef="0" IVar="2" Cut="9.2148818075656891e-03" cType="1" res="1.9598081707954407e-03" rms="1.5964290127158165e-02" purity="1.0000000000000000e+00" nType="0">
                <Node pos="l" depth="5" NCoef="0" IVar="-1" Cut="0.0000000000000000e+00" cType="1" res="3.4019318991340697e-04" rms="1.5588486567139626e-02" purity="1.0000000000000000e+00" nType="-99"/>
                <Node pos="r" depth="5" NCoef="0" IVar="-1" Cut="0.0000000000000000e+00" cType="1" res="1.4222130630514584e-05" rms="1.6425121575593948e-02" purity="1.0000000000000000e+00" nType="-99"/>
              </Node>
            </Node>
            <Node pos="r" depth="3" NCoef="0" IVar="5" Cut="2.2509988397359848e-02" cType="1" res="-1.7594667151570320e-03" rms="1.9651904702186584e-02" purity="1.0000000000000000e+00" nType="0">
              <Node pos="l" depth="4" NCoef="0" IVar="4" Cut="1.1506294831633568e-02" cType="1" res="9.7989197820425034e-04" rms="1.7873130738735199e-02" purity="1.0000000000000000e+00" nType="0">
                <Node pos="l" depth="5" NCoef="0" IVar="-1" Cut="0.0000000000000000e+00" cType="1" res="2.6291518588550389e-04" rms="1.5915555879473686e-02" purity="1.0000000000000000e+00" nType="-99"/>
                <Node pos="r" depth="5" NCoef="0" IVar="-1" Cut="0.0000000000000000e+00" cType="1" res="-9.4807051937095821e-05" rms="1.9615864381194115e-02" purity="1.0000000000000000e+00" nType="-99"/>
              </Node>
              <Node pos="r" depth="4" NCoef="0" IVar="2" Cut="9.3464404344558716e-03" cType="1" res="-3.6903531290590763e-03" rms="2.0596807822585106e-02" purity="1.0000000000000000e+00" nType="0">
                <Node pos="l" depth="5" NCoef="0" IVar="-1" Cut="0.0000000000000000e+00" cType="1" res="-2.5690160691738129e-04" rms="1.9950734451413155e-02" purity="1.0000000000000000e+00" nType="-99"/>
                <Node pos="r" depth="5" NCoef="0" IVar="-1" Cut="0.0000000000000000e+00" cType="1" res="-1.3615805655717850e-03" rms="2.1334370598196983e-02" purity="1.0000000000000000e+00" nType="-99"/>
              </Node>
            </Node>
          </Node>
          <Node pos="r" depth="2" NCoef="0" IVar="6" Cut="5.1394908223301172e-04" cType="1" res="-3.0627588275820017e-03" rms="2.1126210689544678e-02" purity="1.0000000000000000e+00" nType="0">
            <Node pos="l" depth="3" NCoef="0" IVar="1" Cut="9.2169100046157837e-01" cType="1" res="-3.4872093237936497e-04" rms="2.0856721326708794e-02" purity="1.0000000000000000e+00" nType="0">
              <Node pos="l" depth="4" NCoef="0" IVar="1" Cut="-8.5825395584106445e-01" cType="1" res="-1.6474083531647921e-03" rms="2.0579559728503227e-02" purity="1.0000000000000000e+00" nType="0">
                <Node pos="l" depth="5" NCoef="0" IVar="-1" Cut="0.0000000000000000e+00" cType="1" res="4.0869985241442919e-04" rms="2.0988576114177704e-02" purity="1.0000000000000000e+00" nType="-99"/>
                <Node pos="r" depth="5" NCoef="0" IVar="-1" Cut="0.0000000000000000e+00" cType="1" res="-5.8670621365308762e-04" rms="1.9927533343434334e-02" purity="1.0000000000000000e+00" nType="-99"/>
              </Node>
              <Node pos="r" depth="4" NCoef="0" IVar="4" Cut="1.0556704364717007e-02" cType="1" res="3.6526336334645748e-03" rms="2.1193871274590492e-02" purity="1.0000000000000000e+00" nType="0">
                <Node pos="l" depth="5" NCoef="0" IVar="-1" Cut="0.0000000000000000e+00" cType="1" res="7.6778233051300049e-04" rms="2.1103650331497192e-02" purity="1.0000000000000000e+00" nType="-99"/>
                <Node pos="r" depth="5" NCoef="0" IVar="-1" Cut="0.0000000000000000e+00" cType="1" res="2.9134887154214084e-04" rms="2.1186178550124168e-02" purity="1.0000000000000000e+00" nType="-99"/>
              </Node>
            </Node>
            <Node pos="r" depth="3" NCoef="0" IVar="2" Cut="9.1717848554253578e-03" cType="1" res="-6.4583616331219673e-03" rms="2.0969646051526070e-02" purity="1.0000000000000000e+00" nType="0">
              <Node pos="l" depth="4" NCoef="0" IVar="4" Cut="1.0369517840445042e-02" cType="1" res="-4.6865558251738548e-03" rms="2.1108482033014297e-02" purity="1.0000000000000000e+00" nType="0">
                <Node pos="l" depth="5" NCoef="0" IVar="-1" Cut="0.0000000000000000e+00" cType="1" res="-4.6451555681414902e-04" rms="2.1309727802872658e-02" purity="1.0000000000000000e+00" nType="-99"/>
                <Node pos="r" depth="5" NCoef="0" IVar="-1" Cut="0.0000000000000000e+00" cType="1" res="-9.9266914185136557e-04" rms="2.0802052691578865e-02" purity="1.0000000000000000e+00" nType="-99"/>
              </Node>
              <Node pos="r" depth="4" NCoef="0" IVar="4" Cut="9.7227329388260841e-03" cType="1" res="-8.9590288698673248e-03" rms="2.0513333380222321e-02" purity="1.0000000000000000e+00" nType="0">
                <Node pos="l" depth="5" NCoef="0" IVar="-1" Cut="0.0000000000000000e+00" cType="1" res="-9.0045668184757233e-04" rms="2.0136959850788116e-02" purity="1.0000000000000000e+00" nType="-99"/>
                <Node pos="r" depth="5" NCoef="0" IVar="-1" Cut="0.0000000000000000e+00" cType="1" res="-1.7898394726216793e-03" rms="2.0539287477731705e-02" purity="1.0000000000000000e+00" nType="-99"/>
              </Node>
            </Node>
          </Node>
        </Node>
        <Node pos="r" depth="1" NCoef="0" IVar="6" Cut="7.3844206053763628e-04" cType="1" res="-1.0692651383578777e-02" rms="2.2700048983097076e-02" purity="1.0000000000000000e+00" nType="0">
          <Node pos="l" depth="2" NCoef="0" IVar="5" Cut="1.0207617282867432e-01" cType="1" res="-5.0298995338380337e-03" rms="2.3942245170474052e-02" purity="1.0000000000000000e+00" nType="0">
            <Node pos="l" depth="3" NCoef="0" IVar="1" Cut="-9.9774581193923950e-01" cType="1" res="-3.7449949886649847e-03" rms="2.3643247783184052e-02" purity="1.0000000000000000e+00" nType="0">
              <Node pos="l" depth="4" NCoef="0" IVar="-1" Cut="0.0000000000000000e+00" cType="1" res="2.2864749189466238e-04" rms="2.4212924763560295e-02" purity="1.0000000000000000e+00" nType="-99"/>
              <Node pos="r" depth="4" NCoef="0" IVar="1" Cut="8.5331624746322632e-01" cType="1" res="-5.2126138471066952e-03" rms="2.3270068690180779e-02" purity="1.0000000000000000e+00" nType="0">
                <Node pos="l" depth="5" NCoef="0" IVar="-1" Cut="0.0000000000000000e+00" cType="1" res="-1.5657120384275913e-03" rms="2.2274749353528023e-02" purity="1.0000000000000000e+00" nType="-99"/>
                <Node pos="r" depth="5" NCoef="0" IVar="-1" Cut="0.0000000000000000e+00" cType="1" res="-1.8301211821381003e-04" rms="2.4135148152709007e-02" purity="1.0000000000000000e+00" nType="-99"/>
              </Node>
            </Node>
            <Node pos="r" depth="3" NCoef="0" IVar="-1" Cut="0.0000000000000000e+00" cType="1" res="-3.6847039591521025e-03" rms="2.4435386061668396e-02" purity="1.0000000000000000e+00" nType="-99"/>
          </Node>
          <Node pos="r" depth="2" NCoef="0" IVar="5" Cut="9.8486922681331635e-02" cType="1" res="-1.3536979444324970e-02" rms="2.1494030952453613e-02" purity="1.0000000000000000e+00" nType="0">
            <Node pos="l" depth="3" NCoef="0" IVar="1" Cut="-1.1276328563690186e+00" cType="1" res="-1.1667903512716293e-02" rms="2.1463233977556229e-02" purity="1.0000000000000000e+00" nType="0">
              <Node pos="l" depth="4" NCoef="0" IVar="-1" Cut="0.0000000000000000e+00" cType="1" res="-1.7983345314860344e-03" rms="2.3189580067992210e-02" purity="1.0000000000000000e+00" nType="-99"/>
              <Node pos="r" depth="4" NCoef="0" IVar="4" Cut="9.9020740017294884e-03" cType="1" res="-1.2413614429533482e-02" rms="2.0999241620302200e-02" purity="1.0000000000000000e+00" nType="0">
                <Node pos="l" depth="5" NCoef="0" IVar="-1" Cut="0.0000000000000000e+00" cType="1" res="-1.4229088556021452e-03" rms="2.1446909755468369e-02" purity="1.0000000000000000e+00" nType="-99"/>
                <Node pos="r" depth="5" NCoef="0" IVar="-1" Cut="0.0000000000000000e+00" cType="1" res="-2.6290775276720524e-03" rms="2.0832844078540802e-02" purity="1.0000000000000000e+00" nType="-99"/>
              </Node>
            </Node>
            <Node pos="r" depth="3" NCoef="0" IVar="4" Cut="1.5455774031579494e-02" cType="1" res="-1.6161246225237846e-02" rms="2.1261682733893394e-02" purity="1.0000000000000000e+00" nType="0">
              <Node pos="l" depth="4" NCoef="0" IVar="-1" Cut="0.0000000000000000e+00" cType="1" res="-4.3796668760478497e-03" rms="2.2366015240550041e-02" purity="1.0000000000000000e+00" nType="-99"/>
              <Node pos="r" depth="4" NCoef="0" IVar="5" Cut="1.2348178029060364e-01" cType="1" res="-1.7058296129107475e-02" rms="2.0739169791340828e-02" purity="1.0000000000000000e+00" nType="0">
                <Node pos="l" depth="5" NCoef="0" IVar="-1" Cut="0.0000000000000000e+00" cType="1" res="-4.0986160747706890e-03" rms="2.1008102223277092e-02" purity="1.0000000000000000e+00" nType="-99"/>
                <Node pos="r" depth="5" NCoef="0" IVar="-1" Cut="0.0000000000000000e+00" cType="1" res="-7.3227300308644772e-03" rms="2.0356733351945877e-02" purity="1.0000000000000000e+00" nType="-99"/>
              </Node>
            </Node>
          </Node>
        </Node>
      </Node>
    </BinaryTree>
    <BinaryTree type="DecisionTree" boostWeight="1.0000000000000000e+00" itree="8">
      <Node pos="s" depth="0" NCoef="0" IVar="5" Cut="6.8828232586383820e-02" cType="1" res="-1.2787580490112305e-03" rms="1.9096244126558304e-02" purity="1.0000000000000000e+00" nType="0">
        <Node pos="l" depth="1" NCoef="0" IVar="5" Cut="4.8178769648075104e-02" cType="1" res="1.0563528630882502e-03" rms="1.7316495999693871e-02" purity="1.0000000000000000e+00" nType="0">
          <Node pos="l" depth="2" NCoef="0" IVar="4" Cut="1.0603581555187702e-02" cType="1" res="2.1222026553004980e-03" rms="1.6044870018959045e-02" purity="1.0000000000000000e+00" nType="0">
            <Node pos="l" depth="3" NCoef="0" IVar="6" Cut="5.3017091704532504e-04" cType="1" res="2.5943035725504160e-03" rms="1.5549534000456333e-02" purity="1.0000000000000000e+00" nType="0">
              <Node pos="l" depth="4" NCoef="0" IVar="3" Cut="1.1162735521793365e-02" cType="1" res="3.0387837905436754e-03" rms="1.4664745889604092e-02" purity="1.0000000000000000e+00" nType="0">
                <Node pos="l" depth="5" NCoef="0" IVar="-1" Cut="0.0000000000000000e+00" cType="1" res="2.4844415020197630e-04" rms="1.3110669329762459e-02" purity="1.0000000000000000e+00" nType="-99"/>
                <Node pos="r" depth="5" NCoef="0" IVar="-1" Cut="0.0000000000000000e+00" cType="1" res="4.1589108877815306e-04" rms="1.5857854858040810e-02" purity="1.0000000000000000e+00" nType="-99"/>
              </Node>
              <Node pos="r" depth="4" NCoef="0" IVar="5" Cut="1.5967126935720444e-02" cType="1" res="8.7537325453013182e-04" rms="1.8478481099009514e-02" purity="1.0000000000000000e+00" nType="0">
                <Node pos="l" depth="5" NCoef="0" IVar="-1" Cut="0.0000000000000000e+00" cType="1" res="4.5959523413330317e-04" rms="1.5483406372368336e-02" purity="1.0000000000000000e+00" nType="-99"/>
                <Node pos="r" depth="5" NCoef="0" IVar="-1" Cut="0.0000000000000000e+00" cType="1" res="-1.0793579713208601e-04" rms="1.9489031285047531e-02" purity="1.0000000000000000e+00" nType="-99"/>
              </Node>
            </Node>
            <Node pos="r" depth="3" NCoef="0" IVar="1" Cut="7.2695428133010864e-01" cType="1" res="-1.0027727112174034e-03" rms="1.8702616915106773e-02" purity="1.0000000000000000e+00" nType="0">
              <Node pos="l" depth="4" NCoef="0" IVar="1" Cut="-7.6805102825164795e-01" cType="1" res="-1.9329661736264825e-03" rms="1.8467964604496956e-02" purity="1.0000000000000000e+00" nType="0">
                <Node pos="l" depth="5" NCoef="0" IVar="-1" Cut="0.0000000000000000e+00" cType="1" res="4.7432607971131802e-04" rms="1.8953394144773483e-02" purity="1.0000000000000000e+00" nType="-99"/>
                <Node pos="r" depth="5" NCoef="0" IVar="-1" Cut="0.0000000000000000e+00" cType="1" res="-4.0445124614052474e-04" rms="1.8107945099473000e-02" purity="1.0000000000000000e+00" nType="-99"/>
              </Node>
              <Node pos="r" depth="4" NCoef="0" IVar="-1" Cut="0.0000000000000000e+00" cType="1" res="4.5780226355418563e-04" rms="1.9169362261891365e-02" purity="1.0000000000000000e+00" nType="-99"/>
            </Node>
          </Node>
          <Node pos="r" depth="2" NCoef="0" IVar="6" Cut="6.6813379526138306e-03" cType="1" res="-3.0324379913508892e-03" rms="2.1012561395764351e-02" purity="1.0000000000000000e+00" nType="0">
            <Node pos="l" depth="3" NCoef="0" IVar="2" Cut="9.1235702857375145e-03" cType="1" res="-5.2096002036705613e-04" rms="2.0788002759218216e-02" purity="1.0000000000000000e+00" nType="0">
              <Node pos="l" depth="4" NCoef="0" IVar="4" Cut="1.0352886281907558e-02" cType="1" res="1.0419941972941160e-03" rms="2.0571473985910416e-02" purity="1.0000000000000000e+00" nType="0">
                <Node pos="l" depth="5" NCoef="0" IVar="-1" Cut="0.0000000000000000e+00" cType="1" res="3.4974081791006029e-04" rms="2.0386608317494392e-02" purity="1.0000000000000000e+00" nType="-99"/>
                <Node pos="r" depth="5" NCoef="0" IVar="-1" Cut="0.0000000000000000e+00" cType="1" res="-1.2638881162274629e-04" rms="2.0648837089538574e-02" purity="1.0000000000000000e+00" nType="-99"/>
              </Node>
              <Node pos="r" depth="4" NCoef="0" IVar="4" Cut="9.0794898569583893e-03" cType="1" res="-3.0997970607131720e-03" rms="2.0886274054646492e-02" purity="1.0000000000000000e+00" nType="0">
                <Node pos="l" depth="5" NCoef="0" IVar="-1" Cut="0.0000000000000000e+00" cType="1" res="1.6491918358951807e-05" rms="2.0099716261029243e-02" purity="1.0000000000000000e+00" nType="-99"/>
                <Node pos="r" depth="5" NCoef="0" IVar="-1" Cut="0.0000000000000000e+00" cType="1" res="-8.1292097456753254e-04" rms="2.1063782274723053e-02" purity="1.0000000000000000e+00" nType="-99"/>
              </Node>
            </Node>
            <Node pos="r" depth="3" NCoef="0" IVar="1" Cut="9.5718520879745483e-01" cType="1" res="-6.3515473157167435e-03" rms="2.0846595987677574e-02" purity="1.0000000000000000e+00" nType="0">
              <Node pos="l" depth="4" NCoef="0" IVar="1" Cut="-7.4693709611892700e-01" cType="1" res="-7.2878976352512836e-03" rms="2.0501697435975075e-02" purity="1.0000000000000000e+00" nType="0">
                <Node pos="l" depth="5" NCoef="0" IVar="-1" Cut="0.0000000000000000e+00" cType="1" res="-6.1350449686869979e-04" rms="2.1752860397100449e-02" purity="1.0000000000000000e+00" nType="-99"/>
                <Node pos="r" depth="5" NCoef="0" IVar="-1" Cut="0.0000000000000000e+00" cType="1" res="-1.4290476683527231e-03" rms="1.9586864858865738e-02" purity="1.0000000000000000e+00" nType="-99"/>
              </Node>
              <Node pos="r" depth="4" NCoef="0" IVar="-1" Cut="0.0000000000000000e+00" cType="1" res="-4.3836486293002963e-04" rms="2.1815799176692963e-02" purity="1.0000000000000000e+00" nType="-99"/>
            </Node>
          </Node>
        </Node>
        <Node pos="r" depth="1" NCoef="0" IVar="6" Cut="7.3844206053763628e-04" cType="1" res="-1.0041920468211174e-02" rms="2.2596716880798340e-02" purity="1.0000000000000000e+00" nType="0">
          <Node pos="l" depth="2" NCoef="0" IVar="1" Cut="-1.1149258613586426e+00" cType="1" res="-4.9471831880509853e-03" rms="2.3755455389618874e-02" purity="1.0000000000000000e+00" nType="0">
            <Node pos="l" depth="3" NCoef="0" IVar="-1" Cut="0.0000000000000000e+00" cType="1" res="4.8646361392457038e-05" rms="2.4604277685284615e-02" purity="1.0000000000000000e+00" nType="-99"/>
            <Node pos="r" depth="3" NCoef="0" IVar="1" Cut="1.1444028615951538e+00" cType="1" res="-6.0816565528512001e-03" rms="2.3411938920617104e-02" purity="1.0000000000000000e+00" nType="0">
              <Node pos="l" depth="4" NCoef="0" IVar="4" Cut="1.0725489817559719e-02" cType="1" res="-7.7141108922660351e-03" rms="2.2792845964431763e-02" purity="1.0000000000000000e+00" nType="0">
                <Node pos="l" depth="5" NCoef="0" IVar="-1" Cut="0.0000000000000000e+00" cType="1" res="-8.5829739691689610e-04" rms="2.2677633911371231e-02" purity="1.0000000000000000e+00" nType="-99"/>
                <Node pos="r" depth="5" NCoef="0" IVar="-1" Cut="0.0000000000000000e+00" cType="1" res="-2.3795478045940399e-03" rms="2.2593660280108452e-02" purity="1.0000000000000000e+00" nType="-99"/>
              </Node>
