<?xml version="1.0"?>
<MethodSetup Method="BDT::BDTG">
  <GeneralInfo>
    <Info name="TMVA Release" value="4.2.0 [262656]"/>
    <Info name="ROOT Release" value="6.02/05 [393733]"/>
    <Info name="Creator" value="cyeh"/>
    <Info name="Date" value="Wed Feb 17 14:46:40 2016"/>
    <Info name="Host" value="Linux cmsbuild13.cern.ch 2.6.32-504.8.1.el6.x86_64 #1 SMP Wed Jan 28 08:50:46 CET 2015 x86_64 x86_64 x86_64 GNU/Linux"/>
    <Info name="Dir" value="/afs/cern.ch/user/c/cyeh/2016_EnergyRegression/TMVA"/>
    <Info name="Training events" value="197353"/>
    <Info name="TrainingTime" value="3.18400215e+02"/>
    <Info name="AnalysisType" value="Regression"/>
  </GeneralInfo>
  <Options>
    <Option name="V" modified="No">False</Option>
    <Option name="VerbosityLevel" modified="No">Default</Option>
    <Option name="VarTransform" modified="No">None</Option>
    <Option name="H" modified="No">False</Option>
    <Option name="CreateMVAPdfs" modified="No">False</Option>
    <Option name="IgnoreNegWeightsInTraining" modified="No">False</Option>
    <Option name="NTrees" modified="Yes">500</Option>
    <Option name="MaxDepth" modified="Yes">5</Option>
    <Option name="MinNodeSize" modified="Yes">1</Option>
    <Option name="nCuts" modified="Yes">500</Option>
    <Option name="BoostType" modified="Yes">Grad</Option>
    <Option name="AdaBoostR2Loss" modified="No">quadratic</Option>
    <Option name="UseBaggedBoost" modified="No">False</Option>
    <Option name="Shrinkage" modified="Yes">1.000000e-01</Option>
    <Option name="AdaBoostBeta" modified="No">5.000000e-01</Option>
    <Option name="UseRandomisedTrees" modified="No">False</Option>
    <Option name="UseNvars" modified="No">3</Option>
    <Option name="UsePoissonNvars" modified="No">True</Option>
    <Option name="BaggedSampleFraction" modified="No">6.000000e-01</Option>
    <Option name="UseYesNoLeaf" modified="No">False</Option>
    <Option name="NegWeightTreatment" modified="Yes">ignorenegweightsintraining</Option>
    <Option name="Css" modified="No">1.000000e+00</Option>
    <Option name="Cts_sb" modified="No">1.000000e+00</Option>
    <Option name="Ctb_ss" modified="No">1.000000e+00</Option>
    <Option name="Cbb" modified="No">1.000000e+00</Option>
    <Option name="NodePurityLimit" modified="No">5.000000e-01</Option>
    <Option name="SeparationType" modified="No">regressionvariance</Option>
    <Option name="DoBoostMonitor" modified="No">False</Option>
    <Option name="UseFisherCuts" modified="No">False</Option>
    <Option name="MinLinCorrForFisher" modified="No">8.000000e-01</Option>
    <Option name="UseExclusiveVars" modified="No">False</Option>
    <Option name="DoPreselection" modified="No">False</Option>
    <Option name="SigToBkgFraction" modified="No">1.000000e+00</Option>
    <Option name="PruneMethod" modified="Yes">costcomplexity</Option>
    <Option name="PruneStrength" modified="Yes">5.000000e+00</Option>
    <Option name="PruningValFraction" modified="No">5.000000e-01</Option>
    <Option name="nEventsMin" modified="No">0</Option>
    <Option name="UseBaggedGrad" modified="Yes">False</Option>
    <Option name="GradBaggingFraction" modified="No">6.000000e-01</Option>
    <Option name="UseNTrainEvents" modified="No">0</Option>
    <Option name="NNodesMax" modified="No">0</Option>
  </Options>
  <Variables NVar="7">
    <Variable VarIndex="0" Expression="EleSCPhi" Label="EleSCPhi" Title="EleSCPhi" Unit="" Internal="EleSCPhi" Type="F" Min="-3.14158607e+00" Max="3.14157009e+00"/>
    <Variable VarIndex="1" Expression="EleSCEta" Label="EleSCEta" Title="EleSCEta" Unit="" Internal="EleSCEta" Type="F" Min="-2.73682523e+00" Max="2.60887694e+00"/>
    <Variable VarIndex="2" Expression="EleSigmaIEtaIEta" Label="EleSigmaIEtaIEta" Title="EleSigmaIEtaIEta" Unit="" Internal="EleSigmaIEtaIEta" Type="F" Min="9.18115955e-04" Max="5.90342470e-02"/>
    <Variable VarIndex="3" Expression="EleSigmaIPhiIPhi" Label="EleSigmaIPhiIPhi" Title="EleSigmaIPhiIPhi" Unit="" Internal="EleSigmaIPhiIPhi" Type="F" Min="1.14190881e-03" Max="7.90534467e-02"/>
    <Variable VarIndex="4" Expression="EleSCEtaWidth" Label="EleSCEtaWidth" Title="EleSCEtaWidth" Unit="" Internal="EleSCEtaWidth" Type="F" Min="7.50513689e-04" Max="5.07372499e-01"/>
    <Variable VarIndex="5" Expression="EleSCPhiWidth" Label="EleSCPhiWidth" Title="EleSCPhiWidth" Unit="" Internal="EleSCPhiWidth" Type="F" Min="5.55631064e-04" Max="1.40475726e+00"/>
    <Variable VarIndex="6" Expression="EleHoverE" Label="EleHoverE" Title="EleHoverE" Unit="" Internal="EleHoverE" Type="F" Min="0.00000000e+00" Max="5.21424055e-01"/>
  </Variables>
  <Spectators NSpec="0"/>
  <Classes NClass="1">
    <Class Name="Regression" Index="0"/>
  </Classes>
  <Targets NTrgt="1">
    <Target TargetIndex="0" Expression="EleTrueEn/EleEn" Label="EleTrueEn/EleEn" Title="EleTrueEn/EleEn" Unit="" Internal="EleTrueEn_D_EleEn" Type="F" Min="3.86312380e-02" Max="3.53797126e+00"/>
  </Targets>
  <Transformations NTransformations="0"/>
  <MVAPdfs/>
  <Weights NTrees="500" AnalysisType="1">
    <BinaryTree type="DecisionTree" boostWeight="9.9102461338043213e-01" itree="0">
      <Node pos="s" depth="0" NCoef="0" IVar="6" Cut="1.9774565473198891e-02" cType="1" res="-3.1180421356111765e-03" rms="3.7538509815931320e-02" purity="1.0000000000000000e+00" nType="0">
        <Node pos="l" depth="1" NCoef="0" IVar="6" Cut="1.7366859829053283e-03" cType="1" res="1.2320925481617451e-02" rms="2.9124356806278229e-02" purity="1.0000000000000000e+00" nType="0">
          <Node pos="l" depth="2" NCoef="0" IVar="3" Cut="2.7734469622373581e-02" cType="1" res="1.7400009557604790e-02" rms="2.6911448687314987e-02" purity="1.0000000000000000e+00" nType="0">
            <Node pos="l" depth="3" NCoef="0" IVar="2" Cut="2.6244191452860832e-02" cType="1" res="1.4513883739709854e-02" rms="2.3496583104133606e-02" purity="1.0000000000000000e+00" nType="0">
              <Node pos="l" depth="4" NCoef="0" IVar="3" Cut="2.4261336773633957e-02" cType="1" res="1.4130484312772751e-02" rms="2.2749159485101700e-02" purity="1.0000000000000000e+00" nType="0">
                <Node pos="l" depth="5" NCoef="0" IVar="-1" Cut="0.0000000000000000e+00" cType="1" res="1.3058598851785064e-03" rms="2.2853231057524681e-02" purity="1.0000000000000000e+00" nType="-99"/>
                <Node pos="r" depth="5" NCoef="0" IVar="-1" Cut="0.0000000000000000e+00" cType="1" res="1.5643141232430935e-03" rms="2.2683611139655113e-02" purity="1.0000000000000000e+00" nType="-99"/>
              </Node>
              <Node pos="r" depth="4" NCoef="0" IVar="-1" Cut="0.0000000000000000e+00" cType="1" res="2.0755263976752758e-03" rms="2.8605611994862556e-02" purity="1.0000000000000000e+00" nType="-99"/>
            </Node>
            <Node pos="r" depth="3" NCoef="0" IVar="5" Cut="3.3837143331766129e-02" cType="1" res="1.8624434247612953e-02" rms="2.8146423399448395e-02" purity="1.0000000000000000e+00" nType="0">
              <Node pos="l" depth="4" NCoef="0" IVar="2" Cut="2.3395257070660591e-02" cType="1" res="1.7421461641788483e-02" rms="2.4097487330436707e-02" purity="1.0000000000000000e+00" nType="0">
                <Node pos="l" depth="5" NCoef="0" IVar="-1" Cut="0.0000000000000000e+00" cType="1" res="1.7178580164909363e-03" rms="2.4234943091869354e-02" purity="1.0000000000000000e+00" nType="-99"/>
                <Node pos="r" depth="5" NCoef="0" IVar="-1" Cut="0.0000000000000000e+00" cType="1" res="2.0011886954307556e-03" rms="2.3971613496541977e-02" purity="1.0000000000000000e+00" nType="-99"/>
              </Node>
              <Node pos="r" depth="4" NCoef="0" IVar="1" Cut="-2.0892527103424072e+00" cType="1" res="1.9792363047599792e-02" rms="3.1540807336568832e-02" purity="1.0000000000000000e+00" nType="0">
                <Node pos="l" depth="5" NCoef="0" IVar="-1" Cut="0.0000000000000000e+00" cType="1" res="2.8562739025801420e-03" rms="2.6236575096845627e-02" purity="1.0000000000000000e+00" nType="-99"/>
                <Node pos="r" depth="5" NCoef="0" IVar="-1" Cut="0.0000000000000000e+00" cType="1" res="2.4670658167451620e-03" rms="3.2058540731668472e-02" purity="1.0000000000000000e+00" nType="-99"/>
              </Node>
            </Node>
          </Node>
          <Node pos="r" depth="2" NCoef="0" IVar="5" Cut="4.3466117233037949e-02" cType="1" res="4.4701118022203445e-03" rms="3.0633145943284035e-02" purity="1.0000000000000000e+00" nType="0">
            <Node pos="l" depth="3" NCoef="0" IVar="5" Cut="2.6283372193574905e-02" cType="1" res="8.5869980975985527e-03" rms="2.6245959103107452e-02" purity="1.0000000000000000e+00" nType="0">
              <Node pos="l" depth="4" NCoef="0" IVar="4" Cut="1.8852032721042633e-02" cType="1" res="1.1382504366338253e-02" rms="2.3148389533162117e-02" purity="1.0000000000000000e+00" nType="0">
                <Node pos="l" depth="5" NCoef="0" IVar="-1" Cut="0.0000000000000000e+00" cType="1" res="1.3612310867756605e-03" rms="2.4009402841329575e-02" purity="1.0000000000000000e+00" nType="-99"/>
                <Node pos="r" depth="5" NCoef="0" IVar="-1" Cut="0.0000000000000000e+00" cType="1" res="9.4847183208912611e-04" rms="2.1544482558965683e-02" purity="1.0000000000000000e+00" nType="-99"/>
              </Node>
              <Node pos="r" depth="4" NCoef="0" IVar="6" Cut="9.5493849366903305e-03" cType="1" res="6.8079233169555664e-03" rms="2.7894146740436554e-02" purity="1.0000000000000000e+00" nType="0">
                <Node pos="l" depth="5" NCoef="0" IVar="-1" Cut="0.0000000000000000e+00" cType="1" res="1.0044357040897012e-03" rms="2.5504529476165771e-02" purity="1.0000000000000000e+00" nType="-99"/>
                <Node pos="r" depth="5" NCoef="0" IVar="-1" Cut="0.0000000000000000e+00" cType="1" res="4.1200825944542885e-04" rms="3.0143521726131439e-02" purity="1.0000000000000000e+00" nType="-99"/>
              </Node>
            </Node>
            <Node pos="r" depth="3" NCoef="0" IVar="4" Cut="1.6010455787181854e-02" cType="1" res="-6.4979568123817444e-03" rms="3.7917684763669968e-02" purity="1.0000000000000000e+00" nType="0">
              <Node pos="l" depth="4" NCoef="0" IVar="4" Cut="1.3512006960809231e-02" cType="1" res="3.8449699059128761e-03" rms="3.7913214415311813e-02" purity="1.0000000000000000e+00" nType="0">
                <Node pos="l" depth="5" NCoef="0" IVar="-1" Cut="0.0000000000000000e+00" cType="1" res="1.0492218425497413e-03" rms="3.8128249347209930e-02" purity="1.0000000000000000e+00" nType="-99"/>
                <Node pos="r" depth="5" NCoef="0" IVar="-1" Cut="0.0000000000000000e+00" cType="1" res="-9.1165375124546699e-06" rms="3.7297077476978302e-02" purity="1.0000000000000000e+00" nType="-99"/>
              </Node>
              <Node pos="r" depth="4" NCoef="0" IVar="5" Cut="5.8545071631669998e-02" cType="1" res="-1.1698890477418900e-02" rms="3.6838546395301819e-02" purity="1.0000000000000000e+00" nType="0">
                <Node pos="l" depth="5" NCoef="0" IVar="-1" Cut="0.0000000000000000e+00" cType="1" res="-8.6885533528402448e-04" rms="3.4395139664411545e-02" purity="1.0000000000000000e+00" nType="-99"/>
                <Node pos="r" depth="5" NCoef="0" IVar="-1" Cut="0.0000000000000000e+00" cType="1" res="-3.0639057513326406e-03" rms="3.9159700274467468e-02" purity="1.0000000000000000e+00" nType="-99"/>
              </Node>
            </Node>
          </Node>
        </Node>
        <Node pos="r" depth="1" NCoef="0" IVar="5" Cut="3.9794798940420151e-02" cType="1" res="-2.3867569863796234e-02" rms="3.7577852606773376e-02" purity="1.0000000000000000e+00" nType="0">
          <Node pos="l" depth="2" NCoef="0" IVar="4" Cut="1.8137399107217789e-02" cType="1" res="-8.8198529556393623e-03" rms="3.6446455866098404e-02" purity="1.0000000000000000e+00" nType="0">
            <Node pos="l" depth="3" NCoef="0" IVar="5" Cut="3.0082175508141518e-02" cType="1" res="5.3150132298469543e-03" rms="3.5750634968280792e-02" purity="1.0000000000000000e+00" nType="0">
              <Node pos="l" depth="4" NCoef="0" IVar="4" Cut="1.4281044714152813e-02" cType="1" res="9.9477935582399368e-03" rms="3.4133527427911758e-02" purity="1.0000000000000000e+00" nType="0">
                <Node pos="l" depth="5" NCoef="0" IVar="-1" Cut="0.0000000000000000e+00" cType="1" res="1.9949155393987894e-03" rms="3.5883072763681412e-02" purity="1.0000000000000000e+00" nType="-99"/>
                <Node pos="r" depth="5" NCoef="0" IVar="-1" Cut="0.0000000000000000e+00" cType="1" res="6.9518072996288538e-04" rms="3.2106604427099228e-02" purity="1.0000000000000000e+00" nType="-99"/>
              </Node>
              <Node pos="r" depth="4" NCoef="0" IVar="-1" Cut="0.0000000000000000e+00" cType="1" res="-2.5961827486753464e-04" rms="3.6971181631088257e-02" purity="1.0000000000000000e+00" nType="-99"/>
            </Node>
            <Node pos="r" depth="3" NCoef="0" IVar="2" Cut="2.6162510737776756e-02" cType="1" res="-1.5271423384547234e-02" rms="3.4906428307294846e-02" purity="1.0000000000000000e+00" nType="0">
              <Node pos="l" depth="4" NCoef="0" IVar="6" Cut="4.2795550078153610e-02" cType="1" res="-8.8153425604104996e-03" rms="3.3474612981081009e-02" purity="1.0000000000000000e+00" nType="0">
                <Node pos="l" depth="5" NCoef="0" IVar="-1" Cut="0.0000000000000000e+00" cType="1" res="-3.8282896275632083e-04" rms="3.0149707570672035e-02" purity="1.0000000000000000e+00" nType="-99"/>
                <Node pos="r" depth="5" NCoef="0" IVar="-1" Cut="0.0000000000000000e+00" cType="1" res="-1.9358147401362658e-03" rms="3.5635683685541153e-02" purity="1.0000000000000000e+00" nType="-99"/>
              </Node>
              <Node pos="r" depth="4" NCoef="0" IVar="6" Cut="7.2815701365470886e-02" cType="1" res="-2.8005996719002724e-02" rms="3.4164287149906158e-02" purity="1.0000000000000000e+00" nType="0">
                <Node pos="l" depth="5" NCoef="0" IVar="-1" Cut="0.0000000000000000e+00" cType="1" res="-2.5825893972069025e-03" rms="3.4672547131776810e-02" purity="1.0000000000000000e+00" nType="-99"/>
                <Node pos="r" depth="5" NCoef="0" IVar="-1" Cut="0.0000000000000000e+00" cType="1" res="-5.9367348439991474e-03" rms="3.1714528799057007e-02" purity="1.0000000000000000e+00" nType="-99"/>
              </Node>
            </Node>
          </Node>
          <Node pos="r" depth="2" NCoef="0" IVar="4" Cut="1.6530411317944527e-02" cType="1" res="-3.2291591167449951e-02" rms="3.5514134913682938e-02" purity="1.0000000000000000e+00" nType="0">
            <Node pos="l" depth="3" NCoef="0" IVar="4" Cut="1.3488352298736572e-02" cType="1" res="-8.0495895817875862e-03" rms="4.3075539171695709e-02" purity="1.0000000000000000e+00" nType="0">
              <Node pos="l" depth="4" NCoef="0" IVar="-1" Cut="0.0000000000000000e+00" cType="1" res="4.4336347491480410e-04" rms="4.3749351054430008e-02" purity="1.0000000000000000e+00" nType="-99"/>
              <Node pos="r" depth="4" NCoef="0" IVar="3" Cut="3.3954814076423645e-02" cType="1" res="-1.5772212296724319e-02" rms="4.0862709283828735e-02" purity="1.0000000000000000e+00" nType="0">
                <Node pos="l" depth="5" NCoef="0" IVar="-1" Cut="0.0000000000000000e+00" cType="1" res="-3.4021327737718821e-03" rms="3.8794130086898804e-02" purity="1.0000000000000000e+00" nType="-99"/>
                <Node pos="r" depth="5" NCoef="0" IVar="-1" Cut="0.0000000000000000e+00" cType="1" res="-2.0485755521804094e-03" rms="4.2146723717451096e-02" purity="1.0000000000000000e+00" nType="-99"/>
              </Node>
            </Node>
            <Node pos="r" depth="3" NCoef="0" IVar="6" Cut="4.2808745056390762e-02" cType="1" res="-3.7137191742658615e-02" rms="3.1646896153688431e-02" purity="1.0000000000000000e+00" nType="0">
              <Node pos="l" depth="4" NCoef="0" IVar="5" Cut="4.7968830913305283e-02" cType="1" res="-2.7346165850758553e-02" rms="3.4457180649042130e-02" purity="1.0000000000000000e+00" nType="0">
                <Node pos="l" depth="5" NCoef="0" IVar="-1" Cut="0.0000000000000000e+00" cType="1" res="-2.4083817843347788e-03" rms="3.3471003174781799e-02" purity="1.0000000000000000e+00" nType="-99"/>
                <Node pos="r" depth="5" NCoef="0" IVar="-1" Cut="0.0000000000000000e+00" cType="1" res="-5.1407148130238056e-03" rms="3.4238807857036591e-02" purity="1.0000000000000000e+00" nType="-99"/>
              </Node>
              <Node pos="r" depth="4" NCoef="0" IVar="4" Cut="2.0450891926884651e-02" cType="1" res="-4.0731538087129593e-02" rms="2.9752587899565697e-02" purity="1.0000000000000000e+00" nType="0">
                <Node pos="l" depth="5" NCoef="0" IVar="-1" Cut="0.0000000000000000e+00" cType="1" res="-6.0113267973065376e-03" rms="3.3995103091001511e-02" purity="1.0000000000000000e+00" nType="-99"/>
                <Node pos="r" depth="5" NCoef="0" IVar="-1" Cut="0.0000000000000000e+00" cType="1" res="-9.7394846379756927e-03" rms="2.8085730969905853e-02" purity="1.0000000000000000e+00" nType="-99"/>
              </Node>
            </Node>
          </Node>
        </Node>
      </Node>
    </BinaryTree>
    <BinaryTree type="DecisionTree" boostWeight="1.0000000000000000e+00" itree="1">
      <Node pos="s" depth="0" NCoef="0" IVar="6" Cut="2.1856097504496574e-02" cType="1" res="-2.8778885025531054e-03" rms="3.5920213907957077e-02" purity="1.0000000000000000e+00" nType="0">
        <Node pos="l" depth="1" NCoef="0" IVar="6" Cut="1.6576708294451237e-03" cType="1" res="1.0466590523719788e-02" rms="2.8801787644624710e-02" purity="1.0000000000000000e+00" nType="0">
          <Node pos="l" depth="2" NCoef="0" IVar="3" Cut="2.8356518596410751e-02" cType="1" res="1.5446586534380913e-02" rms="2.6577251031994820e-02" purity="1.0000000000000000e+00" nType="0">
            <Node pos="l" depth="3" NCoef="0" IVar="5" Cut="3.4572694450616837e-02" cType="1" res="1.3144431635737419e-02" rms="2.3403417319059372e-02" purity="1.0000000000000000e+00" nType="0">
              <Node pos="l" depth="4" NCoef="0" IVar="4" Cut="2.0847287029027939e-02" cType="1" res="1.2584377080202103e-02" rms="2.0912347361445427e-02" purity="1.0000000000000000e+00" nType="0">
                <Node pos="l" depth="5" NCoef="0" IVar="-1" Cut="0.0000000000000000e+00" cType="1" res="1.3973935274407268e-03" rms="2.1692181006073952e-02" purity="1.0000000000000000e+00" nType="-99"/>
                <Node pos="r" depth="5" NCoef="0" IVar="-1" Cut="0.0000000000000000e+00" cType="1" res="1.1448526056483388e-03" rms="1.8891990184783936e-02" purity="1.0000000000000000e+00" nType="-99"/>
              </Node>
              <Node pos="r" depth="4" NCoef="0" IVar="1" Cut="-1.5690368413925171e+00" cType="1" res="1.5266751870512962e-02" rms="3.0989713966846466e-02" purity="1.0000000000000000e+00" nType="0">
                <Node pos="l" depth="5" NCoef="0" IVar="-1" Cut="0.0000000000000000e+00" cType="1" res="2.0581553690135479e-03" rms="2.9965030029416084e-02" purity="1.0000000000000000e+00" nType="-99"/>
                <Node pos="r" depth="5" NCoef="0" IVar="-1" Cut="0.0000000000000000e+00" cType="1" res="1.8035718239843845e-03" rms="3.1818296760320663e-02" purity="1.0000000000000000e+00" nType="-99"/>
              </Node>
            </Node>
            <Node pos="r" depth="3" NCoef="0" IVar="2" Cut="2.1097565069794655e-02" cType="1" res="1.6623245552182198e-02" rms="2.7988117188215256e-02" purity="1.0000000000000000e+00" nType="0">
              <Node pos="l" depth="4" NCoef="0" IVar="-1" Cut="0.0000000000000000e+00" cType="1" res="1.5123428311198950e-03" rms="3.2376389950513840e-02" purity="1.0000000000000000e+00" nType="-99"/>
              <Node pos="r" depth="4" NCoef="0" IVar="4" Cut="1.5933072194457054e-02" cType="1" res="1.6895527020096779e-02" rms="2.7691375464200974e-02" purity="1.0000000000000000e+00" nType="0">
                <Node pos="l" depth="5" NCoef="0" IVar="-1" Cut="0.0000000000000000e+00" cType="1" res="2.1572036202996969e-03" rms="2.7963917702436447e-02" purity="1.0000000000000000e+00" nType="-99"/>
                <Node pos="r" depth="5" NCoef="0" IVar="-1" Cut="0.0000000000000000e+00" cType="1" res="1.7992743523791432e-03" rms="2.7305651456117630e-02" purity="1.0000000000000000e+00" nType="-99"/>
              </Node>
            </Node>
          </Node>
          <Node pos="r" depth="2" NCoef="0" IVar="5" Cut="4.3466117233037949e-02" cType="1" res="3.3291643485426903e-03" rms="3.0325200408697128e-02" purity="1.0000000000000000e+00" nType="0">
            <Node pos="l" depth="3" NCoef="0" IVar="6" Cut="1.3511568307876587e-02" cType="1" res="7.2606066241860390e-03" rms="2.6197455823421478e-02" purity="1.0000000000000000e+00" nType="0">
              <Node pos="l" depth="4" NCoef="0" IVar="4" Cut="1.5707997605204582e-02" cType="1" res="8.7286885827779770e-03" rms="2.4650331586599350e-02" purity="1.0000000000000000e+00" nType="0">
                <Node pos="l" depth="5" NCoef="0" IVar="-1" Cut="0.0000000000000000e+00" cType="1" res="1.2286206474527717e-03" rms="2.6386300101876259e-02" purity="1.0000000000000000e+00" nType="-99"/>
                <Node pos="r" depth="5" NCoef="0" IVar="-1" Cut="0.0000000000000000e+00" cType="1" res="8.2292524166405201e-04" rms="2.3848511278629303e-02" purity="1.0000000000000000e+00" nType="-99"/>
              </Node>
              <Node pos="r" depth="4" NCoef="0" IVar="5" Cut="3.1423173844814301e-02" cType="1" res="3.5076430067420006e-03" rms="2.9458723962306976e-02" purity="1.0000000000000000e+00" nType="0">
                <Node pos="l" depth="5" NCoef="0" IVar="-1" Cut="0.0000000000000000e+00" cType="1" res="7.6460390118882060e-04" rms="2.7119325473904610e-02" purity="1.0000000000000000e+00" nType="-99"/>
                <Node pos="r" depth="5" NCoef="0" IVar="-1" Cut="0.0000000000000000e+00" cType="1" res="-1.4899858797434717e-04" rms="3.1608022749423981e-02" purity="1.0000000000000000e+00" nType="-99"/>
              </Node>
            </Node>
            <Node pos="r" depth="3" NCoef="0" IVar="4" Cut="1.6483562067151070e-02" cType="1" res="-6.6250609233975410e-03" rms="3.7042263895273209e-02" purity="1.0000000000000000e+00" nType="0">
              <Node pos="l" depth="4" NCoef="0" IVar="4" Cut="1.3990434817969799e-02" cType="1" res="1.9583289977163076e-03" rms="3.7138033658266068e-02" purity="1.0000000000000000e+00" nType="0">
                <Node pos="l" depth="5" NCoef="0" IVar="-1" Cut="0.0000000000000000e+00" cType="1" res="8.0746173625811934e-04" rms="3.7254899740219116e-02" purity="1.0000000000000000e+00" nType="-99"/>
                <Node pos="r" depth="5" NCoef="0" IVar="-1" Cut="0.0000000000000000e+00" cType="1" res="-3.2189823104999959e-04" rms="3.6537524312734604e-02" purity="1.0000000000000000e+00" nType="-99"/>
              </Node>
              <Node pos="r" depth="4" NCoef="0" IVar="6" Cut="1.1792099103331566e-02" cType="1" res="-1.1508868075907230e-02" rms="3.6087617278099060e-02" purity="1.0000000000000000e+00" nType="0">
                <Node pos="l" depth="5" NCoef="0" IVar="-1" Cut="0.0000000000000000e+00" cType="1" res="-6.7173637216910720e-04" rms="3.5177629441022873e-02" purity="1.0000000000000000e+00" nType="-99"/>
                <Node pos="r" depth="5" NCoef="0" IVar="-1" Cut="0.0000000000000000e+00" cType="1" res="-2.4939342401921749e-03" rms="3.6004997789859772e-02" purity="1.0000000000000000e+00" nType="-99"/>
              </Node>
            </Node>
          </Node>
        </Node>
        <Node pos="r" depth="1" NCoef="0" IVar="5" Cut="4.2597595602273941e-02" cType="1" res="-2.2144086658954620e-02" rms="3.6429993808269501e-02" purity="1.0000000000000000e+00" nType="0">
          <Node pos="l" depth="2" NCoef="0" IVar="4" Cut="1.7892513424158096e-02" cType="1" res="-9.8446039482951164e-03" rms="3.5622090101242065e-02" purity="1.0000000000000000e+00" nType="0">
            <Node pos="l" depth="3" NCoef="0" IVar="4" Cut="1.4949589967727661e-02" cType="1" res="4.0388577617704868e-03" rms="3.5445362329483032e-02" purity="1.0000000000000000e+00" nType="0">
              <Node pos="l" depth="4" NCoef="0" IVar="5" Cut="2.5226105004549026e-02" cType="1" res="9.0682907029986382e-03" rms="3.5997759550809860e-02" purity="1.0000000000000000e+00" nType="0">
                <Node pos="l" depth="5" NCoef="0" IVar="-1" Cut="0.0000000000000000e+00" cType="1" res="1.8334097694605589e-03" rms="3.4155569970607758e-02" purity="1.0000000000000000e+00" nType="-99"/>
                <Node pos="r" depth="5" NCoef="0" IVar="-1" Cut="0.0000000000000000e+00" cType="1" res="7.6948513742536306e-04" rms="3.6911085247993469e-02" purity="1.0000000000000000e+00" nType="-99"/>
              </Node>
              <Node pos="r" depth="4" NCoef="0" IVar="5" Cut="3.0454792082309723e-02" cType="1" res="-1.6029641265049577e-03" rms="3.3939622342586517e-02" purity="1.0000000000000000e+00" nType="0">
                <Node pos="l" depth="5" NCoef="0" IVar="-1" Cut="0.0000000000000000e+00" cType="1" res="4.9959163879975677e-04" rms="3.1960945576429367e-02" purity="1.0000000000000000e+00" nType="-99"/>
                <Node pos="r" depth="5" NCoef="0" IVar="-1" Cut="0.0000000000000000e+00" cType="1" res="-1.1108850594609976e-03" rms="3.4785497933626175e-02" purity="1.0000000000000000e+00" nType="-99"/>
              </Node>
            </Node>
            <Node pos="r" depth="3" NCoef="0" IVar="2" Cut="2.6605866849422455e-02" cType="1" res="-1.5366361476480961e-02" rms="3.4158129245042801e-02" purity="1.0000000000000000e+00" nType="0">
              <Node pos="l" depth="4" NCoef="0" IVar="5" Cut="3.0208490788936615e-02" cType="1" res="-1.0328058153390884e-02" rms="3.3282436430454254e-02" purity="1.0000000000000000e+00" nType="0">
                <Node pos="l" depth="5" NCoef="0" IVar="-1" Cut="0.0000000000000000e+00" cType="1" res="-4.4827998499386013e-04" rms="3.0607705935835838e-02" purity="1.0000000000000000e+00" nType="-99"/>
                <Node pos="r" depth="5" NCoef="0" IVar="-1" Cut="0.0000000000000000e+00" cType="1" res="-1.9939295016229153e-03" rms="3.4209221601486206e-02" purity="1.0000000000000000e+00" nType="-99"/>
              </Node>
              <Node pos="r" depth="4" NCoef="0" IVar="6" Cut="7.2089955210685730e-02" cType="1" res="-2.8058525174856186e-02" rms="3.3022914081811905e-02" purity="1.0000000000000000e+00" nType="0">
                <Node pos="l" depth="5" NCoef="0" IVar="-1" Cut="0.0000000000000000e+00" cType="1" res="-2.8420500457286835e-03" rms="3.4148681908845901e-02" purity="1.0000000000000000e+00" nType="-99"/>
                <Node pos="r" depth="5" NCoef="0" IVar="-1" Cut="0.0000000000000000e+00" cType="1" res="-5.8906143531203270e-03" rms="3.0894242227077484e-02" purity="1.0000000000000000e+00" nType="-99"/>
              </Node>
            </Node>
          </Node>
          <Node pos="r" depth="2" NCoef="0" IVar="4" Cut="1.6530411317944527e-02" cType="1" res="-3.0435018241405487e-02" rms="3.4578461199998856e-02" purity="1.0000000000000000e+00" nType="0">
            <Node pos="l" depth="3" NCoef="0" IVar="4" Cut="1.4276940375566483e-02" cType="1" res="-7.9807266592979431e-03" rms="4.1968427598476410e-02" purity="1.0000000000000000e+00" nType="0">
              <Node pos="l" depth="4" NCoef="0" IVar="4" Cut="1.2312137521803379e-02" cType="1" res="8.0965059169102460e-05" rms="4.2748264968395233e-02" purity="1.0000000000000000e+00" nType="0">
                <Node pos="l" depth="5" NCoef="0" IVar="-1" Cut="0.0000000000000000e+00" cType="1" res="1.2349849566817284e-03" rms="4.2603645473718643e-02" purity="1.0000000000000000e+00" nType="-99"/>
                <Node pos="r" depth="5" NCoef="0" IVar="-1" Cut="0.0000000000000000e+00" cType="1" res="-1.2224494712427258e-03" rms="4.1999302804470062e-02" purity="1.0000000000000000e+00" nType="-99"/>
              </Node>
              <Node pos="r" depth="4" NCoef="0" IVar="-1" Cut="0.0000000000000000e+00" cType="1" res="-3.0215373262763023e-03" rms="3.9232708513736725e-02" purity="1.0000000000000000e+00" nType="-99"/>
            </Node>
            <Node pos="r" depth="3" NCoef="0" IVar="6" Cut="5.9748250991106033e-02" cType="1" res="-3.4752722829580307e-02" rms="3.1165730208158493e-02" purity="1.0000000000000000e+00" nType="0">
              <Node pos="l" depth="4" NCoef="0" IVar="5" Cut="5.3473353385925293e-02" cType="1" res="-2.8779214248061180e-02" rms="3.2680831849575043e-02" purity="1.0000000000000000e+00" nType="0">
                <Node pos="l" depth="5" NCoef="0" IVar="-1" Cut="0.0000000000000000e+00" cType="1" res="-3.1876442953944206e-03" rms="3.2032318413257599e-02" purity="1.0000000000000000e+00" nType="-99"/>
                <Node pos="r" depth="5" NCoef="0" IVar="-1" Cut="0.0000000000000000e+00" cType="1" res="-5.9523107483983040e-03" rms="3.2613892108201981e-02" purity="1.0000000000000000e+00" nType="-99"/>
              </Node>
              <Node pos="r" depth="4" NCoef="0" IVar="4" Cut="2.0450891926884651e-02" cType="1" res="-3.8934607058763504e-02" rms="2.9344731941819191e-02" purity="1.0000000000000000e+00" nType="0">
                <Node pos="l" depth="5" NCoef="0" IVar="-1" Cut="0.0000000000000000e+00" cType="1" res="-6.0688322409987450e-03" rms="3.4200806170701981e-02" purity="1.0000000000000000e+00" nType="-99"/>
                <Node pos="r" depth="5" NCoef="0" IVar="-1" Cut="0.0000000000000000e+00" cType="1" res="-1.0055087506771088e-02" rms="2.7673626318573952e-02" purity="1.0000000000000000e+00" nType="-99"/>
              </Node>
            </Node>
          </Node>
        </Node>
      </Node>
    </BinaryTree>
    <BinaryTree type="DecisionTree" boostWeight="1.0000000000000000e+00" itree="2">
      <Node pos="s" depth="0" NCoef="0" IVar="6" Cut="2.4978397414088249e-02" cType="1" res="-2.6676948182284832e-03" rms="3.4597866237163544e-02" purity="1.0000000000000000e+00" nType="0">
        <Node pos="l" depth="1" NCoef="0" IVar="6" Cut="6.7302915267646313e-03" cType="1" res="8.7438961490988731e-03" rms="2.8585266321897507e-02" purity="1.0000000000000000e+00" nType="0">
          <Node pos="l" depth="2" NCoef="0" IVar="6" Cut="1.3433450476441067e-05" cType="1" res="1.2624221853911877e-02" rms="2.6112858206033707e-02" purity="1.0000000000000000e+00" nType="0">
            <Node pos="l" depth="3" NCoef="0" IVar="3" Cut="2.7423445135354996e-02" cType="1" res="1.3741838745772839e-02" rms="2.6316324248909950e-02" purity="1.0000000000000000e+00" nType="0">
              <Node pos="l" depth="4" NCoef="0" IVar="4" Cut="1.6793079674243927e-02" cType="1" res="1.1408077552914619e-02" rms="2.2949272766709328e-02" purity="1.0000000000000000e+00" nType="0">
                <Node pos="l" depth="5" NCoef="0" IVar="-1" Cut="0.0000000000000000e+00" cType="1" res="1.4116870006546378e-03" rms="2.5277644395828247e-02" purity="1.0000000000000000e+00" nType="-99"/>
                <Node pos="r" depth="5" NCoef="0" IVar="-1" Cut="0.0000000000000000e+00" cType="1" res="1.1057740775868297e-03" rms="2.0888609811663628e-02" purity="1.0000000000000000e+00" nType="-99"/>
              </Node>
              <Node pos="r" depth="4" NCoef="0" IVar="5" Cut="3.4028112888336182e-02" cType="1" res="1.4633366838097572e-02" rms="2.7441607788205147e-02" purity="1.0000000000000000e+00" nType="0">
                <Node pos="l" depth="5" NCoef="0" IVar="-1" Cut="0.0000000000000000e+00" cType="1" res="1.4848973369225860e-03" rms="2.3696707561612129e-02" purity="1.0000000000000000e+00" nType="-99"/>
                <Node pos="r" depth="5" NCoef="0" IVar="-1" Cut="0.0000000000000000e+00" cType="1" res="2.0434367470443249e-03" rms="3.0751083046197891e-02" purity="1.0000000000000000e+00" nType="-99"/>
              </Node>
            </Node>
            <Node pos="r" depth="3" NCoef="0" IVar="5" Cut="4.5830216258764267e-02" cType="1" res="7.4753030203282833e-03" rms="2.4504479020833969e-02" purity="1.0000000000000000e+00" nType="0">
              <Node pos="l" depth="4" NCoef="0" IVar="3" Cut="2.5311745703220367e-02" cType="1" res="8.7454495951533318e-03" rms="2.2529765963554382e-02" purity="1.0000000000000000e+00" nType="0">
                <Node pos="l" depth="5" NCoef="0" IVar="-1" Cut="0.0000000000000000e+00" cType="1" res="7.1887642843648791e-04" rms="2.0633885636925697e-02" purity="1.0000000000000000e+00" nType="-99"/>
                <Node pos="r" depth="5" NCoef="0" IVar="-1" Cut="0.0000000000000000e+00" cType="1" res="9.8844699095934629e-04" rms="2.3059491068124771e-02" purity="1.0000000000000000e+00" nType="-99"/>
              </Node>
              <Node pos="r" depth="4" NCoef="0" IVar="-1" Cut="0.0000000000000000e+00" cType="1" res="-8.1582911661826074e-05" rms="3.3440608531236649e-02" purity="1.0000000000000000e+00" nType="-99"/>
            </Node>
          </Node>
          <Node pos="r" depth="2" NCoef="0" IVar="5" Cut="4.3466117233037949e-02" cType="1" res="2.0548058091662824e-04" rms="3.1759403645992279e-02" purity="1.0000000000000000e+00" nType="0">
            <Node pos="l" depth="3" NCoef="0" IVar="5" Cut="3.1381469219923019e-02" cType="1" res="4.7325785271823406e-03" rms="2.7794469147920609e-02" purity="1.0000000000000000e+00" nType="0">
              <Node pos="l" depth="4" NCoef="0" IVar="4" Cut="1.7957264557480812e-02" cType="1" res="7.0743542164564133e-03" rms="2.5679882615804672e-02" purity="1.0000000000000000e+00" nType="0">
                <Node pos="l" depth="5" NCoef="0" IVar="-1" Cut="0.0000000000000000e+00" cType="1" res="1.0715156095102429e-03" rms="2.6478447020053864e-02" purity="1.0000000000000000e+00" nType="-99"/>
                <Node pos="r" depth="5" NCoef="0" IVar="-1" Cut="0.0000000000000000e+00" cType="1" res="5.0820969045162201e-04" rms="2.4735826998949051e-02" purity="1.0000000000000000e+00" nType="-99"/>
              </Node>
              <Node pos="r" depth="4" NCoef="0" IVar="3" Cut="3.7056792527437210e-02" cType="1" res="1.5133953420445323e-03" rms="3.0167430639266968e-02" purity="1.0000000000000000e+00" nType="0">
                <Node pos="l" depth="5" NCoef="0" IVar="-1" Cut="0.0000000000000000e+00" cType="1" res="-5.8058813010575250e-05" rms="2.9931565746665001e-02" purity="1.0000000000000000e+00" nType="-99"/>
                <Node pos="r" depth="5" NCoef="0" IVar="-1" Cut="0.0000000000000000e+00" cType="1" res="8.2483189180493355e-04" rms="3.0202902853488922e-02" purity="1.0000000000000000e+00" nType="-99"/>
              </Node>
            </Node>
            <Node pos="r" depth="3" NCoef="0" IVar="4" Cut="1.5537349507212639e-02" cType="1" res="-8.2939006388187408e-03" rms="3.6623194813728333e-02" purity="1.0000000000000000e+00" nType="0">
              <Node pos="l" depth="4" NCoef="0" IVar="-1" Cut="0.0000000000000000e+00" cType="1" res="3.3337439526803792e-04" rms="3.7167318165302277e-02" purity="1.0000000000000000e+00" nType="-99"/>
              <Node pos="r" depth="4" NCoef="0" IVar="3" Cut="4.1004598140716553e-02" cType="1" res="-1.2330097146332264e-02" rms="3.5594020038843155e-02" purity="1.0000000000000000e+00" nType="0">
                <Node pos="l" depth="5" NCoef="0" IVar="-1" Cut="0.0000000000000000e+00" cType="1" res="-2.1688949782401323e-03" rms="3.4336443990468979e-02" purity="1.0000000000000000e+00" nType="-99"/>
                <Node pos="r" depth="5" NCoef="0" IVar="-1" Cut="0.0000000000000000e+00" cType="1" res="-8.0991286085918546e-04" rms="3.8122199475765228e-02" purity="1.0000000000000000e+00" nType="-99"/>
              </Node>
            </Node>
          </Node>
        </Node>
        <Node pos="r" depth="1" NCoef="0" IVar="4" Cut="1.7941279336810112e-02" cType="1" res="-2.0919596776366234e-02" rms="3.5541631281375885e-02" purity="1.0000000000000000e+00" nType="0">
          <Node pos="l" depth="2" NCoef="0" IVar="4" Cut="1.4509557746350765e-02" cType="1" res="-4.8708603717386723e-03" rms="3.8491073995828629e-02" purity="1.0000000000000000e+00" nType="0">
            <Node pos="l" depth="3" NCoef="0" IVar="4" Cut="1.1103498749434948e-02" cType="1" res="3.8500996306538582e-03" rms="3.9382889866828918e-02" purity="1.0000000000000000e+00" nType="0">
              <Node pos="l" depth="4" NCoef="0" IVar="-1" Cut="0.0000000000000000e+00" cType="1" res="2.2464678622782230e-03" rms="3.9562236517667770e-02" purity="1.0000000000000000e+00" nType="-99"/>
              <Node pos="r" depth="4" NCoef="0" IVar="5" Cut="3.8959711790084839e-02" cType="1" res="-2.2107753466116264e-05" rms="3.8712602108716965e-02" purity="1.0000000000000000e+00" nType="0">
                <Node pos="l" depth="5" NCoef="0" IVar="-1" Cut="0.0000000000000000e+00" cType="1" res="8.9759065303951502e-04" rms="3.3772520720958710e-02" purity="1.0000000000000000e+00" nType="-99"/>
                <Node pos="r" depth="5" NCoef="0" IVar="-1" Cut="0.0000000000000000e+00" cType="1" res="-9.3876087339594960e-04" rms="4.0761094540357590e-02" purity="1.0000000000000000e+00" nType="-99"/>
              </Node>
            </Node>
            <Node pos="r" depth="3" NCoef="0" IVar="5" Cut="3.4560278058052063e-02" cType="1" res="-1.1345252394676208e-02" rms="3.6491416394710541e-02" purity="1.0000000000000000e+00" nType="0">
              <Node pos="l" depth="4" NCoef="0" IVar="-1" Cut="0.0000000000000000e+00" cType="1" res="2.2178776271175593e-04" rms="3.2317131757736206e-02" purity="1.0000000000000000e+00" nType="-99"/>
              <Node pos="r" depth="4" NCoef="0" IVar="3" Cut="3.9805863052606583e-02" cType="1" res="-1.6627643257379532e-02" rms="3.6680143326520920e-02" purity="1.0000000000000000e+00" nType="0">
                <Node pos="l" depth="5" NCoef="0" IVar="-1" Cut="0.0000000000000000e+00" cType="1" res="-3.1783941667526960e-03" rms="3.5474810749292374e-02" purity="1.0000000000000000e+00" nType="-99"/>
                <Node pos="r" depth="5" NCoef="0" IVar="-1" Cut="0.0000000000000000e+00" cType="1" res="-1.8216278403997421e-03" rms="3.8762964308261871e-02" purity="1.0000000000000000e+00" nType="-99"/>
              </Node>
            </Node>
          </Node>
          <Node pos="r" depth="2" NCoef="0" IVar="5" Cut="4.5830786228179932e-02" cType="1" res="-2.6132326573133469e-02" rms="3.2885469496250153e-02" purity="1.0000000000000000e+00" nType="0">
            <Node pos="l" depth="3" NCoef="0" IVar="2" Cut="2.5453139096498489e-02" cType="1" res="-1.5836030244827271e-02" rms="3.3497173339128494e-02" purity="1.0000000000000000e+00" nType="0">
              <Node pos="l" depth="4" NCoef="0" IVar="5" Cut="3.4498974680900574e-02" cType="1" res="-8.5124569013714790e-03" rms="3.2601952552795410e-02" purity="1.0000000000000000e+00" nType="0">
                <Node pos="l" depth="5" NCoef="0" IVar="-1" Cut="0.0000000000000000e+00" cType="1" res="-4.5982247684150934e-04" rms="3.0974300578236580e-02" purity="1.0000000000000000e+00" nType="-99"/>
                <Node pos="r" depth="5" NCoef="0" IVar="-1" Cut="0.0000000000000000e+00" cType="1" res="-1.9403502810746431e-03" rms="3.3462207764387131e-02" purity="1.0000000000000000e+00" nType="-99"/>
              </Node>
              <Node pos="r" depth="4" NCoef="0" IVar="5" Cut="2.6593733578920364e-02" cType="1" res="-2.3334786295890808e-02" rms="3.2733779400587082e-02" purity="1.0000000000000000e+00" nType="0">
                <Node pos="l" depth="5" NCoef="0" IVar="-1" Cut="0.0000000000000000e+00" cType="1" res="-1.2000285787507892e-03" rms="3.2540556043386459e-02" purity="1.0000000000000000e+00" nType="-99"/>
                <Node pos="r" depth="5" NCoef="0" IVar="-1" Cut="0.0000000000000000e+00" cType="1" res="-4.1619106195867062e-03" rms="3.2041855156421661e-02" purity="1.0000000000000000e+00" nType="-99"/>
              </Node>
            </Node>
            <Node pos="r" depth="3" NCoef="0" IVar="2" Cut="2.5316329672932625e-02" cType="1" res="-3.3982235938310623e-02" rms="3.0133863911032677e-02" purity="1.0000000000000000e+00" nType="0">
              <Node pos="l" depth="4" NCoef="0" IVar="5" Cut="6.3645057380199432e-02" cType="1" res="-2.8997698798775673e-02" rms="3.1861785799264908e-02" purity="1.0000000000000000e+00" nType="0">
                <Node pos="l" depth="5" NCoef="0" IVar="-1" Cut="0.0000000000000000e+00" cType="1" res="-3.7928302772343159e-03" rms="3.1933225691318512e-02" purity="1.0000000000000000e+00" nType="-99"/>
                <Node pos="r" depth="5" NCoef="0" IVar="-1" Cut="0.0000000000000000e+00" cType="1" res="-7.1758329868316650e-03" rms="3.1230986118316650e-02" purity="1.0000000000000000e+00" nType="-99"/>
              </Node>
              <Node pos="r" depth="4" NCoef="0" IVar="4" Cut="2.3061187937855721e-02" cType="1" res="-3.7165928632020950e-02" rms="2.8524082154035568e-02" purity="1.0000000000000000e+00" nType="0">
                <Node pos="l" depth="5" NCoef="0" IVar="-1" Cut="0.0000000000000000e+00" cType="1" res="-6.6247200593352318e-03" rms="3.2152526080608368e-02" purity="1.0000000000000000e+00" nType="-99"/>
                <Node pos="r" depth="5" NCoef="0" IVar="-1" Cut="0.0000000000000000e+00" cType="1" res="-1.0553970001637936e-02" rms="2.6338875293731689e-02" purity="1.0000000000000000e+00" nType="-99"/>
              </Node>
            </Node>
          </Node>
        </Node>
      </Node>
    </BinaryTree>
    <BinaryTree type="DecisionTree" boostWeight="1.0000000000000000e+00" itree="3">
      <Node pos="s" depth="0" NCoef="0" IVar="6" Cut="2.9141463339328766e-02" cType="1" res="-2.4688220582902431e-03" rms="3.3476583659648895e-02" purity="1.0000000000000000e+00" nType="0">
        <Node pos="l" depth="1" NCoef="0" IVar="6" Cut="8.0267088487744331e-03" cType="1" res="7.1748699992895126e-03" rms="2.8474513441324234e-02" purity="1.0000000000000000e+00" nType="0">
          <Node pos="l" depth="2" NCoef="0" IVar="6" Cut="1.6021309420466423e-05" cType="1" res="1.0985980741679668e-02" rms="2.5939702987670898e-02" purity="1.0000000000000000e+00" nType="0">
            <Node pos="l" depth="3" NCoef="0" IVar="3" Cut="2.9134077951312065e-02" cType="1" res="1.2229121290147305e-02" rms="2.6084627956151962e-02" purity="1.0000000000000000e+00" nType="0">
              <Node pos="l" depth="4" NCoef="0" IVar="5" Cut="3.0702533200383186e-02" cType="1" res="1.0614593513309956e-02" rms="2.3322263732552528e-02" purity="1.0000000000000000e+00" nType="0">
                <Node pos="l" depth="5" NCoef="0" IVar="-1" Cut="0.0000000000000000e+00" cType="1" res="1.0487129911780357e-03" rms="2.0547045394778252e-02" purity="1.0000000000000000e+00" nType="-99"/>
                <Node pos="r" depth="5" NCoef="0" IVar="-1" Cut="0.0000000000000000e+00" cType="1" res="1.4876476489007473e-03" rms="2.8601877391338348e-02" purity="1.0000000000000000e+00" nType="-99"/>
              </Node>
              <Node pos="r" depth="4" NCoef="0" IVar="2" Cut="2.1261580288410187e-02" cType="1" res="1.3243542052805424e-02" rms="2.7631364762783051e-02" purity="1.0000000000000000e+00" nType="0">
                <Node pos="l" depth="5" NCoef="0" IVar="-1" Cut="0.0000000000000000e+00" cType="1" res="1.1994678061455488e-03" rms="3.1021630391478539e-02" purity="1.0000000000000000e+00" nType="-99"/>
                <Node pos="r" depth="5" NCoef="0" IVar="-1" Cut="0.0000000000000000e+00" cType="1" res="1.6165697015821934e-03" rms="2.7345748618245125e-02" purity="1.0000000000000000e+00" nType="-99"/>
              </Node>
            </Node>
            <Node pos="r" depth="3" NCoef="0" IVar="5" Cut="4.7159653156995773e-02" cType="1" res="6.4373267814517021e-03" rms="2.4878425523638725e-02" purity="1.0000000000000000e+00" nType="0">
              <Node pos="l" depth="4" NCoef="0" IVar="5" Cut="2.6141928508877754e-02" cType="1" res="7.7107078395783901e-03" rms="2.2923901677131653e-02" purity="1.0000000000000000e+00" nType="0">
                <Node pos="l" depth="5" NCoef="0" IVar="-1" Cut="0.0000000000000000e+00" cType="1" res="9.3978445511311293e-04" rms="2.0224614068865776e-02" purity="1.0000000000000000e+00" nType="-99"/>
                <Node pos="r" depth="5" NCoef="0" IVar="-1" Cut="0.0000000000000000e+00" cType="1" res="7.4365659384056926e-04" rms="2.4496687576174736e-02" purity="1.0000000000000000e+00" nType="-99"/>
              </Node>
              <Node pos="r" depth="4" NCoef="0" IVar="-1" Cut="0.0000000000000000e+00" cType="1" res="-2.2190934396348894e-04" rms="3.3666417002677917e-02" purity="1.0000000000000000e+00" nType="-99"/>
            </Node>
          </Node>
          <Node pos="r" depth="2" NCoef="0" IVar="5" Cut="4.4911745935678482e-02" cType="1" res="-1.1898078955709934e-03" rms="3.1806938350200653e-02" purity="1.0000000000000000e+00" nType="0">
            <Node pos="l" depth="3" NCoef="0" IVar="5" Cut="3.4860942512750626e-02" cType="1" res="3.1334953382611275e-03" rms="2.8299618512392044e-02" purity="1.0000000000000000e+00" nType="0">
              <Node pos="l" depth="4" NCoef="0" IVar="4" Cut="1.7116539180278778e-02" cType="1" res="5.0453362055122852e-03" rms="2.6619452983140945e-02" purity="1.0000000000000000e+00" nType="0">
                <Node pos="l" depth="5" NCoef="0" IVar="-1" Cut="0.0000000000000000e+00" cType="1" res="9.2124566435813904e-04" rms="2.7566539123654366e-02" purity="1.0000000000000000e+00" nType="-99"/>
                <Node pos="r" depth="5" NCoef="0" IVar="-1" Cut="0.0000000000000000e+00" cType="1" res="3.3570986124686897e-04" rms="2.5831375271081924e-02" purity="1.0000000000000000e+00" nType="-99"/>
              </Node>
              <Node pos="r" depth="4" NCoef="0" IVar="3" Cut="3.4403529018163681e-02" cType="1" res="-9.8242738749831915e-04" rms="3.1220341101288795e-02" purity="1.0000000000000000e+00" nType="0">
                <Node pos="l" depth="5" NCoef="0" IVar="-1" Cut="0.0000000000000000e+00" cType="1" res="-4.9172848230227828e-04" rms="3.0617281794548035e-02" purity="1.0000000000000000e+00" nType="-99"/>
                <Node pos="r" depth="5" NCoef="0" IVar="-1" Cut="0.0000000000000000e+00" cType="1" res="4.7601055121049285e-04" rms="3.1666532158851624e-02" purity="1.0000000000000000e+00" nType="-99"/>
              </Node>
            </Node>
            <Node pos="r" depth="3" NCoef="0" IVar="4" Cut="1.7429776489734650e-02" cType="1" res="-9.3641076236963272e-03" rms="3.6167904734611511e-02" purity="1.0000000000000000e+00" nType="0">
              <Node pos="l" depth="4" NCoef="0" IVar="4" Cut="1.3967826962471008e-02" cType="1" res="-8.6458970326930285e-04" rms="3.6838509142398834e-02" purity="1.0000000000000000e+00" nType="0">
                <Node pos="l" depth="5" NCoef="0" IVar="-1" Cut="0.0000000000000000e+00" cType="1" res="6.3408055575564504e-04" rms="3.7212353199720383e-02" purity="1.0000000000000000e+00" nType="-99"/>
                <Node pos="r" depth="5" NCoef="0" IVar="-1" Cut="0.0000000000000000e+00" cType="1" res="-7.2470773011445999e-04" rms="3.6133665591478348e-02" purity="1.0000000000000000e+00" nType="-99"/>
              </Node>
              <Node pos="r" depth="4" NCoef="0" IVar="5" Cut="7.0899881422519684e-02" cType="1" res="-1.4741826802492142e-02" rms="3.4677270799875259e-02" purity="1.0000000000000000e+00" nType="0">
                <Node pos="l" depth="5" NCoef="0" IVar="-1" Cut="0.0000000000000000e+00" cType="1" res="-1.7649588407948613e-03" rms="3.3772628754377365e-02" purity="1.0000000000000000e+00" nType="-99"/>
                <Node pos="r" depth="5" NCoef="0" IVar="-1" Cut="0.0000000000000000e+00" cType="1" res="-4.7571607865393162e-03" rms="3.6032442003488541e-02" purity="1.0000000000000000e+00" nType="-99"/>
              </Node>
            </Node>
          </Node>
        </Node>
        <Node pos="r" depth="1" NCoef="0" IVar="4" Cut="1.7941279336810112e-02" cType="1" res="-1.9932931289076805e-02" rms="3.4762728959321976e-02" purity="1.0000000000000000e+00" nType="0">
          <Node pos="l" depth="2" NCoef="0" IVar="4" Cut="1.4268963597714901e-02" cType="1" res="-5.0296760164201260e-03" rms="3.7807721644639969e-02" purity="1.0000000000000000e+00" nType="0">
            <Node pos="l" depth="3" NCoef="0" IVar="4" Cut="1.1165305972099304e-02" cType="1" res="3.7503696512430906e-03" rms="3.9035797119140625e-02" purity="1.0000000000000000e+00" nType="0">
              <Node pos="l" depth="4" NCoef="0" IVar="-1" Cut="0.0000000000000000e+00" cType="1" res="2.2185090929269791e-03" rms="3.9105899631977081e-02" purity="1.0000000000000000e+00" nType="-99"/>
              <Node pos="r" depth="4" NCoef="0" IVar="5" Cut="4.6256735920906067e-02" cType="1" res="-3.6243337672203779e-04" rms="3.8397956639528275e-02" purity="1.0000000000000000e+00" nType="0">
                <Node pos="l" depth="5" NCoef="0" IVar="-1" Cut="0.0000000000000000e+00" cType="1" res="6.1381893465295434e-04" rms="3.5061236470937729e-02" purity="1.0000000000000000e+00" nType="-99"/>
                <Node pos="r" depth="5" NCoef="0" IVar="-1" Cut="0.0000000000000000e+00" cType="1" res="-1.2178745819255710e-03" rms="4.0670275688171387e-02" purity="1.0000000000000000e+00" nType="-99"/>
              </Node>
            </Node>
            <Node pos="r" depth="3" NCoef="0" IVar="5" Cut="4.4906511902809143e-02" cType="1" res="-1.0703260079026222e-02" rms="3.5866960883140564e-02" purity="1.0000000000000000e+00" nType="0">
              <Node pos="l" depth="4" NCoef="0" IVar="5" Cut="3.0377412214875221e-02" cType="1" res="-2.2076431196182966e-03" rms="3.3228423446416855e-02" purity="1.0000000000000000e+00" nType="0">
                <Node pos="l" depth="5" NCoef="0" IVar="-1" Cut="0.0000000000000000e+00" cType="1" res="3.5760688479058444e-04" rms="3.1701039522886276e-02" purity="1.0000000000000000e+00" nType="-99"/>
                <Node pos="r" depth="5" NCoef="0" IVar="-1" Cut="0.0000000000000000e+00" cType="1" res="-1.0027827229350805e-03" rms="3.3791191875934601e-02" purity="1.0000000000000000e+00" nType="-99"/>
              </Node>
              <Node pos="r" depth="4" NCoef="0" IVar="3" Cut="3.8093358278274536e-02" cType="1" res="-1.7329055815935135e-02" rms="3.6447681486606598e-02" purity="1.0000000000000000e+00" nType="0">
                <Node pos="l" depth="5" NCoef="0" IVar="-1" Cut="0.0000000000000000e+00" cType="1" res="-3.6540077999234200e-03" rms="3.5341523587703705e-02" purity="1.0000000000000000e+00" nType="-99"/>
                <Node pos="r" depth="5" NCoef="0" IVar="-1" Cut="0.0000000000000000e+00" cType="1" res="-2.3327313829213381e-03" rms="3.7833262234926224e-02" purity="1.0000000000000000e+00" nType="-99"/>
              </Node>
            </Node>
          </Node>
          <Node pos="r" depth="2" NCoef="0" IVar="5" Cut="4.5830786228179932e-02" cType="1" res="-2.4514278396964073e-02" rms="3.2423023134469986e-02" purity="1.0000000000000000e+00" nType="0">
            <Node pos="l" depth="3" NCoef="0" IVar="2" Cut="2.5719154626131058e-02" cType="1" res="-1.5300219878554344e-02" rms="3.2839830964803696e-02" purity="1.0000000000000000e+00" nType="0">
              <Node pos="l" depth="4" NCoef="0" IVar="5" Cut="3.3531885594129562e-02" cType="1" res="-9.2472629621624947e-03" rms="3.2161712646484375e-02" purity="1.0000000000000000e+00" nType="0">
                <Node pos="l" depth="5" NCoef="0" IVar="-1" Cut="0.0000000000000000e+00" cType="1" res="-5.2618398331105709e-04" rms="3.0723437666893005e-02" purity="1.0000000000000000e+00" nType="-99"/>
                <Node pos="r" depth="5" NCoef="0" IVar="-1" Cut="0.0000000000000000e+00" cType="1" res="-1.9730813801288605e-03" rms="3.2687749713659286e-02" purity="1.0000000000000000e+00" nType="-99"/>
              </Node>
              <Node pos="r" depth="4" NCoef="0" IVar="6" Cut="7.2798870503902435e-02" cType="1" res="-2.2394713014364243e-02" rms="3.2200053334236145e-02" purity="1.0000000000000000e+00" nType="0">
                <Node pos="l" depth="5" NCoef="0" IVar="-1" Cut="0.0000000000000000e+00" cType="1" res="-2.2477342281490564e-03" rms="3.2337076961994171e-02" purity="1.0000000000000000e+00" nType="-99"/>
                <Node pos="r" depth="5" NCoef="0" IVar="-1" Cut="0.0000000000000000e+00" cType="1" res="-4.7487588599324226e-03" rms="3.1129835173487663e-02" purity="1.0000000000000000e+00" nType="-99"/>
              </Node>
            </Node>
            <Node pos="r" depth="3" NCoef="0" IVar="6" Cut="7.6307125389575958e-02" cType="1" res="-3.1265761703252792e-02" rms="3.0389621853828430e-02" purity="1.0000000000000000e+00" nType="0">
              <Node pos="l" depth="4" NCoef="0" IVar="5" Cut="5.6681767106056213e-02" cType="1" res="-2.7167346328496933e-02" rms="3.1371314078569412e-02" purity="1.0000000000000000e+00" nType="0">
                <Node pos="l" depth="5" NCoef="0" IVar="-1" Cut="0.0000000000000000e+00" cType="1" res="-3.3119129948318005e-03" rms="3.0961869284510612e-02" purity="1.0000000000000000e+00" nType="-99"/>
                <Node pos="r" depth="5" NCoef="0" IVar="-1" Cut="0.0000000000000000e+00" cType="1" res="-6.0958717949688435e-03" rms="3.1287491321563721e-02" purity="1.0000000000000000e+00" nType="-99"/>
              </Node>
              <Node pos="r" depth="4" NCoef="0" IVar="4" Cut="2.5756597518920898e-02" cType="1" res="-3.5005070269107819e-02" rms="2.8963835909962654e-02" purity="1.0000000000000000e+00" nType="0">
                <Node pos="l" depth="5" NCoef="0" IVar="-1" Cut="0.0000000000000000e+00" cType="1" res="-7.1041742339730263e-03" rms="3.1595952808856964e-02" purity="1.0000000000000000e+00" nType="-99"/>
                <Node pos="r" depth="5" NCoef="0" IVar="-1" Cut="0.0000000000000000e+00" cType="1" res="-1.1140702292323112e-02" rms="2.5873700156807899e-02" purity="1.0000000000000000e+00" nType="-99"/>
              </Node>
            </Node>
          </Node>
        </Node>
      </Node>
    </BinaryTree>
    <BinaryTree type="DecisionTree" boostWeight="1.0000000000000000e+00" itree="4">
      <Node pos="s" depth="0" NCoef="0" IVar="6" Cut="1.8733797594904900e-02" cType="1" res="-2.2814674302935600e-03" rms="3.2510031014680862e-02" purity="1.0000000000000000e+00" nType="0">
        <Node pos="l" depth="1" NCoef="0" IVar="6" Cut="3.7390749639598653e-05" cType="1" res="7.9734660685062408e-03" rms="2.6916446164250374e-02" purity="1.0000000000000000e+00" nType="0">
          <Node pos="l" depth="2" NCoef="0" IVar="5" Cut="3.4123182296752930e-02" cType="1" res="1.0890938341617584e-02" rms="2.5871081277728081e-02" purity="1.0000000000000000e+00" nType="0">
            <Node pos="l" depth="3" NCoef="0" IVar="3" Cut="2.6717830449342728e-02" cType="1" res="9.8939668387174606e-03" rms="2.2372407838702202e-02" purity="1.0000000000000000e+00" nType="0">
              <Node pos="l" depth="4" NCoef="0" IVar="0" Cut="-2.0611240863800049e+00" cType="1" res="8.4113916382193565e-03" rms="2.0280105993151665e-02" purity="1.0000000000000000e+00" nType="0">
                <Node pos="l" depth="5" NCoef="0" IVar="-1" Cut="0.0000000000000000e+00" cType="1" res="1.0942269582301378e-03" rms="2.0713824778795242e-02" purity="1.0000000000000000e+00" nType="-99"/>
                <Node pos="r" depth="5" NCoef="0" IVar="-1" Cut="0.0000000000000000e+00" cType="1" res="8.4004621021449566e-04" rms="2.0166497677564621e-02" purity="1.0000000000000000e+00" nType="-99"/>
              </Node>
              <Node pos="r" depth="4" NCoef="0" IVar="0" Cut="-1.7739462852478027e+00" cType="1" res="1.0566486977040768e-02" rms="2.3228364065289497e-02" purity="1.0000000000000000e+00" nType="0">
                <Node pos="l" depth="5" NCoef="0" IVar="-1" Cut="0.0000000000000000e+00" cType="1" res="1.3947132974863052e-03" rms="2.3146942257881165e-02" purity="1.0000000000000000e+00" nType="-99"/>
                <Node pos="r" depth="5" NCoef="0" IVar="-1" Cut="0.0000000000000000e+00" cType="1" res="1.0953525779768825e-03" rms="2.3220755159854889e-02" purity="1.0000000000000000e+00" nType="-99"/>
              </Node>
            </Node>
            <Node pos="r" depth="3" NCoef="0" IVar="1" Cut="-2.0892527103424072e+00" cType="1" res="1.2306867167353630e-02" rms="3.0093427747488022e-02" purity="1.0000000000000000e+00" nType="0">
              <Node pos="l" depth="4" NCoef="0" IVar="-1" Cut="0.0000000000000000e+00" cType="1" res="1.9128016429021955e-03" rms="2.5592077523469925e-02" purity="1.0000000000000000e+00" nType="-99"/>
              <Node pos="r" depth="4" NCoef="0" IVar="4" Cut="1.7611876130104065e-02" cType="1" res="1.1847469024360180e-02" rms="3.0577901750802994e-02" purity="1.0000000000000000e+00" nType="0">
                <Node pos="l" depth="5" NCoef="0" IVar="-1" Cut="0.0000000000000000e+00" cType="1" res="1.7517282394692302e-03" rms="3.0229227617383003e-02" purity="1.0000000000000000e+00" nType="-99"/>
                <Node pos="r" depth="5" NCoef="0" IVar="-1" Cut="0.0000000000000000e+00" cType="1" res="1.1571159120649099e-03" rms="3.1231580302119255e-02" purity="1.0000000000000000e+00" nType="-99"/>
              </Node>
            </Node>
          </Node>
          <Node pos="r" depth="2" NCoef="0" IVar="5" Cut="4.7803010791540146e-02" cType="1" res="3.2979440875351429e-03" rms="2.7882408350706100e-02" purity="1.0000000000000000e+00" nType="0">
            <Node pos="l" depth="3" NCoef="0" IVar="5" Cut="3.4829303622245789e-02" cType="1" res="5.3741489537060261e-03" rms="2.5263184681534767e-02" purity="1.0000000000000000e+00" nType="0">
              <Node pos="l" depth="4" NCoef="0" IVar="4" Cut="1.6119059175252914e-02" cType="1" res="6.4575881697237492e-03" rms="2.3343494161963463e-02" purity="1.0000000000000000e+00" nType="0">
                <Node pos="l" depth="5" NCoef="0" IVar="-1" Cut="0.0000000000000000e+00" cType="1" res="9.4320939388126135e-04" rms="2.4970039725303650e-02" purity="1.0000000000000000e+00" nType="-99"/>
                <Node pos="r" depth="5" NCoef="0" IVar="-1" Cut="0.0000000000000000e+00" cType="1" res="5.8710784651339054e-04" rms="2.2482382133603096e-02" purity="1.0000000000000000e+00" nType="-99"/>
              </Node>
              <Node pos="r" depth="4" NCoef="0" IVar="3" Cut="2.8739381581544876e-02" cType="1" res="2.8638243675231934e-03" rms="2.9075857251882553e-02" purity="1.0000000000000000e+00" nType="0">
                <Node pos="l" depth="5" NCoef="0" IVar="-1" Cut="0.0000000000000000e+00" cType="1" res="-1.6488654364366084e-04" rms="2.8673028573393822e-02" purity="1.0000000000000000e+00" nType="-99"/>
                <Node pos="r" depth="5" NCoef="0" IVar="-1" Cut="0.0000000000000000e+00" cType="1" res="5.8150151744484901e-04" rms="2.9056565836071968e-02" purity="1.0000000000000000e+00" nType="-99"/>
              </Node>
            </Node>
            <Node pos="r" depth="3" NCoef="0" IVar="4" Cut="1.7902882769703865e-02" cType="1" res="-4.6917651779949665e-03" rms="3.5109527409076691e-02" purity="1.0000000000000000e+00" nType="0">
              <Node pos="l" depth="4" NCoef="0" IVar="4" Cut="1.4968569390475750e-02" cType="1" res="6.1368115711957216e-04" rms="3.4869488328695297e-02" purity="1.0000000000000000e+00" nType="0">
                <Node pos="l" depth="5" NCoef="0" IVar="-1" Cut="0.0000000000000000e+00" cType="1" res="5.6829757522791624e-04" rms="3.5321850329637527e-02" purity="1.0000000000000000e+00" nType="-99"/>
                <Node pos="r" depth="5" NCoef="0" IVar="-1" Cut="0.0000000000000000e+00" cType="1" res="-4.2765773832798004e-04" rms="3.3999625593423843e-02" purity="1.0000000000000000e+00" nType="-99"/>
              </Node>
              <Node pos="r" depth="4" NCoef="0" IVar="5" Cut="6.1433654278516769e-02" cType="1" res="-9.7061656415462494e-03" rms="3.4594908356666565e-02" purity="1.0000000000000000e+00" nType="0">
                <Node pos="l" depth="5" NCoef="0" IVar="-1" Cut="0.0000000000000000e+00" cType="1" res="-8.1845099339261651e-04" rms="3.3003974705934525e-02" purity="1.0000000000000000e+00" nType="-99"/>
                <Node pos="r" depth="5" NCoef="0" IVar="-1" Cut="0.0000000000000000e+00" cType="1" res="-2.8142293449491262e-03" rms="3.5916790366172791e-02" purity="1.0000000000000000e+00" nType="-99"/>
              </Node>
            </Node>
          </Node>
        </Node>
        <Node pos="r" depth="1" NCoef="0" IVar="5" Cut="4.8203192651271820e-02" cType="1" res="-1.5573542565107346e-02" rms="3.4274879842996597e-02" purity="1.0000000000000000e+00" nType="0">
          <Node pos="l" depth="2" NCoef="0" IVar="4" Cut="1.9116941839456558e-02" cType="1" res="-7.9880133271217346e-03" rms="3.2988678663969040e-02" purity="1.0000000000000000e+00" nType="0">
            <Node pos="l" depth="3" NCoef="0" IVar="5" Cut="3.0227888375520706e-02" cType="1" res="6.2109821010380983e-04" rms="3.3120326697826385e-02" purity="1.0000000000000000e+00" nType="0">
              <Node pos="l" depth="4" NCoef="0" IVar="4" Cut="1.4277876354753971e-02" cType="1" res="5.7403827086091042e-03" rms="3.1167652457952499e-02" purity="1.0000000000000000e+00" nType="0">
                <Node pos="l" depth="5" NCoef="0" IVar="-1" Cut="0.0000000000000000e+00" cType="1" res="1.3355193659663200e-03" rms="3.3195018768310547e-02" purity="1.0000000000000000e+00" nType="-99"/>
                <Node pos="r" depth="5" NCoef="0" IVar="-1" Cut="0.0000000000000000e+00" cType="1" res="3.9205767097882926e-04" rms="2.9580360278487206e-02" purity="1.0000000000000000e+00" nType="-99"/>
              </Node>
              <Node pos="r" depth="4" NCoef="0" IVar="4" Cut="1.4894176274538040e-02" cType="1" res="-3.4418352879583836e-03" rms="3.4048188477754593e-02" purity="1.0000000000000000e+00" nType="0">
                <Node pos="l" depth="5" NCoef="0" IVar="-1" Cut="0.0000000000000000e+00" cType="1" res="3.3718327176757157e-04" rms="3.5395909100770950e-02" purity="1.0000000000000000e+00" nType="-99"/>
                <Node pos="r" depth="5" NCoef="0" IVar="-1" Cut="0.0000000000000000e+00" cType="1" res="-1.0544818360358477e-03" rms="3.2551985234022141e-02" purity="1.0000000000000000e+00" nType="-99"/>
              </Node>
            </Node>
            <Node pos="r" depth="3" NCoef="0" IVar="6" Cut="5.4314896464347839e-02" cType="1" res="-1.2805890291929245e-02" rms="3.1916972249746323e-02" purity="1.0000000000000000e+00" nType="0">
              <Node pos="l" depth="4" NCoef="0" IVar="5" Cut="3.6486785858869553e-02" cType="1" res="-6.4209108240902424e-03" rms="3.0089516192674637e-02" purity="1.0000000000000000e+00" nType="0">
                <Node pos="l" depth="5" NCoef="0" IVar="-1" Cut="0.0000000000000000e+00" cType="1" res="-2.8868584195151925e-04" rms="2.8622701764106750e-02" purity="1.0000000000000000e+00" nType="-99"/>
                <Node pos="r" depth="5" NCoef="0" IVar="-1" Cut="0.0000000000000000e+00" cType="1" res="-1.7269080271944404e-03" rms="3.1120555475354195e-02" purity="1.0000000000000000e+00" nType="-99"/>
              </Node>
              <Node pos="r" depth="4" NCoef="0" IVar="2" Cut="2.5383101776242256e-02" cType="1" res="-1.9388774409890175e-02" rms="3.2406073063611984e-02" purity="1.0000000000000000e+00" nType="0">
                <Node pos="l" depth="5" NCoef="0" IVar="-1" Cut="0.0000000000000000e+00" cType="1" res="-1.7355734016746283e-03" rms="3.3344179391860962e-02" purity="1.0000000000000000e+00" nType="-99"/>
                <Node pos="r" depth="5" NCoef="0" IVar="-1" Cut="0.0000000000000000e+00" cType="1" res="-3.9659803733229637e-03" rms="3.0953330919146538e-02" purity="1.0000000000000000e+00" nType="-99"/>
              </Node>
            </Node>
          </Node>
          <Node pos="r" depth="2" NCoef="0" IVar="4" Cut="1.9057651981711388e-02" cType="1" res="-2.3509228602051735e-02" rms="3.3795028924942017e-02" purity="1.0000000000000000e+00" nType="0">
            <Node pos="l" depth="3" NCoef="0" IVar="4" Cut="1.5455998480319977e-02" cType="1" res="-1.1625347658991814e-02" rms="3.7534173578023911e-02" purity="1.0000000000000000e+00" nType="0">
              <Node pos="l" depth="4" NCoef="0" IVar="3" Cut="3.7794001400470734e-02" cType="1" res="-3.5746491048485041e-03" rms="3.9387352764606476e-02" purity="1.0000000000000000e+00" nType="0">
                <Node pos="l" depth="5" NCoef="0" IVar="-1" Cut="0.0000000000000000e+00" cType="1" res="-1.5544113703072071e-03" rms="3.8668338209390640e-02" purity="1.0000000000000000e+00" nType="-99"/>
                <Node pos="r" depth="5" NCoef="0" IVar="-1" Cut="0.0000000000000000e+00" cType="1" res="3.7159089697524905e-04" rms="3.9804503321647644e-02" purity="1.0000000000000000e+00" nType="-99"/>
              </Node>
              <Node pos="r" depth="4" NCoef="0" IVar="6" Cut="4.3399989604949951e-02" cType="1" res="-1.7132511362433434e-02" rms="3.5165842622518539e-02" purity="1.0000000000000000e+00" nType="0">
                <Node pos="l" depth="5" NCoef="0" IVar="-1" Cut="0.0000000000000000e+00" cType="1" res="-1.9287863979116082e-03" rms="3.5271875560283661e-02" purity="1.0000000000000000e+00" nType="-99"/>
                <Node pos="r" depth="5" NCoef="0" IVar="-1" Cut="0.0000000000000000e+00" cType="1" res="-4.0824692696332932e-03" rms="3.4582015126943588e-02" purity="1.0000000000000000e+00" nType="-99"/>
              </Node>
            </Node>
            <Node pos="r" depth="3" NCoef="0" IVar="6" Cut="6.0875922441482544e-02" cType="1" res="-2.8482785448431969e-02" rms="3.0767530202865601e-02" purity="1.0000000000000000e+00" nType="0">
              <Node pos="l" depth="4" NCoef="0" IVar="3" Cut="4.1766591370105743e-02" cType="1" res="-2.3120930418372154e-02" rms="3.2084532082080841e-02" purity="1.0000000000000000e+00" nType="0">
                <Node pos="l" depth="5" NCoef="0" IVar="-1" Cut="0.0000000000000000e+00" cType="1" res="-4.3792743235826492e-03" rms="3.0715771019458771e-02" purity="1.0000000000000000e+00" nType="-99"/>
                <Node pos="r" depth="5" NCoef="0" IVar="-1" Cut="0.0000000000000000e+00" cType="1" res="-3.1562242656946182e-03" rms="3.6008987575769424e-02" purity="1.0000000000000000e+00" nType="-99"/>
              </Node>
              <Node pos="r" depth="4" NCoef="0" IVar="2" Cut="2.6841577142477036e-02" cType="1" res="-3.1946677714586258e-02" rms="2.9369948431849480e-02" purity="1.0000000000000000e+00" nType="0">
                <Node pos="l" depth="5" NCoef="0" IVar="-1" Cut="0.0000000000000000e+00" cType="1" res="-5.8863256126642227e-03" rms="3.0803617089986801e-02" purity="1.0000000000000000e+00" nType="-99"/>
                <Node pos="r" depth="5" NCoef="0" IVar="-1" Cut="0.0000000000000000e+00" cType="1" res="-1.0663369670510292e-02" rms="2.7501111850142479e-02" purity="1.0000000000000000e+00" nType="-99"/>
              </Node>
            </Node>
          </Node>
        </Node>
      </Node>
    </BinaryTree>
    <BinaryTree type="DecisionTree" boostWeight="1.0000000000000000e+00" itree="5">
      <Node pos="s" depth="0" NCoef="0" IVar="6" Cut="2.9141463339328766e-02" cType="1" res="-2.1009389311075211e-03" rms="3.1698662787675858e-02" purity="1.0000000000000000e+00" nType="0">
        <Node pos="l" depth="1" NCoef="0" IVar="6" Cut="9.8879747092723846e-03" cType="1" res="5.7289497926831245e-03" rms="2.7538672089576721e-02" purity="1.0000000000000000e+00" nType="0">
          <Node pos="l" depth="2" NCoef="0" IVar="6" Cut="1.9736145986826159e-05" cType="1" res="8.4860706701874733e-03" rms="2.5641880929470062e-02" purity="1.0000000000000000e+00" nType="0">
            <Node pos="l" depth="3" NCoef="0" IVar="3" Cut="2.8356518596410751e-02" cType="1" res="9.7083169966936111e-03" rms="2.5690065696835518e-02" purity="1.0000000000000000e+00" nType="0">
              <Node pos="l" depth="4" NCoef="0" IVar="0" Cut="-2.0516912937164307e+00" cType="1" res="8.2412296906113625e-03" rms="2.2703070193529129e-02" purity="1.0000000000000000e+00" nType="0">
                <Node pos="l" depth="5" NCoef="0" IVar="-1" Cut="0.0000000000000000e+00" cType="1" res="1.1426302371546626e-03" rms="2.3125503212213516e-02" purity="1.0000000000000000e+00" nType="-99"/>
                <Node pos="r" depth="5" NCoef="0" IVar="-1" Cut="0.0000000000000000e+00" cType="1" res="8.5351505549624562e-04" rms="2.2591307759284973e-02" purity="1.0000000000000000e+00" nType="-99"/>
              </Node>
              <Node pos="r" depth="4" NCoef="0" IVar="4" Cut="9.2917066067457199e-03" cType="1" res="1.0456228628754616e-02" rms="2.7055751532316208e-02" purity="1.0000000000000000e+00" nType="0">
                <Node pos="l" depth="5" NCoef="0" IVar="-1" Cut="0.0000000000000000e+00" cType="1" res="8.4726914064958692e-04" rms="3.1618546694517136e-02" purity="1.0000000000000000e+00" nType="-99"/>
                <Node pos="r" depth="5" NCoef="0" IVar="-1" Cut="0.0000000000000000e+00" cType="1" res="1.2767255539074540e-03" rms="2.6799699291586876e-02" purity="1.0000000000000000e+00" nType="-99"/>
              </Node>
            </Node>
            <Node pos="r" depth="3" NCoef="0" IVar="5" Cut="5.1097683608531952e-02" cType="1" res="4.9828998744487762e-03" rms="2.5176635012030602e-02" purity="1.0000000000000000e+00" nType="0">
              <Node pos="l" depth="4" NCoef="0" IVar="5" Cut="3.9227895438671112e-02" cType="1" res="5.9172981418669224e-03" rms="2.3633260279893875e-02" purity="1.0000000000000000e+00" nType="0">
                <Node pos="l" depth="5" NCoef="0" IVar="-1" Cut="0.0000000000000000e+00" cType="1" res="6.9257878931239247e-04" rms="2.2363198921084404e-02" purity="1.0000000000000000e+00" nType="-99"/>
                <Node pos="r" depth="5" NCoef="0" IVar="-1" Cut="0.0000000000000000e+00" cType="1" res="4.1731548844836652e-04" rms="2.8598438948392868e-02" purity="1.0000000000000000e+00" nType="-99"/>
              </Node>
              <Node pos="r" depth="4" NCoef="0" IVar="-1" Cut="0.0000000000000000e+00" cType="1" res="-3.1520493212155998e-04" rms="3.3783171325922012e-02" purity="1.0000000000000000e+00" nType="-99"/>
            </Node>
          </Node>
          <Node pos="r" depth="2" NCoef="0" IVar="5" Cut="4.4911745935678482e-02" cType="1" res="-1.6422504559159279e-03" rms="3.0877245590090752e-02" purity="1.0000000000000000e+00" nType="0">
            <Node pos="l" depth="3" NCoef="0" IVar="5" Cut="2.7148190885782242e-02" cType="1" res="1.9870754331350327e-03" rms="2.7826268225908279e-02" purity="1.0000000000000000e+00" nType="0">
              <Node pos="l" depth="4" NCoef="0" IVar="4" Cut="1.8155587837100029e-02" cType="1" res="5.2942419424653053e-03" rms="2.5273025035858154e-02" purity="1.0000000000000000e+00" nType="0">
                <Node pos="l" depth="5" NCoef="0" IVar="-1" Cut="0.0000000000000000e+00" cType="1" res="8.0523616634309292e-04" rms="2.6182206347584724e-02" purity="1.0000000000000000e+00" nType="-99"/>
                <Node pos="r" depth="5" NCoef="0" IVar="-1" Cut="0.0000000000000000e+00" cType="1" res="3.3324747346341610e-04" rms="2.4010550230741501e-02" purity="1.0000000000000000e+00" nType="-99"/>
              </Node>
              <Node pos="r" depth="4" NCoef="0" IVar="3" Cut="3.4536644816398621e-02" cType="1" res="1.5667361731175333e-04" rms="2.8981609269976616e-02" purity="1.0000000000000000e+00" nType="0">
                <Node pos="l" depth="5" NCoef="0" IVar="-1" Cut="0.0000000000000000e+00" cType="1" res="-2.2835553681943566e-04" rms="2.8420044109225273e-02" purity="1.0000000000000000e+00" nType="-99"/>
                <Node pos="r" depth="5" NCoef="0" IVar="-1" Cut="0.0000000000000000e+00" cType="1" res="5.4049363825470209e-04" rms="2.9804632067680359e-02" purity="1.0000000000000000e+00" nType="-99"/>
              </Node>
            </Node>
            <Node pos="r" depth="3" NCoef="0" IVar="4" Cut="1.7429776489734650e-02" cType="1" res="-8.1447679549455643e-03" rms="3.4762240946292877e-02" purity="1.0000000000000000e+00" nType="0">
              <Node pos="l" depth="4" NCoef="0" IVar="4" Cut="1.5023574233055115e-02" cType="1" res="-1.0821454925462604e-03" rms="3.5590987652540207e-02" purity="1.0000000000000000e+00" nType="0">
                <Node pos="l" depth="5" NCoef="0" IVar="-1" Cut="0.0000000000000000e+00" cType="1" res="3.3387614530511200e-04" rms="3.5953156650066376e-02" purity="1.0000000000000000e+00" nType="-99"/>
                <Node pos="r" depth="5" NCoef="0" IVar="-1" Cut="0.0000000000000000e+00" cType="1" res="-8.6302839918062091e-04" rms="3.4668426960706711e-02" purity="1.0000000000000000e+00" nType="-99"/>
              </Node>
              <Node pos="r" depth="4" NCoef="0" IVar="3" Cut="3.9525583386421204e-02" cType="1" res="-1.2459795922040939e-02" rms="3.3521577715873718e-02" purity="1.0000000000000000e+00" nType="0">
                <Node pos="l" depth="5" NCoef="0" IVar="-1" Cut="0.0000000000000000e+00" cType="1" res="-2.3543133866041899e-03" rms="3.2306749373674393e-02" purity="1.0000000000000000e+00" nType="-99"/>
                <Node pos="r" depth="5" NCoef="0" IVar="-1" Cut="0.0000000000000000e+00" cType="1" res="-1.1383108794689178e-03" rms="3.5644374787807465e-02" purity="1.0000000000000000e+00" nType="-99"/>
              </Node>
            </Node>
          </Node>
        </Node>
        <Node pos="r" depth="1" NCoef="0" IVar="4" Cut="1.8952501937747002e-02" cType="1" res="-1.6280366107821465e-02" rms="3.3748906105756760e-02" purity="1.0000000000000000e+00" nType="0">
          <Node pos="l" depth="2" NCoef="0" IVar="4" Cut="1.4738017693161964e-02" cType="1" res="-5.6020556949079037e-03" rms="3.5738956183195114e-02" purity="1.0000000000000000e+00" nType="0">
            <Node pos="l" depth="3" NCoef="0" IVar="4" Cut="1.1303321458399296e-02" cType="1" res="2.2833170369267464e-03" rms="3.7085976451635361e-02" purity="1.0000000000000000e+00" nType="0">
              <Node pos="l" depth="4" NCoef="0" IVar="-1" Cut="0.0000000000000000e+00" cType="1" res="1.9071830902248621e-03" rms="3.7727970629930496e-02" purity="1.0000000000000000e+00" nType="-99"/>
              <Node pos="r" depth="4" NCoef="0" IVar="5" Cut="4.1998088359832764e-02" cType="1" res="-1.0577630018815398e-03" rms="3.6302167922258377e-02" purity="1.0000000000000000e+00" nType="0">
                <Node pos="l" depth="5" NCoef="0" IVar="-1" Cut="0.0000000000000000e+00" cType="1" res="5.0765305059030652e-04" rms="3.2679554075002670e-02" purity="1.0000000000000000e+00" nType="-99"/>
                <Node pos="r" depth="5" NCoef="0" IVar="-1" Cut="0.0000000000000000e+00" cType="1" res="-1.0761967860162258e-03" rms="3.8197234272956848e-02" purity="1.0000000000000000e+00" nType="-99"/>
              </Node>
            </Node>
            <Node pos="r" depth="3" NCoef="0" IVar="5" Cut="3.6622203886508942e-02" cType="1" res="-1.0100766085088253e-02" rms="3.4140810370445251e-02" purity="1.0000000000000000e+00" nType="0">
              <Node pos="l" depth="4" NCoef="0" IVar="-1" Cut="0.0000000000000000e+00" cType="1" res="-8.2003069110214710e-05" rms="3.1348429620265961e-02" purity="1.0000000000000000e+00" nType="-99"/>
              <Node pos="r" depth="4" NCoef="0" IVar="5" Cut="5.5441271513700485e-02" cType="1" res="-1.4253207482397556e-02" rms="3.4425549209117889e-02" purity="1.0000000000000000e+00" nType="0">
                <Node pos="l" depth="5" NCoef="0" IVar="-1" Cut="0.0000000000000000e+00" cType="1" res="-1.5956403221935034e-03" rms="3.2944630831480026e-02" purity="1.0000000000000000e+00" nType="-99"/>
                <Node pos="r" depth="5" NCoef="0" IVar="-1" Cut="0.0000000000000000e+00" cType="1" res="-3.5433673765510321e-03" rms="3.5259708762168884e-02" purity="1.0000000000000000e+00" nType="-99"/>
              </Node>
            </Node>
          </Node>
          <Node pos="r" depth="2" NCoef="0" IVar="5" Cut="5.4167758673429489e-02" cType="1" res="-2.0637523382902145e-02" rms="3.1891249120235443e-02" purity="1.0000000000000000e+00" nType="0">
            <Node pos="l" depth="3" NCoef="0" IVar="2" Cut="2.6658428832888603e-02" cType="1" res="-1.4614050276577473e-02" rms="3.1722247600555420e-02" purity="1.0000000000000000e+00" nType="0">
              <Node pos="l" depth="4" NCoef="0" IVar="5" Cut="3.6827046424150467e-02" cType="1" res="-1.0791015811264515e-02" rms="3.1337495893239975e-02" purity="1.0000000000000000e+00" nType="0">
                <Node pos="l" depth="5" NCoef="0" IVar="-1" Cut="0.0000000000000000e+00" cType="1" res="-7.6950737275183201e-04" rms="3.0516820028424263e-02" purity="1.0000000000000000e+00" nType="-99"/>
                <Node pos="r" depth="5" NCoef="0" IVar="-1" Cut="0.0000000000000000e+00" cType="1" res="-2.2748333867639303e-03" rms="3.1338453292846680e-02" purity="1.0000000000000000e+00" nType="-99"/>
              </Node>
              <Node pos="r" depth="4" NCoef="0" IVar="5" Cut="3.1117133796215057e-02" cType="1" res="-2.2364050149917603e-02" rms="3.1077224761247635e-02" purity="1.0000000000000000e+00" nType="0">
                <Node pos="l" depth="5" NCoef="0" IVar="-1" Cut="0.0000000000000000e+00" cType="1" res="-1.9413713598623872e-03" rms="3.1253963708877563e-02" purity="1.0000000000000000e+00" nType="-99"/>
                <Node pos="r" depth="5" NCoef="0" IVar="-1" Cut="0.0000000000000000e+00" cType="1" res="-4.7151781618595123e-03" rms="3.0486093834042549e-02" purity="1.0000000000000000e+00" nType="-99"/>
              </Node>
            </Node>
            <Node pos="r" depth="3" NCoef="0" IVar="2" Cut="2.4918116629123688e-02" cType="1" res="-2.8250753879547119e-02" rms="3.0443726107478142e-02" purity="1.0000000000000000e+00" nType="0">
              <Node pos="l" depth="4" NCoef="0" IVar="5" Cut="7.3796726763248444e-02" cType="1" res="-2.2816302254796028e-02" rms="3.2246422022581100e-02" purity="1.0000000000000000e+00" nType="0">
                <Node pos="l" depth="5" NCoef="0" IVar="-1" Cut="0.0000000000000000e+00" cType="1" res="-3.3883946016430855e-03" rms="3.2225169241428375e-02" purity="1.0000000000000000e+00" nType="-99"/>
                <Node pos="r" depth="5" NCoef="0" IVar="-1" Cut="0.0000000000000000e+00" cType="1" res="-6.3666487112641335e-03" rms="3.1876958906650543e-02" purity="1.0000000000000000e+00" nType="-99"/>
              </Node>
              <Node pos="r" depth="4" NCoef="0" IVar="4" Cut="2.3209867998957634e-02" cType="1" res="-3.0477687716484070e-02" rms="2.9384506866335869e-02" purity="1.0000000000000000e+00" nType="0">
                <Node pos="l" depth="5" NCoef="0" IVar="-1" Cut="0.0000000000000000e+00" cType="1" res="-5.5273007601499557e-03" rms="3.2058648765087128e-02" purity="1.0000000000000000e+00" nType="-99"/>
                <Node pos="r" depth="5" NCoef="0" IVar="-1" Cut="0.0000000000000000e+00" cType="1" res="-9.2511177062988281e-03" rms="2.7924342080950737e-02" purity="1.0000000000000000e+00" nType="-99"/>
              </Node>
            </Node>
          </Node>
        </Node>
      </Node>
    </BinaryTree>
    <BinaryTree type="DecisionTree" boostWeight="1.0000000000000000e+00" itree="6">
      <Node pos="s" depth="0" NCoef="0" IVar="6" Cut="3.0182231217622757e-02" cType="1" res="-1.9310910720378160e-03" rms="3.1034955754876137e-02" purity="1.0000000000000000e+00" nType="0">
        <Node pos="l" depth="1" NCoef="0" IVar="6" Cut="9.9395541474223137e-03" cType="1" res="5.0102458335459232e-03" rms="2.7265006676316261e-02" purity="1.0000000000000000e+00" nType="0">
          <Node pos="l" depth="2" NCoef="0" IVar="6" Cut="1.9839028027490713e-05" cType="1" res="7.5764735229313374e-03" rms="2.5458771735429764e-02" purity="1.0000000000000000e+00" nType="0">
            <Node pos="l" depth="3" NCoef="0" IVar="5" Cut="3.7036143243312836e-02" cType="1" res="8.6731500923633575e-03" rms="2.5545261800289154e-02" purity="1.0000000000000000e+00" nType="0">
              <Node pos="l" depth="4" NCoef="0" IVar="2" Cut="2.6948012411594391e-02" cType="1" res="7.8839473426342010e-03" rms="2.2478746250271797e-02" purity="1.0000000000000000e+00" nType="0">
                <Node pos="l" depth="5" NCoef="0" IVar="-1" Cut="0.0000000000000000e+00" cType="1" res="8.3072675624862313e-04" rms="2.2112162783741951e-02" purity="1.0000000000000000e+00" nType="-99"/>
                <Node pos="r" depth="5" NCoef="0" IVar="-1" Cut="0.0000000000000000e+00" cType="1" res="1.5768052544444799e-03" rms="2.8542490676045418e-02" purity="1.0000000000000000e+00" nType="-99"/>
              </Node>
              <Node pos="r" depth="4" NCoef="0" IVar="1" Cut="2.1079387664794922e+00" cType="1" res="1.0131850838661194e-02" rms="3.0355844646692276e-02" purity="1.0000000000000000e+00" nType="0">
                <Node pos="l" depth="5" NCoef="0" IVar="-1" Cut="0.0000000000000000e+00" cType="1" res="1.3501984067261219e-03" rms="3.0647004023194313e-02" purity="1.0000000000000000e+00" nType="-99"/>
                <Node pos="r" depth="5" NCoef="0" IVar="-1" Cut="0.0000000000000000e+00" cType="1" res="1.8359950045123696e-03" rms="2.6951029896736145e-02" purity="1.0000000000000000e+00" nType="-99"/>
              </Node>
            </Node>
            <Node pos="r" depth="3" NCoef="0" IVar="5" Cut="4.7979276627302170e-02" cType="1" res="4.4501875527203083e-03" rms="2.4947375059127808e-02" purity="1.0000000000000000e+00" nType="0">
              <Node pos="l" depth="4" NCoef="0" IVar="5" Cut="2.6328248903155327e-02" cType="1" res="5.4037319496273994e-03" rms="2.3184085264801979e-02" purity="1.0000000000000000e+00" nType="0">
                <Node pos="l" depth="5" NCoef="0" IVar="-1" Cut="0.0000000000000000e+00" cType="1" res="7.0358964148908854e-04" rms="2.0420670509338379e-02" purity="1.0000000000000000e+00" nType="-99"/>
                <Node pos="r" depth="5" NCoef="0" IVar="-1" Cut="0.0000000000000000e+00" cType="1" res="5.1374424947425723e-04" rms="2.4749781936407089e-02" purity="1.0000000000000000e+00" nType="-99"/>
              </Node>
              <Node pos="r" depth="4" NCoef="0" IVar="-1" Cut="0.0000000000000000e+00" cType="1" res="-1.6077228065114468e-04" rms="3.2797027379274368e-02" purity="1.0000000000000000e+00" nType="-99"/>
            </Node>
          </Node>
          <Node pos="r" depth="2" NCoef="0" IVar="5" Cut="4.0574852377176285e-02" cType="1" res="-1.6163208056241274e-03" rms="3.0469210818409920e-02" purity="1.0000000000000000e+00" nType="0">
            <Node pos="l" depth="3" NCoef="0" IVar="4" Cut="1.5447428449988365e-02" cType="1" res="2.3473463952541351e-03" rms="2.7002897113561630e-02" purity="1.0000000000000000e+00" nType="0">
              <Node pos="l" depth="4" NCoef="0" IVar="6" Cut="1.8706675618886948e-02" cType="1" res="5.9405141510069370e-03" rms="2.8220992535352707e-02" purity="1.0000000000000000e+00" nType="0">
                <Node pos="l" depth="5" NCoef="0" IVar="-1" Cut="0.0000000000000000e+00" cType="1" res="8.2919944543391466e-04" rms="2.7301000431180000e-02" purity="1.0000000000000000e+00" nType="-99"/>
                <Node pos="r" depth="5" NCoef="0" IVar="-1" Cut="0.0000000000000000e+00" cType="1" res="5.2014761604368687e-04" rms="2.9435690492391586e-02" purity="1.0000000000000000e+00" nType="-99"/>
              </Node>
              <Node pos="r" depth="4" NCoef="0" IVar="2" Cut="2.4803083389997482e-02" cType="1" res="1.1023281840607524e-03" rms="2.6454199105501175e-02" purity="1.0000000000000000e+00" nType="0">
                <Node pos="l" depth="5" NCoef="0" IVar="-1" Cut="0.0000000000000000e+00" cType="1" res="3.1186471460387111e-04" rms="2.5130925700068474e-02" purity="1.0000000000000000e+00" nType="-99"/>
                <Node pos="r" depth="5" NCoef="0" IVar="-1" Cut="0.0000000000000000e+00" cType="1" res="-2.0894000772386789e-04" rms="2.8074685484170914e-02" purity="1.0000000000000000e+00" nType="-99"/>
              </Node>
            </Node>
            <Node pos="r" depth="3" NCoef="0" IVar="4" Cut="1.8375989049673080e-02" cType="1" res="-6.5966388210654259e-03" rms="3.3677037805318832e-02" purity="1.0000000000000000e+00" nType="0">
              <Node pos="l" depth="4" NCoef="0" IVar="4" Cut="1.5017633326351643e-02" cType="1" res="-1.3344910694286227e-03" rms="3.4207854419946671e-02" purity="1.0000000000000000e+00" nType="0">
                <Node pos="l" depth="5" NCoef="0" IVar="-1" Cut="0.0000000000000000e+00" cType="1" res="3.3978419378399849e-04" rms="3.4786619246006012e-02" purity="1.0000000000000000e+00" nType="-99"/>
                <Node pos="r" depth="5" NCoef="0" IVar="-1" Cut="0.0000000000000000e+00" cType="1" res="-7.5578963151201606e-04" rms="3.3292785286903381e-02" purity="1.0000000000000000e+00" nType="-99"/>
              </Node>
              <Node pos="r" depth="4" NCoef="0" IVar="5" Cut="6.9480024278163910e-02" cType="1" res="-1.0793508961796761e-02" rms="3.2645136117935181e-02" purity="1.0000000000000000e+00" nType="0">
                <Node pos="l" depth="5" NCoef="0" IVar="-1" Cut="0.0000000000000000e+00" cType="1" res="-1.2225745012983680e-03" rms="3.1636446714401245e-02" purity="1.0000000000000000e+00" nType="-99"/>
                <Node pos="r" depth="5" NCoef="0" IVar="-1" Cut="0.0000000000000000e+00" cType="1" res="-4.1839503683149815e-03" rms="3.4547109156847000e-02" purity="1.0000000000000000e+00" nType="-99"/>
              </Node>
            </Node>
          </Node>
        </Node>
        <Node pos="r" depth="1" NCoef="0" IVar="4" Cut="1.8952501937747002e-02" cType="1" res="-1.4899551868438721e-02" rms="3.3400561660528183e-02" purity="1.0000000000000000e+00" nType="0">
          <Node pos="l" depth="2" NCoef="0" IVar="4" Cut="1.3393764384090900e-02" cType="1" res="-5.1300595514476299e-03" rms="3.5185694694519043e-02" purity="1.0000000000000000e+00" nType="0">
            <Node pos="l" depth="3" NCoef="0" IVar="6" Cut="6.7179098725318909e-02" cType="1" res="4.2234798893332481e-03" rms="3.7100579589605331e-02" purity="1.0000000000000000e+00" nType="0">
              <Node pos="l" depth="4" NCoef="0" IVar="-1" Cut="0.0000000000000000e+00" cType="1" res="-1.9657794837257825e-05" rms="3.5487882792949677e-02" purity="1.0000000000000000e+00" nType="-99"/>
              <Node pos="r" depth="4" NCoef="0" IVar="-1" Cut="0.0000000000000000e+00" cType="1" res="2.9209135100245476e-03" rms="3.8604881614446640e-02" purity="1.0000000000000000e+00" nType="-99"/>
            </Node>
            <Node pos="r" depth="3" NCoef="0" IVar="5" Cut="3.4603465348482132e-02" cType="1" res="-8.2298340275883675e-03" rms="3.3964071422815323e-02" purity="1.0000000000000000e+00" nType="0">
              <Node pos="l" depth="4" NCoef="0" IVar="4" Cut="1.6699675470590591e-02" cType="1" res="1.0753243695944548e-03" rms="3.0745198950171471e-02" purity="1.0000000000000000e+00" nType="0">
                <Node pos="l" depth="5" NCoef="0" IVar="-1" Cut="0.0000000000000000e+00" cType="1" res="2.9209311469458044e-04" rms="3.0627334490418434e-02" purity="1.0000000000000000e+00" nType="-99"/>
                <Node pos="r" depth="5" NCoef="0" IVar="-1" Cut="0.0000000000000000e+00" cType="1" res="-1.2147804227424785e-04" rms="3.0782606452703476e-02" purity="1.0000000000000000e+00" nType="-99"/>
              </Node>
              <Node pos="r" depth="4" NCoef="0" IVar="3" Cut="4.3373573571443558e-02" cType="1" res="-1.1610574088990688e-02" rms="3.4443378448486328e-02" purity="1.0000000000000000e+00" nType="0">
                <Node pos="l" depth="5" NCoef="0" IVar="-1" Cut="0.0000000000000000e+00" cType="1" res="-2.3233473766595125e-03" rms="3.3746082335710526e-02" purity="1.0000000000000000e+00" nType="-99"/>
                <Node pos="r" depth="5" NCoef="0" IVar="-1" Cut="0.0000000000000000e+00" cType="1" res="-9.3037827173247933e-04" rms="3.6521442234516144e-02" purity="1.0000000000000000e+00" nType="-99"/>
              </Node>
            </Node>
          </Node>
          <Node pos="r" depth="2" NCoef="0" IVar="5" Cut="5.6946750730276108e-02" cType="1" res="-1.8833957612514496e-02" rms="3.1817812472581863e-02" purity="1.0000000000000000e+00" nType="0">
            <Node pos="l" depth="3" NCoef="0" IVar="2" Cut="2.5974292308092117e-02" cType="1" res="-1.3731119222939014e-02" rms="3.1505513936281204e-02" purity="1.0000000000000000e+00" nType="0">
              <Node pos="l" depth="4" NCoef="0" IVar="5" Cut="3.4175775945186615e-02" cType="1" res="-9.3767205253243446e-03" rms="3.1049147248268127e-02" purity="1.0000000000000000e+00" nType="0">
                <Node pos="l" depth="5" NCoef="0" IVar="-1" Cut="0.0000000000000000e+00" cType="1" res="-4.9280503299087286e-04" rms="2.9619881883263588e-02" purity="1.0000000000000000e+00" nType="-99"/>
                <Node pos="r" depth="5" NCoef="0" IVar="-1" Cut="0.0000000000000000e+00" cType="1" res="-1.8742918036878109e-03" rms="3.1350679695606232e-02" purity="1.0000000000000000e+00" nType="-99"/>
              </Node>
              <Node pos="r" depth="4" NCoef="0" IVar="5" Cut="3.1828947365283966e-02" cType="1" res="-1.9286615774035454e-02" rms="3.1208414584398270e-02" purity="1.0000000000000000e+00" nType="0">
                <Node pos="l" depth="5" NCoef="0" IVar="-1" Cut="0.0000000000000000e+00" cType="1" res="-1.6013910062611103e-03" rms="3.0940985307097435e-02" purity="1.0000000000000000e+00" nType="-99"/>
                <Node pos="r" depth="5" NCoef="0" IVar="-1" Cut="0.0000000000000000e+00" cType="1" res="-3.9990507066249847e-03" rms="3.0821988359093666e-02" purity="1.0000000000000000e+00" nType="-99"/>
              </Node>
            </Node>
            <Node pos="r" depth="3" NCoef="0" IVar="6" Cut="8.3139106631278992e-02" cType="1" res="-2.6397449895739555e-02" rms="3.0755218118429184e-02" purity="1.0000000000000000e+00" nType="0">
              <Node pos="l" depth="4" NCoef="0" IVar="5" Cut="7.5779199600219727e-02" cType="1" res="-2.2761350497603416e-02" rms="3.1708326190710068e-02" purity="1.0000000000000000e+00" nType="0">
                <Node pos="l" depth="5" NCoef="0" IVar="-1" Cut="0.0000000000000000e+00" cType="1" res="-3.6607156507670879e-03" rms="3.1799100339412689e-02" purity="1.0000000000000000e+00" nType="-99"/>
                <Node pos="r" depth="5" NCoef="0" IVar="-1" Cut="0.0000000000000000e+00" cType="1" res="-6.7325709387660027e-03" rms="3.1207537278532982e-02" purity="1.0000000000000000e+00" nType="-99"/>
              </Node>
              <Node pos="r" depth="4" NCoef="0" IVar="4" Cut="2.5782238692045212e-02" cType="1" res="-2.9740752652287483e-02" rms="2.9458591714501381e-02" purity="1.0000000000000000e+00" nType="0">
                <Node pos="l" depth="5" NCoef="0" IVar="-1" Cut="0.0000000000000000e+00" cType="1" res="-6.2933228909969330e-03" rms="3.2057452946901321e-02" purity="1.0000000000000000e+00" nType="-99"/>
                <Node pos="r" depth="5" NCoef="0" IVar="-1" Cut="0.0000000000000000e+00" cType="1" res="-1.0754692368209362e-02" rms="2.6763021945953369e-02" purity="1.0000000000000000e+00" nType="-99"/>
              </Node>
            </Node>
          </Node>
        </Node>
      </Node>
    </BinaryTree>
    <BinaryTree type="DecisionTree" boostWeight="1.0000000000000000e+00" itree="7">
      <Node pos="s" depth="0" NCoef="0" IVar="6" Cut="3.4345295280218124e-02" cType="1" res="-1.7716054571792483e-03" rms="3.0444355681538582e-02" purity="1.0000000000000000e+00" nType="0">
        <Node pos="l" depth="1" NCoef="0" IVar="6" Cut="1.0899930261075497e-02" cType="1" res="4.1396324522793293e-03" rms="2.7191538363695145e-02" purity="1.0000000000000000e+00" nType="0">
          <Node pos="l" depth="2" NCoef="0" IVar="6" Cut="2.1755085981567390e-05" cType="1" res="6.6593773663043976e-03" rms="2.5356296449899673e-02" purity="1.0000000000000000e+00" nType="0">
            <Node pos="l" depth="3" NCoef="0" IVar="2" Cut="2.8164124116301537e-02" cType="1" res="7.7441022731363773e-03" rms="2.5400379672646523e-02" purity="1.0000000000000000e+00" nType="0">
              <Node pos="l" depth="4" NCoef="0" IVar="3" Cut="2.6645885780453682e-02" cType="1" res="7.5564263388514519e-03" rms="2.4997755885124207e-02" purity="1.0000000000000000e+00" nType="0">
                <Node pos="l" depth="5" NCoef="0" IVar="-1" Cut="0.0000000000000000e+00" cType="1" res="6.3240894814953208e-04" rms="2.1804571151733398e-02" purity="1.0000000000000000e+00" nType="-99"/>
                <Node pos="r" depth="5" NCoef="0" IVar="-1" Cut="0.0000000000000000e+00" cType="1" res="9.4854237977415323e-04" rms="2.5834770873188972e-02" purity="1.0000000000000000e+00" nType="-99"/>
              </Node>
              <Node pos="r" depth="4" NCoef="0" IVar="-1" Cut="0.0000000000000000e+00" cType="1" res="2.5635347701609135e-03" rms="3.4091774374246597e-02" purity="1.0000000000000000e+00" nType="-99"/>
            </Node>
            <Node pos="r" depth="3" NCoef="0" IVar="5" Cut="4.6905584633350372e-02" cType="1" res="3.8424839731305838e-03" rms="2.5022804737091064e-02" purity="1.0000000000000000e+00" nType="0">
              <Node pos="l" depth="4" NCoef="0" IVar="4" Cut="1.5674425289034843e-02" cType="1" res="4.8311324790120125e-03" rms="2.3135062307119370e-02" purity="1.0000000000000000e+00" nType="0">
                <Node pos="l" depth="5" NCoef="0" IVar="-1" Cut="0.0000000000000000e+00" cType="1" res="7.3578802403062582e-04" rms="2.4663809686899185e-02" purity="1.0000000000000000e+00" nType="-99"/>
                <Node pos="r" depth="5" NCoef="0" IVar="-1" Cut="0.0000000000000000e+00" cType="1" res="4.5246264198794961e-04" rms="2.2458938881754875e-02" purity="1.0000000000000000e+00" nType="-99"/>
              </Node>
              <Node pos="r" depth="4" NCoef="0" IVar="4" Cut="1.7492450773715973e-02" cType="1" res="-1.0376620339229703e-03" rms="3.2345734536647797e-02" purity="1.0000000000000000e+00" nType="0">
                <Node pos="l" depth="5" NCoef="0" IVar="-1" Cut="0.0000000000000000e+00" cType="1" res="2.1336003555916250e-04" rms="3.2119829207658768e-02" purity="1.0000000000000000e+00" nType="-99"/>
                <Node pos="r" depth="5" NCoef="0" IVar="-1" Cut="0.0000000000000000e+00" cType="1" res="-5.2729755407199264e-04" rms="3.2352972775697708e-02" purity="1.0000000000000000e+00" nType="-99"/>
              </Node>
            </Node>
          </Node>
          <Node pos="r" depth="2" NCoef="0" IVar="5" Cut="4.5079559087753296e-02" cType="1" res="-2.0434097386896610e-03" rms="3.0367961153388023e-02" purity="1.0000000000000000e+00" nType="0">
            <Node pos="l" depth="3" NCoef="0" IVar="5" Cut="2.7162328362464905e-02" cType="1" res="1.2041329173371196e-03" rms="2.7601465582847595e-02" purity="1.0000000000000000e+00" nType="0">
              <Node pos="l" depth="4" NCoef="0" IVar="4" Cut="2.1564655005931854e-02" cType="1" res="4.3538995087146759e-03" rms="2.5153608992695808e-02" purity="1.0000000000000000e+00" nType="0">
                <Node pos="l" depth="5" NCoef="0" IVar="-1" Cut="0.0000000000000000e+00" cType="1" res="5.8183312648907304e-04" rms="2.5501837953925133e-02" purity="1.0000000000000000e+00" nType="-99"/>
                <Node pos="r" depth="5" NCoef="0" IVar="-1" Cut="0.0000000000000000e+00" cType="1" res="1.6094122838694602e-04" rms="2.3811470717191696e-02" purity="1.0000000000000000e+00" nType="-99"/>
              </Node>
              <Node pos="r" depth="4" NCoef="0" IVar="3" Cut="3.4767262637615204e-02" cType="1" res="-4.4809290557168424e-04" rms="2.8664372861385345e-02" purity="1.0000000000000000e+00" nType="0">
                <Node pos="l" depth="5" NCoef="0" IVar="-1" Cut="0.0000000000000000e+00" cType="1" res="-2.8698070673272014e-04" rms="2.8126271441578865e-02" purity="1.0000000000000000e+00" nType="-99"/>
                <Node pos="r" depth="5" NCoef="0" IVar="-1" Cut="0.0000000000000000e+00" cType="1" res="4.4205272570252419e-04" rms="2.9547389596700668e-02" purity="1.0000000000000000e+00" nType="-99"/>
              </Node>
            </Node>
            <Node pos="r" depth="3" NCoef="0" IVar="4" Cut="1.8849095329642296e-02" cType="1" res="-7.4270768091082573e-03" rms="3.3787645399570465e-02" purity="1.0000000000000000e+00" nType="0">
              <Node pos="l" depth="4" NCoef="0" IVar="4" Cut="1.5013489872217178e-02" cType="1" res="-2.6061986573040485e-03" rms="3.4349802881479263e-02" purity="1.0000000000000000e+00" nType="0">
                <Node pos="l" depth="5" NCoef="0" IVar="-1" Cut="0.0000000000000000e+00" cType="1" res="1.1258925223955885e-04" rms="3.5185813903808594e-02" purity="1.0000000000000000e+00" nType="-99"/>
                <Node pos="r" depth="5" NCoef="0" IVar="-1" Cut="0.0000000000000000e+00" cType="1" res="-9.0106599964201450e-04" rms="3.3447753638029099e-02" purity="1.0000000000000000e+00" nType="-99"/>
              </Node>
              <Node pos="r" depth="4" NCoef="0" IVar="5" Cut="6.8329319357872009e-02" cType="1" res="-1.1618821881711483e-02" rms="3.2718822360038757e-02" purity="1.0000000000000000e+00" nType="0">
                <Node pos="l" depth="5" NCoef="0" IVar="-1" Cut="0.0000000000000000e+00" cType="1" res="-1.3988182181492448e-03" rms="3.1613759696483612e-02" purity="1.0000000000000000e+00" nType="-99"/>
                <Node pos="r" depth="5" NCoef="0" IVar="-1" Cut="0.0000000000000000e+00" cType="1" res="-3.8468961138278246e-03" rms="3.4300703555345535e-02" purity="1.0000000000000000e+00" nType="-99"/>
              </Node>
            </Node>
          </Node>
        </Node>
        <Node pos="r" depth="1" NCoef="0" IVar="4" Cut="1.6930058598518372e-02" cType="1" res="-1.4198240824043751e-02" rms="3.3062066882848740e-02" purity="1.0000000000000000e+00" nType="0">
          <Node pos="l" depth="2" NCoef="0" IVar="4" Cut="1.1277889832854271e-02" cType="1" res="-1.8616809975355864e-03" rms="3.5546876490116119e-02" purity="1.0000000000000000e+00" nType="0">
            <Node pos="l" depth="3" NCoef="0" IVar="-1" Cut="0.0000000000000000e+00" cType="1" res="1.9078534096479416e-03" rms="3.6921344697475433e-02" purity="1.0000000000000000e+00" nType="-99"/>
            <Node pos="r" depth="3" NCoef="0" IVar="5" Cut="5.0781548023223877e-02" cType="1" res="-4.2849783785641193e-03" rms="3.4775409847497940e-02" purity="1.0000000000000000e+00" nType="0">
              <Node pos="l" depth="4" NCoef="0" IVar="5" Cut="3.1350288540124893e-02" cType="1" res="4.9971540647675283e-06" rms="3.2640658318996429e-02" purity="1.0000000000000000e+00" nType="0">
                <Node pos="l" depth="5" NCoef="0" IVar="-1" Cut="0.0000000000000000e+00" cType="1" res="4.7487858682870865e-04" rms="3.1244859099388123e-02" purity="1.0000000000000000e+00" nType="-99"/>
                <Node pos="r" depth="5" NCoef="0" IVar="-1" Cut="0.0000000000000000e+00" cType="1" res="-5.2654754836112261e-04" rms="3.3286813646554947e-02" purity="1.0000000000000000e+00" nType="-99"/>
              </Node>
              <Node pos="r" depth="4" NCoef="0" IVar="3" Cut="3.4423179924488068e-02" cType="1" res="-9.2239351943135262e-03" rms="3.6461435258388519e-02" purity="1.0000000000000000e+00" nType="0">
                <Node pos="l" depth="5" NCoef="0" IVar="-1" Cut="0.0000000000000000e+00" cType="1" res="-2.7556379791349173e-03" rms="3.5295352339744568e-02" purity="1.0000000000000000e+00" nType="-99"/>
                <Node pos="r" depth="5" NCoef="0" IVar="-1" Cut="0.0000000000000000e+00" cType="1" res="-1.4359578490257263e-03" rms="3.7136148661375046e-02" purity="1.0000000000000000e+00" nType="-99"/>
              </Node>
            </Node>
          </Node>
          <Node pos="r" depth="2" NCoef="0" IVar="5" Cut="5.9725742787122726e-02" cType="1" res="-1.6849076375365257e-02" rms="3.1886346638202667e-02" purity="1.0000000000000000e+00" nType="0">
            <Node pos="l" depth="3" NCoef="0" IVar="2" Cut="2.7989970520138741e-02" cType="1" res="-1.2637475505471230e-02" rms="3.1437456607818604e-02" purity="1.0000000000000000e+00" nType="0">
              <Node pos="l" depth="4" NCoef="0" IVar="5" Cut="3.3746883273124695e-02" cType="1" res="-1.0333239100873470e-02" rms="3.1105222180485725e-02" purity="1.0000000000000000e+00" nType="0">
                <Node pos="l" depth="5" NCoef="0" IVar="-1" Cut="0.0000000000000000e+00" cType="1" res="-6.0141232097521424e-04" rms="2.9949508607387543e-02" purity="1.0000000000000000e+00" nType="-99"/>
