<?xml version="1.0"?>
<MethodSetup Method="BDT::BDTG">
  <GeneralInfo>
    <Info name="TMVA Release" value="4.2.0 [262656]"/>
    <Info name="ROOT Release" value="6.02/10 [393738]"/>
    <Info name="Creator" value="tdoan"/>
    <Info name="Date" value="Sun Mar 20 13:39:44 2016"/>
    <Info name="Host" value="Linux cmsbuild15.cern.ch 2.6.32-504.23.4.el6.x86_64 #1 SMP Wed Jun 10 07:47:59 CEST 2015 x86_64 x86_64 x86_64 GNU/Linux"/>
    <Info name="Dir" value="/data4/tdoan/analyzer/HIAnalysis/ZJet/EnergyRegression/TMVA"/>
    <Info name="Training events" value="236507"/>
    <Info name="TrainingTime" value="3.62924534e+02"/>
    <Info name="AnalysisType" value="Regression"/>
  </GeneralInfo>
  <Options>
    <Option name="V" modified="No">False</Option>
    <Option name="VerbosityLevel" modified="No">Default</Option>
    <Option name="VarTransform" modified="No">None</Option>
    <Option name="H" modified="No">False</Option>
    <Option name="CreateMVAPdfs" modified="No">False</Option>
    <Option name="IgnoreNegWeightsInTraining" modified="No">False</Option>
    <Option name="NTrees" modified="Yes">500</Option>
    <Option name="MaxDepth" modified="Yes">5</Option>
    <Option name="MinNodeSize" modified="Yes">1</Option>
    <Option name="nCuts" modified="Yes">500</Option>
    <Option name="BoostType" modified="Yes">Grad</Option>
    <Option name="AdaBoostR2Loss" modified="No">quadratic</Option>
    <Option name="UseBaggedBoost" modified="No">False</Option>
    <Option name="Shrinkage" modified="Yes">1.000000e-01</Option>
    <Option name="AdaBoostBeta" modified="No">5.000000e-01</Option>
    <Option name="UseRandomisedTrees" modified="No">False</Option>
    <Option name="UseNvars" modified="No">4</Option>
    <Option name="UsePoissonNvars" modified="No">True</Option>
    <Option name="BaggedSampleFraction" modified="No">6.000000e-01</Option>
    <Option name="UseYesNoLeaf" modified="No">False</Option>
    <Option name="NegWeightTreatment" modified="Yes">ignorenegweightsintraining</Option>
    <Option name="Css" modified="No">1.000000e+00</Option>
    <Option name="Cts_sb" modified="No">1.000000e+00</Option>
    <Option name="Ctb_ss" modified="No">1.000000e+00</Option>
    <Option name="Cbb" modified="No">1.000000e+00</Option>
    <Option name="NodePurityLimit" modified="No">5.000000e-01</Option>
    <Option name="SeparationType" modified="No">regressionvariance</Option>
    <Option name="DoBoostMonitor" modified="No">False</Option>
    <Option name="UseFisherCuts" modified="No">False</Option>
    <Option name="MinLinCorrForFisher" modified="No">8.000000e-01</Option>
    <Option name="UseExclusiveVars" modified="No">False</Option>
    <Option name="DoPreselection" modified="No">False</Option>
    <Option name="SigToBkgFraction" modified="No">1.000000e+00</Option>
    <Option name="PruneMethod" modified="Yes">costcomplexity</Option>
    <Option name="PruneStrength" modified="Yes">5.000000e+00</Option>
    <Option name="PruningValFraction" modified="No">5.000000e-01</Option>
    <Option name="nEventsMin" modified="No">0</Option>
    <Option name="UseBaggedGrad" modified="Yes">False</Option>
    <Option name="GradBaggingFraction" modified="No">6.000000e-01</Option>
    <Option name="UseNTrainEvents" modified="No">0</Option>
    <Option name="NNodesMax" modified="No">0</Option>
  </Options>
  <Variables NVar="16">
    <Variable VarIndex="0" Expression="eleSCPhi" Label="eleSCPhi" Title="eleSCPhi" Unit="" Internal="eleSCPhi" Type="F" Min="-3.14157033e+00" Max="3.14159226e+00"/>
    <Variable VarIndex="1" Expression="eleSCEta" Label="eleSCEta" Title="eleSCEta" Unit="" Internal="eleSCEta" Type="F" Min="-1.47653317e+00" Max="1.47826946e+00"/>
    <Variable VarIndex="2" Expression="eleSigmaIEtaIEta_2012" Label="eleSigmaIEtaIEta_2012" Title="eleSigmaIEtaIEta_2012" Unit="" Internal="eleSigmaIEtaIEta_2012" Type="F" Min="1.15611429e-05" Max="2.14111283e-02"/>
    <Variable VarIndex="3" Expression="eleSigmaIPhiIPhi" Label="eleSigmaIPhiIPhi" Title="eleSigmaIPhiIPhi" Unit="" Internal="eleSigmaIPhiIPhi" Type="F" Min="1.88061327e-03" Max="2.41646729e-02"/>
    <Variable VarIndex="4" Expression="eleSCEtaWidth" Label="eleSCEtaWidth" Title="eleSCEtaWidth" Unit="" Internal="eleSCEtaWidth" Type="F" Min="2.11917213e-03" Max="5.16791701e-01"/>
    <Variable VarIndex="5" Expression="eleSCPhiWidth" Label="eleSCPhiWidth" Title="eleSCPhiWidth" Unit="" Internal="eleSCPhiWidth" Type="F" Min="3.25785181e-03" Max="1.06153870e+00"/>
    <Variable VarIndex="6" Expression="eleHoverE" Label="eleHoverE" Title="eleHoverE" Unit="" Internal="eleHoverE" Type="F" Min="0.00000000e+00" Max="3.31580728e-01"/>
    <Variable VarIndex="7" Expression="eleR9" Label="eleR9" Title="eleR9" Unit="" Internal="eleR9" Type="F" Min="8.21335241e-02" Max="1.00000012e+00"/>
    <Variable VarIndex="8" Expression="eleE3x3" Label="eleE3x3" Title="eleE3x3" Unit="" Internal="eleE3x3" Type="F" Min="2.72186852e+00" Max="2.25445892e+02"/>
    <Variable VarIndex="9" Expression="eleE5x5" Label="eleE5x5" Title="eleE5x5" Unit="" Internal="eleE5x5" Type="F" Min="3.53123236e+00" Max="2.34589493e+02"/>
    <Variable VarIndex="10" Expression="eleR9Full5x5" Label="eleR9Full5x5" Title="eleR9Full5x5" Unit="" Internal="eleR9Full5x5" Type="F" Min="8.22141021e-02" Max="1.00488734e+00"/>
    <Variable VarIndex="11" Expression="eleE3x3Full5x5" Label="eleE3x3Full5x5" Title="eleE3x3Full5x5" Unit="" Internal="eleE3x3Full5x5" Type="F" Min="2.87186623e+00" Max="2.25445892e+02"/>
    <Variable VarIndex="12" Expression="eleE5x5Full5x5" Label="eleE5x5Full5x5" Title="eleE5x5Full5x5" Unit="" Internal="eleE5x5Full5x5" Type="F" Min="3.80804110e+00" Max="2.34640533e+02"/>
    <Variable VarIndex="13" Expression="eleSeedEn/eleSCRawEn" Label="eleSeedEnToRawEn" Title="eleSeedEnToRawEn" Unit="" Internal="eleSeedEnToRawEn" Type="F" Min="1.10045791e-01" Max="1.00000000e+00"/>
    <Variable VarIndex="14" Expression="eleSeedEta" Label="eleSeedEta" Title="eleSeedEta" Unit="" Internal="eleSeedEta" Type="F" Min="-1.47388196e+00" Max="1.47401547e+00"/>
    <Variable VarIndex="15" Expression="eleSeedPhi" Label="eleSeedPhi" Title="eleSeedPhi" Unit="" Internal="eleSeedPhi" Type="F" Min="-3.14156079e+00" Max="3.14157033e+00"/>
  </Variables>
  <Spectators NSpec="0"/>
  <Classes NClass="1">
    <Class Name="Regression" Index="0"/>
  </Classes>
  <Targets NTrgt="1">
    <Target TargetIndex="0" Expression="eleTrueEn/eleEn" Label="eleTrueEn/eleEn" Title="eleTrueEn/eleEn" Unit="" Internal="eleTrueEn_D_eleEn" Type="F" Min="6.83084056e-02" Max="3.93986487e+00"/>
  </Targets>
  <Transformations NTransformations="0"/>
  <MVAPdfs/>
  <Weights NTrees="500" AnalysisType="1">
    <BinaryTree type="DecisionTree" boostWeight="9.9238836765289307e-01" itree="0">
      <Node pos="s" depth="0" NCoef="0" IVar="5" Cut="5.3953941911458969e-02" cType="1" res="-2.4651845451444387e-03" rms="2.2842122241854668e-02" purity="1.0000000000000000e+00" nType="0">
        <Node pos="l" depth="1" NCoef="0" IVar="5" Cut="3.1894471496343613e-02" cType="1" res="4.3491567485034466e-03" rms="1.8505118787288666e-02" purity="1.0000000000000000e+00" nType="0">
          <Node pos="l" depth="2" NCoef="0" IVar="4" Cut="1.1007945984601974e-02" cType="1" res="6.6549638286232948e-03" rms="1.5841415151953697e-02" purity="1.0000000000000000e+00" nType="0">
            <Node pos="l" depth="3" NCoef="0" IVar="5" Cut="2.0233593881130219e-02" cType="1" res="7.0831961929798126e-03" rms="1.5302422456443310e-02" purity="1.0000000000000000e+00" nType="0">
              <Node pos="l" depth="4" NCoef="0" IVar="1" Cut="-5.2645534276962280e-01" cType="1" res="7.7817919664084911e-03" rms="1.3660184107720852e-02" purity="1.0000000000000000e+00" nType="0">
                <Node pos="l" depth="5" NCoef="0" IVar="-1" Cut="0.0000000000000000e+00" cType="1" res="9.5608731498941779e-04" rms="1.4351069927215576e-02" purity="1.0000000000000000e+00" nType="-99"/>
                <Node pos="r" depth="5" NCoef="0" IVar="-1" Cut="0.0000000000000000e+00" cType="1" res="7.9212407581508160e-04" rms="1.3442258350551128e-02" purity="1.0000000000000000e+00" nType="-99"/>
              </Node>
              <Node pos="r" depth="4" NCoef="0" IVar="6" Cut="6.2918185722082853e-04" cType="1" res="5.3609753958880901e-03" rms="1.8634684383869171e-02" purity="1.0000000000000000e+00" nType="0">
                <Node pos="l" depth="5" NCoef="0" IVar="-1" Cut="0.0000000000000000e+00" cType="1" res="7.3865993181243539e-04" rms="1.7383627593517303e-02" purity="1.0000000000000000e+00" nType="-99"/>
                <Node pos="r" depth="5" NCoef="0" IVar="-1" Cut="0.0000000000000000e+00" cType="1" res="1.2808863539248705e-04" rms="2.1770736202597618e-02" purity="1.0000000000000000e+00" nType="-99"/>
              </Node>
            </Node>
            <Node pos="r" depth="3" NCoef="0" IVar="13" Cut="9.9505889415740967e-01" cType="1" res="1.4257212569646072e-05" rms="2.1548025310039520e-02" purity="1.0000000000000000e+00" nType="0">
              <Node pos="l" depth="4" NCoef="0" IVar="-1" Cut="0.0000000000000000e+00" cType="1" res="-6.3177471747621894e-04" rms="2.2921232506632805e-02" purity="1.0000000000000000e+00" nType="-99"/>
              <Node pos="r" depth="4" NCoef="0" IVar="-1" Cut="0.0000000000000000e+00" cType="1" res="5.6418165331706405e-04" rms="1.8703918904066086e-02" purity="1.0000000000000000e+00" nType="-99"/>
            </Node>
          </Node>
          <Node pos="r" depth="2" NCoef="0" IVar="6" Cut="6.8714208900928497e-03" cType="1" res="-4.0068820817396045e-04" rms="2.2302214056253433e-02" purity="1.0000000000000000e+00" nType="0">
            <Node pos="l" depth="3" NCoef="0" IVar="13" Cut="9.3946677446365356e-01" cType="1" res="3.0995397828519344e-03" rms="2.0986702293157578e-02" purity="1.0000000000000000e+00" nType="0">
              <Node pos="l" depth="4" NCoef="0" IVar="4" Cut="1.0716170072555542e-02" cType="1" res="5.6838938035070896e-03" rms="2.1738514304161072e-02" purity="1.0000000000000000e+00" nType="0">
                <Node pos="l" depth="5" NCoef="0" IVar="-1" Cut="0.0000000000000000e+00" cType="1" res="8.2093535456806421e-04" rms="2.1200167015194893e-02" purity="1.0000000000000000e+00" nType="-99"/>
                <Node pos="r" depth="5" NCoef="0" IVar="-1" Cut="0.0000000000000000e+00" cType="1" res="7.0341280661523342e-05" rms="2.4044232442975044e-02" purity="1.0000000000000000e+00" nType="-99"/>
              </Node>
              <Node pos="r" depth="4" NCoef="0" IVar="2" Cut="8.9875152334570885e-03" cType="1" res="-1.0256087989546359e-04" rms="1.9547721371054649e-02" purity="1.0000000000000000e+00" nType="0">
                <Node pos="l" depth="5" NCoef="0" IVar="-1" Cut="0.0000000000000000e+00" cType="1" res="3.0818954110145569e-04" rms="1.9524361938238144e-02" purity="1.0000000000000000e+00" nType="-99"/>
                <Node pos="r" depth="5" NCoef="0" IVar="-1" Cut="0.0000000000000000e+00" cType="1" res="-2.8954003937542439e-04" rms="1.9240027293562889e-02" purity="1.0000000000000000e+00" nType="-99"/>
              </Node>
            </Node>
            <Node pos="r" depth="3" NCoef="0" IVar="14" Cut="9.0892142057418823e-01" cType="1" res="-7.4604498222470284e-03" rms="2.3188291117548943e-02" purity="1.0000000000000000e+00" nType="0">
              <Node pos="l" depth="4" NCoef="0" IVar="1" Cut="-7.7969950437545776e-01" cType="1" res="-9.1584306210279465e-03" rms="2.2491918876767159e-02" purity="1.0000000000000000e+00" nType="0">
                <Node pos="l" depth="5" NCoef="0" IVar="-1" Cut="0.0000000000000000e+00" cType="1" res="-3.9544323226436973e-04" rms="2.4436097592115402e-02" purity="1.0000000000000000e+00" nType="-99"/>
                <Node pos="r" depth="5" NCoef="0" IVar="-1" Cut="0.0000000000000000e+00" cType="1" res="-1.5480673173442483e-03" rms="2.1260760724544525e-02" purity="1.0000000000000000e+00" nType="-99"/>
              </Node>
              <Node pos="r" depth="4" NCoef="0" IVar="-1" Cut="0.0000000000000000e+00" cType="1" res="-2.9592918508569710e-05" rms="2.4691415950655937e-02" purity="1.0000000000000000e+00" nType="-99"/>
            </Node>
          </Node>
        </Node>
        <Node pos="r" depth="1" NCoef="0" IVar="6" Cut="6.6183775197714567e-04" cType="1" res="-1.6919871792197227e-02" rms="2.4386646226048470e-02" purity="1.0000000000000000e+00" nType="0">
          <Node pos="l" depth="2" NCoef="0" IVar="10" Cut="6.8626755475997925e-01" cType="1" res="-7.0695951581001282e-03" rms="2.6318820193409920e-02" purity="1.0000000000000000e+00" nType="0">
            <Node pos="l" depth="3" NCoef="0" IVar="5" Cut="9.7031094133853912e-02" cType="1" res="-3.7935242289677262e-04" rms="2.8184076771140099e-02" purity="1.0000000000000000e+00" nType="0">
              <Node pos="l" depth="4" NCoef="0" IVar="1" Cut="1.0347363948822021e+00" cType="1" res="2.2549242712557316e-03" rms="2.7090428397059441e-02" purity="1.0000000000000000e+00" nType="0">
                <Node pos="l" depth="5" NCoef="0" IVar="-1" Cut="0.0000000000000000e+00" cType="1" res="-6.4945495978463441e-05" rms="2.7105728164315224e-02" purity="1.0000000000000000e+00" nType="-99"/>
                <Node pos="r" depth="5" NCoef="0" IVar="-1" Cut="0.0000000000000000e+00" cType="1" res="1.4343728544190526e-03" rms="2.6185367256402969e-02" purity="1.0000000000000000e+00" nType="-99"/>
              </Node>
              <Node pos="r" depth="4" NCoef="0" IVar="-1" Cut="0.0000000000000000e+00" cType="1" res="-3.2116002403199673e-03" rms="2.9915949329733849e-02" purity="1.0000000000000000e+00" nType="-99"/>
            </Node>
            <Node pos="r" depth="3" NCoef="0" IVar="5" Cut="7.6852113008499146e-02" cType="1" res="-1.0471321642398834e-02" rms="2.4630449712276459e-02" purity="1.0000000000000000e+00" nType="0">
              <Node pos="l" depth="4" NCoef="0" IVar="13" Cut="9.0879970788955688e-01" cType="1" res="-7.5572659261524677e-03" rms="2.4014681577682495e-02" purity="1.0000000000000000e+00" nType="0">
                <Node pos="l" depth="5" NCoef="0" IVar="-1" Cut="0.0000000000000000e+00" cType="1" res="-3.4795133979059756e-04" rms="2.5397380813956261e-02" purity="1.0000000000000000e+00" nType="-99"/>
                <Node pos="r" depth="5" NCoef="0" IVar="-1" Cut="0.0000000000000000e+00" cType="1" res="-1.5745683340355754e-03" rms="2.2252947092056274e-02" purity="1.0000000000000000e+00" nType="-99"/>
              </Node>
              <Node pos="r" depth="4" NCoef="0" IVar="9" Cut="3.7597892761230469e+01" cType="1" res="-1.6715792939066887e-02" rms="2.4772100150585175e-02" purity="1.0000000000000000e+00" nType="0">
                <Node pos="l" depth="5" NCoef="0" IVar="-1" Cut="0.0000000000000000e+00" cType="1" res="-2.2711034398525953e-03" rms="2.7022905647754669e-02" purity="1.0000000000000000e+00" nType="-99"/>
                <Node pos="r" depth="5" NCoef="0" IVar="-1" Cut="0.0000000000000000e+00" cType="1" res="-4.3237828649580479e-03" rms="2.2028151899576187e-02" purity="1.0000000000000000e+00" nType="-99"/>
              </Node>
            </Node>
          </Node>
          <Node pos="r" depth="2" NCoef="0" IVar="5" Cut="7.8088112175464630e-02" cType="1" res="-2.3327026516199112e-02" rms="2.0659586414694786e-02" purity="1.0000000000000000e+00" nType="0">
            <Node pos="l" depth="3" NCoef="0" IVar="10" Cut="6.9077253341674805e-01" cType="1" res="-1.8541235476732254e-02" rms="2.2282846271991730e-02" purity="1.0000000000000000e+00" nType="0">
              <Node pos="l" depth="4" NCoef="0" IVar="-1" Cut="0.0000000000000000e+00" cType="1" res="-2.3587294854223728e-03" rms="2.7228908613324165e-02" purity="1.0000000000000000e+00" nType="-99"/>
              <Node pos="r" depth="4" NCoef="0" IVar="13" Cut="9.7143620252609253e-01" cType="1" res="-2.0056027919054031e-02" rms="2.0860480144619942e-02" purity="1.0000000000000000e+00" nType="0">
                <Node pos="l" depth="5" NCoef="0" IVar="-1" Cut="0.0000000000000000e+00" cType="1" res="-3.6678265314549208e-03" rms="2.0802974700927734e-02" purity="1.0000000000000000e+00" nType="-99"/>
                <Node pos="r" depth="5" NCoef="0" IVar="-1" Cut="0.0000000000000000e+00" cType="1" res="-1.6064859228208661e-03" rms="1.9822938367724419e-02" purity="1.0000000000000000e+00" nType="-99"/>
              </Node>
            </Node>
            <Node pos="r" depth="3" NCoef="0" IVar="8" Cut="5.4260498046875000e+01" cType="1" res="-2.6853589341044426e-02" rms="1.8604805693030357e-02" purity="1.0000000000000000e+00" nType="0">
              <Node pos="l" depth="4" NCoef="0" IVar="5" Cut="1.1735375970602036e-01" cType="1" res="-2.3830514401197433e-02" rms="2.1637678146362305e-02" purity="1.0000000000000000e+00" nType="0">
                <Node pos="l" depth="5" NCoef="0" IVar="-1" Cut="0.0000000000000000e+00" cType="1" res="-5.9670070186257362e-03" rms="2.3127712309360504e-02" purity="1.0000000000000000e+00" nType="-99"/>
                <Node pos="r" depth="5" NCoef="0" IVar="-1" Cut="0.0000000000000000e+00" cType="1" res="-1.3943620026111603e-02" rms="1.8071373924612999e-02" purity="1.0000000000000000e+00" nType="-99"/>
              </Node>
              <Node pos="r" depth="4" NCoef="0" IVar="5" Cut="9.4833999872207642e-02" cType="1" res="-2.9674373567104340e-02" rms="1.4689152128994465e-02" purity="1.0000000000000000e+00" nType="0">
                <Node pos="l" depth="5" NCoef="0" IVar="-1" Cut="0.0000000000000000e+00" cType="1" res="-5.7069645263254642e-03" rms="1.7341131344437599e-02" purity="1.0000000000000000e+00" nType="-99"/>
                <Node pos="r" depth="5" NCoef="0" IVar="-1" Cut="0.0000000000000000e+00" cType="1" res="-9.5144798979163170e-03" rms="1.1680893599987030e-02" purity="1.0000000000000000e+00" nType="-99"/>
              </Node>
            </Node>
          </Node>
        </Node>
      </Node>
    </BinaryTree>
    <BinaryTree type="DecisionTree" boostWeight="1.0000000000000000e+00" itree="1">
      <Node pos="s" depth="0" NCoef="0" IVar="5" Cut="5.3953941911458969e-02" cType="1" res="-2.3072918411344290e-03" rms="2.2105736657977104e-02" purity="1.0000000000000000e+00" nType="0">
        <Node pos="l" depth="1" NCoef="0" IVar="5" Cut="3.1894471496343613e-02" cType="1" res="3.8737498689442873e-03" rms="1.8112530931830406e-02" purity="1.0000000000000000e+00" nType="0">
          <Node pos="l" depth="2" NCoef="0" IVar="4" Cut="1.1007945984601974e-02" cType="1" res="5.9357997961342335e-03" rms="1.5630912035703659e-02" purity="1.0000000000000000e+00" nType="0">
            <Node pos="l" depth="3" NCoef="0" IVar="13" Cut="9.9738818407058716e-01" cType="1" res="6.3191070221364498e-03" rms="1.5136239118874073e-02" purity="1.0000000000000000e+00" nType="0">
              <Node pos="l" depth="4" NCoef="0" IVar="6" Cut="6.2918185722082853e-04" cType="1" res="5.2583180367946625e-03" rms="1.7406878992915154e-02" purity="1.0000000000000000e+00" nType="0">
                <Node pos="l" depth="5" NCoef="0" IVar="-1" Cut="0.0000000000000000e+00" cType="1" res="6.8219250533729792e-04" rms="1.6309041529893875e-02" purity="1.0000000000000000e+00" nType="-99"/>
                <Node pos="r" depth="5" NCoef="0" IVar="-1" Cut="0.0000000000000000e+00" cType="1" res="2.1234997257124633e-04" rms="2.0571745932102203e-02" purity="1.0000000000000000e+00" nType="-99"/>
              </Node>
              <Node pos="r" depth="4" NCoef="0" IVar="6" Cut="3.1824164092540741e-02" cType="1" res="7.2675826959311962e-03" rms="1.2693697586655617e-02" purity="1.0000000000000000e+00" nType="0">
                <Node pos="l" depth="5" NCoef="0" IVar="-1" Cut="0.0000000000000000e+00" cType="1" res="7.4475881410762668e-04" rms="1.2310420162975788e-02" purity="1.0000000000000000e+00" nType="-99"/>
                <Node pos="r" depth="5" NCoef="0" IVar="-1" Cut="0.0000000000000000e+00" cType="1" res="1.3189340243116021e-03" rms="1.8824895843863487e-02" purity="1.0000000000000000e+00" nType="-99"/>
              </Node>
            </Node>
            <Node pos="r" depth="3" NCoef="0" IVar="13" Cut="9.9505889415740967e-01" cType="1" res="-8.2366368587827310e-06" rms="2.1041167899966240e-02" purity="1.0000000000000000e+00" nType="0">
              <Node pos="l" depth="4" NCoef="0" IVar="-1" Cut="0.0000000000000000e+00" cType="1" res="-5.7347619440406561e-04" rms="2.2418146952986717e-02" purity="1.0000000000000000e+00" nType="-99"/>
              <Node pos="r" depth="4" NCoef="0" IVar="-1" Cut="0.0000000000000000e+00" cType="1" res="4.9819384003058076e-04" rms="1.8422739580273628e-02" purity="1.0000000000000000e+00" nType="-99"/>
            </Node>
          </Node>
          <Node pos="r" depth="2" NCoef="0" IVar="6" Cut="6.3428501598536968e-03" cType="1" res="-3.7396827246993780e-04" rms="2.1765990182757378e-02" purity="1.0000000000000000e+00" nType="0">
            <Node pos="l" depth="3" NCoef="0" IVar="2" Cut="9.1640632599592209e-03" cType="1" res="2.7832535561174154e-03" rms="2.0606204867362976e-02" purity="1.0000000000000000e+00" nType="0">
              <Node pos="l" depth="4" NCoef="0" IVar="13" Cut="9.4090801477432251e-01" cType="1" res="4.4304239563643932e-03" rms="2.0327096804976463e-02" purity="1.0000000000000000e+00" nType="0">
                <Node pos="l" depth="5" NCoef="0" IVar="-1" Cut="0.0000000000000000e+00" cType="1" res="7.5849401764571667e-04" rms="2.0867105573415756e-02" purity="1.0000000000000000e+00" nType="-99"/>
                <Node pos="r" depth="5" NCoef="0" IVar="-1" Cut="0.0000000000000000e+00" cType="1" res="1.9622345280367881e-04" rms="1.9083200022578239e-02" purity="1.0000000000000000e+00" nType="-99"/>
              </Node>
              <Node pos="r" depth="4" NCoef="0" IVar="4" Cut="8.8346106931567192e-03" cType="1" res="-1.4860610244795680e-03" rms="2.0711554214358330e-02" purity="1.0000000000000000e+00" nType="0">
                <Node pos="l" depth="5" NCoef="0" IVar="-1" Cut="0.0000000000000000e+00" cType="1" res="4.0682338294573128e-04" rms="1.8631519749760628e-02" purity="1.0000000000000000e+00" nType="-99"/>
                <Node pos="r" depth="5" NCoef="0" IVar="-1" Cut="0.0000000000000000e+00" cType="1" res="-6.1659078346565366e-04" rms="2.1329488605260849e-02" purity="1.0000000000000000e+00" nType="-99"/>
              </Node>
            </Node>
            <Node pos="r" depth="3" NCoef="0" IVar="14" Cut="9.0892142057418823e-01" cType="1" res="-6.5726386383175850e-03" rms="2.2632887586951256e-02" purity="1.0000000000000000e+00" nType="0">
              <Node pos="l" depth="4" NCoef="0" IVar="1" Cut="-7.6066094636917114e-01" cType="1" res="-8.1074750050902367e-03" rms="2.2019524127244949e-02" purity="1.0000000000000000e+00" nType="0">
                <Node pos="l" depth="5" NCoef="0" IVar="-1" Cut="0.0000000000000000e+00" cType="1" res="-3.7687897565774620e-04" rms="2.3738553747534752e-02" purity="1.0000000000000000e+00" nType="-99"/>
                <Node pos="r" depth="5" NCoef="0" IVar="-1" Cut="0.0000000000000000e+00" cType="1" res="-1.3927868567407131e-03" rms="2.0914005115628242e-02" purity="1.0000000000000000e+00" nType="-99"/>
              </Node>
              <Node pos="r" depth="4" NCoef="0" IVar="-1" Cut="0.0000000000000000e+00" cType="1" res="-3.9062044379534200e-05" rms="2.4021442979574203e-02" purity="1.0000000000000000e+00" nType="-99"/>
            </Node>
          </Node>
        </Node>
        <Node pos="r" depth="1" NCoef="0" IVar="6" Cut="6.6183775197714567e-04" cType="1" res="-1.5418614260852337e-02" rms="2.4007959291338921e-02" purity="1.0000000000000000e+00" nType="0">
          <Node pos="l" depth="2" NCoef="0" IVar="10" Cut="6.8015134334564209e-01" cType="1" res="-6.3071334734559059e-03" rms="2.5651294738054276e-02" purity="1.0000000000000000e+00" nType="0">
            <Node pos="l" depth="3" NCoef="0" IVar="5" Cut="7.9297065734863281e-02" cType="1" res="-2.0041159586980939e-04" rms="2.7426077052950859e-02" purity="1.0000000000000000e+00" nType="0">
              <Node pos="l" depth="4" NCoef="0" IVar="3" Cut="1.3336849398910999e-02" cType="1" res="3.6277838516980410e-03" rms="2.5412451475858688e-02" purity="1.0000000000000000e+00" nType="0">
                <Node pos="l" depth="5" NCoef="0" IVar="-1" Cut="0.0000000000000000e+00" cType="1" res="1.0052974539576098e-04" rms="2.5640740990638733e-02" purity="1.0000000000000000e+00" nType="-99"/>
                <Node pos="r" depth="5" NCoef="0" IVar="-1" Cut="0.0000000000000000e+00" cType="1" res="1.0072825243696570e-03" rms="2.4966070428490639e-02" purity="1.0000000000000000e+00" nType="-99"/>
              </Node>
              <Node pos="r" depth="4" NCoef="0" IVar="-1" Cut="0.0000000000000000e+00" cType="1" res="-1.3893145369365811e-03" rms="2.8984047472476959e-02" purity="1.0000000000000000e+00" nType="-99"/>
            </Node>
            <Node pos="r" depth="3" NCoef="0" IVar="5" Cut="7.2155334055423737e-02" cType="1" res="-9.2751048505306244e-03" rms="2.4192402139306068e-02" purity="1.0000000000000000e+00" nType="0">
              <Node pos="l" depth="4" NCoef="0" IVar="13" Cut="9.1246980428695679e-01" cType="1" res="-5.9610861353576183e-03" rms="2.3340091109275818e-02" purity="1.0000000000000000e+00" nType="0">
                <Node pos="l" depth="5" NCoef="0" IVar="-1" Cut="0.0000000000000000e+00" cType="1" res="-1.8894944514613599e-04" rms="2.4524282664060593e-02" purity="1.0000000000000000e+00" nType="-99"/>
                <Node pos="r" depth="5" NCoef="0" IVar="-1" Cut="0.0000000000000000e+00" cType="1" res="-1.3194590574130416e-03" rms="2.1757159382104874e-02" purity="1.0000000000000000e+00" nType="-99"/>
              </Node>
              <Node pos="r" depth="4" NCoef="0" IVar="9" Cut="3.8877609252929688e+01" cType="1" res="-1.3978243805468082e-02" rms="2.4597974494099617e-02" purity="1.0000000000000000e+00" nType="0">
                <Node pos="l" depth="5" NCoef="0" IVar="-1" Cut="0.0000000000000000e+00" cType="1" res="-1.8893840024247766e-03" rms="2.6414988562464714e-02" purity="1.0000000000000000e+00" nType="-99"/>
                <Node pos="r" depth="5" NCoef="0" IVar="-1" Cut="0.0000000000000000e+00" cType="1" res="-3.4230435267090797e-03" rms="2.2561887279152870e-02" purity="1.0000000000000000e+00" nType="-99"/>
              </Node>
            </Node>
          </Node>
          <Node pos="r" depth="2" NCoef="0" IVar="5" Cut="8.4121547639369965e-02" cType="1" res="-2.1345214918255806e-02" rms="2.0836887881159782e-02" purity="1.0000000000000000e+00" nType="0">
            <Node pos="l" depth="3" NCoef="0" IVar="10" Cut="6.9252699613571167e-01" cType="1" res="-1.7400955781340599e-02" rms="2.2046161815524101e-02" purity="1.0000000000000000e+00" nType="0">
              <Node pos="l" depth="4" NCoef="0" IVar="-1" Cut="0.0000000000000000e+00" cType="1" res="-2.4622937198728323e-03" rms="2.6579378172755241e-02" purity="1.0000000000000000e+00" nType="-99"/>
              <Node pos="r" depth="4" NCoef="0" IVar="13" Cut="9.7143620252609253e-01" cType="1" res="-1.8812775611877441e-02" rms="2.0710302516818047e-02" purity="1.0000000000000000e+00" nType="0">
                <Node pos="l" depth="5" NCoef="0" IVar="-1" Cut="0.0000000000000000e+00" cType="1" res="-3.5097158979624510e-03" rms="2.0687399432063103e-02" purity="1.0000000000000000e+00" nType="-99"/>
                <Node pos="r" depth="5" NCoef="0" IVar="-1" Cut="0.0000000000000000e+00" cType="1" res="-1.4471453614532948e-03" rms="1.9458178430795670e-02" purity="1.0000000000000000e+00" nType="-99"/>
              </Node>
            </Node>
            <Node pos="r" depth="3" NCoef="0" IVar="8" Cut="6.2324989318847656e+01" cType="1" res="-2.5462789461016655e-02" rms="1.8623767420649529e-02" purity="1.0000000000000000e+00" nType="0">
              <Node pos="l" depth="4" NCoef="0" IVar="5" Cut="1.2509119510650635e-01" cType="1" res="-2.2765254601836205e-02" rms="2.1238813176751137e-02" purity="1.0000000000000000e+00" nType="0">
                <Node pos="l" depth="5" NCoef="0" IVar="-1" Cut="0.0000000000000000e+00" cType="1" res="-6.1246738769114017e-03" rms="2.2362913936376572e-02" purity="1.0000000000000000e+00" nType="-99"/>
                <Node pos="r" depth="5" NCoef="0" IVar="-1" Cut="0.0000000000000000e+00" cType="1" res="-1.3758555985987186e-02" rms="1.7792029306292534e-02" purity="1.0000000000000000e+00" nType="-99"/>
              </Node>
              <Node pos="r" depth="4" NCoef="0" IVar="5" Cut="9.9340260028839111e-02" cType="1" res="-2.9013145714998245e-02" rms="1.3691745698451996e-02" purity="1.0000000000000000e+00" nType="0">
                <Node pos="l" depth="5" NCoef="0" IVar="-1" Cut="0.0000000000000000e+00" cType="1" res="-5.8065708726644516e-03" rms="1.6187800094485283e-02" purity="1.0000000000000000e+00" nType="-99"/>
                <Node pos="r" depth="5" NCoef="0" IVar="-1" Cut="0.0000000000000000e+00" cType="1" res="-9.1026853770017624e-03" rms="1.0931681841611862e-02" purity="1.0000000000000000e+00" nType="-99"/>
              </Node>
            </Node>
          </Node>
        </Node>
      </Node>
    </BinaryTree>
    <BinaryTree type="DecisionTree" boostWeight="1.0000000000000000e+00" itree="2">
      <Node pos="s" depth="0" NCoef="0" IVar="5" Cut="5.6066278368234634e-02" cType="1" res="-2.1470827050507069e-03" rms="2.1460767835378647e-02" purity="1.0000000000000000e+00" nType="0">
        <Node pos="l" depth="1" NCoef="0" IVar="5" Cut="3.2981161028146744e-02" cType="1" res="3.2346069347113371e-03" rms="1.7964176833629608e-02" purity="1.0000000000000000e+00" nType="0">
          <Node pos="l" depth="2" NCoef="0" IVar="4" Cut="1.1007945984601974e-02" cType="1" res="5.2231093868613243e-03" rms="1.5573373064398766e-02" purity="1.0000000000000000e+00" nType="0">
            <Node pos="l" depth="3" NCoef="0" IVar="5" Cut="2.0225234329700470e-02" cType="1" res="5.5801048874855042e-03" rms="1.5112450346350670e-02" purity="1.0000000000000000e+00" nType="0">
              <Node pos="l" depth="4" NCoef="0" IVar="14" Cut="5.9710323810577393e-01" cType="1" res="6.2262946739792824e-03" rms="1.3466409407556057e-02" purity="1.0000000000000000e+00" nType="0">
                <Node pos="l" depth="5" NCoef="0" IVar="-1" Cut="0.0000000000000000e+00" cType="1" res="6.3205970218405128e-04" rms="1.3216055929660797e-02" purity="1.0000000000000000e+00" nType="-99"/>
                <Node pos="r" depth="5" NCoef="0" IVar="-1" Cut="0.0000000000000000e+00" cType="1" res="8.0284307477995753e-04" rms="1.4405877329409122e-02" purity="1.0000000000000000e+00" nType="-99"/>
              </Node>
              <Node pos="r" depth="4" NCoef="0" IVar="6" Cut="6.2918185722082853e-04" cType="1" res="4.1196127422153950e-03" rms="1.8210759386420250e-02" purity="1.0000000000000000e+00" nType="0">
                <Node pos="l" depth="5" NCoef="0" IVar="-1" Cut="0.0000000000000000e+00" cType="1" res="5.8234110474586487e-04" rms="1.7126033082604408e-02" purity="1.0000000000000000e+00" nType="-99"/>
                <Node pos="r" depth="5" NCoef="0" IVar="-1" Cut="0.0000000000000000e+00" cType="1" res="6.9930880272295326e-05" rms="2.1018588915467262e-02" purity="1.0000000000000000e+00" nType="-99"/>
              </Node>
            </Node>
            <Node pos="r" depth="3" NCoef="0" IVar="13" Cut="9.9505889415740967e-01" cType="1" res="-2.3498148948419839e-04" rms="2.0664820447564125e-02" purity="1.0000000000000000e+00" nType="0">
              <Node pos="l" depth="4" NCoef="0" IVar="-1" Cut="0.0000000000000000e+00" cType="1" res="-5.4224830819293857e-04" rms="2.1993307396769524e-02" purity="1.0000000000000000e+00" nType="-99"/>
              <Node pos="r" depth="4" NCoef="0" IVar="-1" Cut="0.0000000000000000e+00" cType="1" res="4.3669444858096540e-04" rms="1.8138669431209564e-02" purity="1.0000000000000000e+00" nType="-99"/>
            </Node>
          </Node>
          <Node pos="r" depth="2" NCoef="0" IVar="6" Cut="6.8714208900928497e-03" cType="1" res="-8.6874072439968586e-04" rms="2.1521445363759995e-02" purity="1.0000000000000000e+00" nType="0">
            <Node pos="l" depth="3" NCoef="0" IVar="2" Cut="9.0599991381168365e-03" cType="1" res="2.1034160163253546e-03" rms="2.0513849332928658e-02" purity="1.0000000000000000e+00" nType="0">
              <Node pos="l" depth="4" NCoef="0" IVar="1" Cut="-1.0683838129043579e+00" cType="1" res="3.8844852242618799e-03" rms="2.0365269854664803e-02" purity="1.0000000000000000e+00" nType="0">
                <Node pos="l" depth="5" NCoef="0" IVar="-1" Cut="0.0000000000000000e+00" cType="1" res="9.8185043316334486e-04" rms="2.0999491214752197e-02" purity="1.0000000000000000e+00" nType="-99"/>
                <Node pos="r" depth="5" NCoef="0" IVar="-1" Cut="0.0000000000000000e+00" cType="1" res="3.4250697353854775e-04" rms="2.0058173686265945e-02" purity="1.0000000000000000e+00" nType="-99"/>
              </Node>
              <Node pos="r" depth="4" NCoef="0" IVar="4" Cut="1.0192084126174450e-02" cType="1" res="-1.3161312090232968e-03" rms="2.0364077761769295e-02" purity="1.0000000000000000e+00" nType="0">
                <Node pos="l" depth="5" NCoef="0" IVar="-1" Cut="0.0000000000000000e+00" cType="1" res="9.8489384981803596e-05" rms="1.9362794235348701e-02" purity="1.0000000000000000e+00" nType="-99"/>
                <Node pos="r" depth="5" NCoef="0" IVar="-1" Cut="0.0000000000000000e+00" cType="1" res="-9.4278308097273111e-04" rms="2.1722713485360146e-02" purity="1.0000000000000000e+00" nType="-99"/>
              </Node>
            </Node>
            <Node pos="r" depth="3" NCoef="0" IVar="2" Cut="8.9858798310160637e-03" cType="1" res="-6.5976409241557121e-03" rms="2.2247796878218651e-02" purity="1.0000000000000000e+00" nType="0">
              <Node pos="l" depth="4" NCoef="0" IVar="4" Cut="8.6889956146478653e-03" cType="1" res="-3.4074517898261547e-03" rms="2.2757068276405334e-02" purity="1.0000000000000000e+00" nType="0">
                <Node pos="l" depth="5" NCoef="0" IVar="-1" Cut="0.0000000000000000e+00" cType="1" res="-1.5703508324804716e-05" rms="2.3614689707756042e-02" purity="1.0000000000000000e+00" nType="-99"/>
                <Node pos="r" depth="5" NCoef="0" IVar="-1" Cut="0.0000000000000000e+00" cType="1" res="-7.2327069938182831e-04" rms="2.2217722609639168e-02" purity="1.0000000000000000e+00" nType="-99"/>
              </Node>
              <Node pos="r" depth="4" NCoef="0" IVar="10" Cut="9.2536461353302002e-01" cType="1" res="-9.6169933676719666e-03" rms="2.1319551393389702e-02" purity="1.0000000000000000e+00" nType="0">
                <Node pos="l" depth="5" NCoef="0" IVar="-1" Cut="0.0000000000000000e+00" cType="1" res="-2.0737093873322010e-03" rms="2.2344183176755905e-02" purity="1.0000000000000000e+00" nType="-99"/>
                <Node pos="r" depth="5" NCoef="0" IVar="-1" Cut="0.0000000000000000e+00" cType="1" res="-2.1094120165798813e-04" rms="1.6144778579473495e-02" purity="1.0000000000000000e+00" nType="-99"/>
              </Node>
            </Node>
          </Node>
        </Node>
        <Node pos="r" depth="1" NCoef="0" IVar="6" Cut="6.6183775197714567e-04" cType="1" res="-1.4552713371813297e-02" rms="2.3615121841430664e-02" purity="1.0000000000000000e+00" nType="0">
          <Node pos="l" depth="2" NCoef="0" IVar="10" Cut="6.8626755475997925e-01" cType="1" res="-6.0224644839763641e-03" rms="2.5228226557374001e-02" purity="1.0000000000000000e+00" nType="0">
            <Node pos="l" depth="3" NCoef="0" IVar="1" Cut="-1.1223287582397461e+00" cType="1" res="-5.3298217244446278e-04" rms="2.6864675804972649e-02" purity="1.0000000000000000e+00" nType="0">
              <Node pos="l" depth="4" NCoef="0" IVar="-1" Cut="0.0000000000000000e+00" cType="1" res="1.2259401846677065e-03" rms="2.5856437161564827e-02" purity="1.0000000000000000e+00" nType="-99"/>
              <Node pos="r" depth="4" NCoef="0" IVar="14" Cut="1.0339618921279907e+00" cType="1" res="-2.8035547584295273e-03" rms="2.6833932846784592e-02" purity="1.0000000000000000e+00" nType="0">
                <Node pos="l" depth="5" NCoef="0" IVar="-1" Cut="0.0000000000000000e+00" cType="1" res="-1.8290863372385502e-03" rms="2.5733029469847679e-02" purity="1.0000000000000000e+00" nType="-99"/>
                <Node pos="r" depth="5" NCoef="0" IVar="-1" Cut="0.0000000000000000e+00" cType="1" res="9.6405920339748263e-04" rms="2.6509361341595650e-02" purity="1.0000000000000000e+00" nType="-99"/>
              </Node>
            </Node>
            <Node pos="r" depth="3" NCoef="0" IVar="5" Cut="8.3462066948413849e-02" cType="1" res="-8.9320363476872444e-03" rms="2.3808453232049942e-02" purity="1.0000000000000000e+00" nType="0">
              <Node pos="l" depth="4" NCoef="0" IVar="13" Cut="9.1078019142150879e-01" cType="1" res="-6.8563339300453663e-03" rms="2.3419357836246490e-02" purity="1.0000000000000000e+00" nType="0">
                <Node pos="l" depth="5" NCoef="0" IVar="-1" Cut="0.0000000000000000e+00" cType="1" res="-5.2734604105353355e-04" rms="2.4917462840676308e-02" purity="1.0000000000000000e+00" nType="-99"/>
                <Node pos="r" depth="5" NCoef="0" IVar="-1" Cut="0.0000000000000000e+00" cType="1" res="-1.4438987709581852e-03" rms="2.1744895726442337e-02" purity="1.0000000000000000e+00" nType="-99"/>
              </Node>
              <Node pos="r" depth="4" NCoef="0" IVar="-1" Cut="0.0000000000000000e+00" cType="1" res="-3.4981099888682365e-03" rms="2.3879190906882286e-02" purity="1.0000000000000000e+00" nType="-99"/>
            </Node>
          </Node>
          <Node pos="r" depth="2" NCoef="0" IVar="5" Cut="8.4164313971996307e-02" cType="1" res="-1.9882254302501678e-02" rms="2.0846616476774216e-02" purity="1.0000000000000000e+00" nType="0">
            <Node pos="l" depth="3" NCoef="0" IVar="10" Cut="7.2926634550094604e-01" cType="1" res="-1.6139769926667213e-02" rms="2.1836413070559502e-02" purity="1.0000000000000000e+00" nType="0">
              <Node pos="l" depth="4" NCoef="0" IVar="5" Cut="7.1150735020637512e-02" cType="1" res="-1.0595153085887432e-02" rms="2.5600539520382881e-02" purity="1.0000000000000000e+00" nType="0">
                <Node pos="l" depth="5" NCoef="0" IVar="-1" Cut="0.0000000000000000e+00" cType="1" res="-1.6530740540474653e-03" rms="2.5865687057375908e-02" purity="1.0000000000000000e+00" nType="-99"/>
                <Node pos="r" depth="5" NCoef="0" IVar="-1" Cut="0.0000000000000000e+00" cType="1" res="-3.3889089245349169e-03" rms="2.4989621713757515e-02" purity="1.0000000000000000e+00" nType="-99"/>
              </Node>
              <Node pos="r" depth="4" NCoef="0" IVar="13" Cut="9.6757811307907104e-01" cType="1" res="-1.7746357247233391e-02" rms="2.0337192341685295e-02" purity="1.0000000000000000e+00" nType="0">
                <Node pos="l" depth="5" NCoef="0" IVar="-1" Cut="0.0000000000000000e+00" cType="1" res="-3.3606851939111948e-03" rms="2.0408187061548233e-02" purity="1.0000000000000000e+00" nType="-99"/>
                <Node pos="r" depth="5" NCoef="0" IVar="-1" Cut="0.0000000000000000e+00" cType="1" res="-1.5129778767004609e-03" rms="1.9005578011274338e-02" purity="1.0000000000000000e+00" nType="-99"/>
              </Node>
            </Node>
            <Node pos="r" depth="3" NCoef="0" IVar="11" Cut="6.2039009094238281e+01" cType="1" res="-2.3486450314521790e-02" rms="1.9168101251125336e-02" purity="1.0000000000000000e+00" nType="0">
              <Node pos="l" depth="4" NCoef="0" IVar="5" Cut="1.3098466396331787e-01" cType="1" res="-2.0588679239153862e-02" rms="2.1740093827247620e-02" purity="1.0000000000000000e+00" nType="0">
                <Node pos="l" depth="5" NCoef="0" IVar="-1" Cut="0.0000000000000000e+00" cType="1" res="-5.6694825179874897e-03" rms="2.2539490833878517e-02" purity="1.0000000000000000e+00" nType="-99"/>
                <Node pos="r" depth="5" NCoef="0" IVar="-1" Cut="0.0000000000000000e+00" cType="1" res="-1.3573279604315758e-02" rms="1.8271083012223244e-02" purity="1.0000000000000000e+00" nType="-99"/>
              </Node>
              <Node pos="r" depth="4" NCoef="0" IVar="5" Cut="9.9382825195789337e-02" cType="1" res="-2.7187488973140717e-02" rms="1.4443409629166126e-02" purity="1.0000000000000000e+00" nType="0">
                <Node pos="l" depth="5" NCoef="0" IVar="-1" Cut="0.0000000000000000e+00" cType="1" res="-5.2293431945145130e-03" rms="1.6804698854684830e-02" purity="1.0000000000000000e+00" nType="-99"/>
                <Node pos="r" depth="5" NCoef="0" IVar="-1" Cut="0.0000000000000000e+00" cType="1" res="-8.2019809633493423e-03" rms="1.1860392987728119e-02" purity="1.0000000000000000e+00" nType="-99"/>
              </Node>
            </Node>
          </Node>
        </Node>
      </Node>
    </BinaryTree>
    <BinaryTree type="DecisionTree" boostWeight="1.0000000000000000e+00" itree="3">
      <Node pos="s" depth="0" NCoef="0" IVar="5" Cut="5.8178614825010300e-02" cType="1" res="-1.9865522626787424e-03" rms="2.0864864811301231e-02" purity="1.0000000000000000e+00" nType="0">
        <Node pos="l" depth="1" NCoef="0" IVar="5" Cut="3.7350296974182129e-02" cType="1" res="2.6829880662262440e-03" rms="1.7810665071010590e-02" purity="1.0000000000000000e+00" nType="0">
          <Node pos="l" depth="2" NCoef="0" IVar="4" Cut="1.1191220022737980e-02" cType="1" res="4.3955608271062374e-03" rms="1.5824422240257263e-02" purity="1.0000000000000000e+00" nType="0">
            <Node pos="l" depth="3" NCoef="0" IVar="5" Cut="2.0201787352561951e-02" cType="1" res="4.7328751534223557e-03" rms="1.5411882661283016e-02" purity="1.0000000000000000e+00" nType="0">
              <Node pos="l" depth="4" NCoef="0" IVar="3" Cut="1.1580609716475010e-02" cType="1" res="5.5426224134862423e-03" rms="1.3400220312178135e-02" purity="1.0000000000000000e+00" nType="0">
                <Node pos="l" depth="5" NCoef="0" IVar="-1" Cut="0.0000000000000000e+00" cType="1" res="5.3786655189469457e-04" rms="1.2370352633297443e-02" purity="1.0000000000000000e+00" nType="-99"/>
                <Node pos="r" depth="5" NCoef="0" IVar="-1" Cut="0.0000000000000000e+00" cType="1" res="6.9174874806776643e-04" rms="1.4974679797887802e-02" purity="1.0000000000000000e+00" nType="-99"/>
              </Node>
              <Node pos="r" depth="4" NCoef="0" IVar="6" Cut="6.2918185722082853e-04" cType="1" res="3.3441171981394291e-03" rms="1.8272317945957184e-02" purity="1.0000000000000000e+00" nType="0">
                <Node pos="l" depth="5" NCoef="0" IVar="-1" Cut="0.0000000000000000e+00" cType="1" res="5.0575571367517114e-04" rms="1.7262844368815422e-02" purity="1.0000000000000000e+00" nType="-99"/>
                <Node pos="r" depth="5" NCoef="0" IVar="-1" Cut="0.0000000000000000e+00" cType="1" res="-1.1475558494566940e-05" rms="2.0679427310824394e-02" purity="1.0000000000000000e+00" nType="-99"/>
              </Node>
            </Node>
            <Node pos="r" depth="3" NCoef="0" IVar="13" Cut="9.9477398395538330e-01" cType="1" res="-1.6783993924036622e-03" rms="2.1059680730104446e-02" purity="1.0000000000000000e+00" nType="0">
              <Node pos="l" depth="4" NCoef="0" IVar="-1" Cut="0.0000000000000000e+00" cType="1" res="-6.8980391370132565e-04" rms="2.1919600665569305e-02" purity="1.0000000000000000e+00" nType="-99"/>
              <Node pos="r" depth="4" NCoef="0" IVar="-1" Cut="0.0000000000000000e+00" cType="1" res="3.2573912176303566e-04" rms="1.8748937174677849e-02" purity="1.0000000000000000e+00" nType="-99"/>
            </Node>
          </Node>
          <Node pos="r" depth="2" NCoef="0" IVar="6" Cut="4.2285667732357979e-03" cType="1" res="-1.7775578889995813e-03" rms="2.1533468738198280e-02" purity="1.0000000000000000e+00" nType="0">
            <Node pos="l" depth="3" NCoef="0" IVar="14" Cut="9.3828541040420532e-01" cType="1" res="1.3950411230325699e-03" rms="2.0774584263563156e-02" purity="1.0000000000000000e+00" nType="0">
              <Node pos="l" depth="4" NCoef="0" IVar="14" Cut="-8.3835840225219727e-01" cType="1" res="-1.9251013873144984e-04" rms="2.0526491105556488e-02" purity="1.0000000000000000e+00" nType="0">
                <Node pos="l" depth="5" NCoef="0" IVar="-1" Cut="0.0000000000000000e+00" cType="1" res="7.1824801852926612e-04" rms="2.0739926025271416e-02" purity="1.0000000000000000e+00" nType="-99"/>
                <Node pos="r" depth="5" NCoef="0" IVar="-1" Cut="0.0000000000000000e+00" cType="1" res="-3.8280177977867424e-04" rms="1.9820259883999825e-02" purity="1.0000000000000000e+00" nType="-99"/>
              </Node>
              <Node pos="r" depth="4" NCoef="0" IVar="11" Cut="6.9321556091308594e+01" cType="1" res="6.6257463768124580e-03" rms="2.0728712901473045e-02" purity="1.0000000000000000e+00" nType="0">
                <Node pos="l" depth="5" NCoef="0" IVar="-1" Cut="0.0000000000000000e+00" cType="1" res="1.5312491450458765e-03" rms="2.1943716332316399e-02" purity="1.0000000000000000e+00" nType="-99"/>
                <Node pos="r" depth="5" NCoef="0" IVar="-1" Cut="0.0000000000000000e+00" cType="1" res="5.7604035828262568e-04" rms="1.9656607881188393e-02" purity="1.0000000000000000e+00" nType="-99"/>
              </Node>
            </Node>
            <Node pos="r" depth="3" NCoef="0" IVar="1" Cut="9.8671674728393555e-01" cType="1" res="-6.8631176836788654e-03" rms="2.1752223372459412e-02" purity="1.0000000000000000e+00" nType="0">
              <Node pos="l" depth="4" NCoef="0" IVar="14" Cut="-7.7665811777114868e-01" cType="1" res="-8.2238996401429176e-03" rms="2.1201251074671745e-02" purity="1.0000000000000000e+00" nType="0">
                <Node pos="l" depth="5" NCoef="0" IVar="-1" Cut="0.0000000000000000e+00" cType="1" res="-4.2608546209521592e-04" rms="2.2659786045551300e-02" purity="1.0000000000000000e+00" nType="-99"/>
                <Node pos="r" depth="5" NCoef="0" IVar="-1" Cut="0.0000000000000000e+00" cType="1" res="-1.4857697533443570e-03" rms="2.0132994279265404e-02" purity="1.0000000000000000e+00" nType="-99"/>
              </Node>
              <Node pos="r" depth="4" NCoef="0" IVar="-1" Cut="0.0000000000000000e+00" cType="1" res="-1.3994550681672990e-04" rms="2.3124603554606438e-02" purity="1.0000000000000000e+00" nType="-99"/>
            </Node>
          </Node>
        </Node>
        <Node pos="r" depth="1" NCoef="0" IVar="6" Cut="6.6183775197714567e-04" cType="1" res="-1.3696867041289806e-02" rms="2.3232709616422653e-02" purity="1.0000000000000000e+00" nType="0">
          <Node pos="l" depth="2" NCoef="0" IVar="2" Cut="9.0827364474534988e-03" cType="1" res="-5.7653086259961128e-03" rms="2.4780228734016418e-02" purity="1.0000000000000000e+00" nType="0">
            <Node pos="l" depth="3" NCoef="0" IVar="11" Cut="5.5577007293701172e+01" cType="1" res="-2.9450128786265850e-03" rms="2.4847242981195450e-02" purity="1.0000000000000000e+00" nType="0">
              <Node pos="l" depth="4" NCoef="0" IVar="1" Cut="-1.0221371650695801e+00" cType="1" res="2.9142227140255272e-04" rms="2.5606838986277580e-02" purity="1.0000000000000000e+00" nType="0">
                <Node pos="l" depth="5" NCoef="0" IVar="-1" Cut="0.0000000000000000e+00" cType="1" res="1.4569265767931938e-03" rms="2.5428319349884987e-02" purity="1.0000000000000000e+00" nType="-99"/>
                <Node pos="r" depth="5" NCoef="0" IVar="-1" Cut="0.0000000000000000e+00" cType="1" res="-3.6459436523728073e-04" rms="2.5336381047964096e-02" purity="1.0000000000000000e+00" nType="-99"/>
              </Node>
              <Node pos="r" depth="4" NCoef="0" IVar="5" Cut="6.9051325321197510e-02" cType="1" res="-7.9402131959795952e-03" rms="2.2740172222256660e-02" purity="1.0000000000000000e+00" nType="0">
                <Node pos="l" depth="5" NCoef="0" IVar="-1" Cut="0.0000000000000000e+00" cType="1" res="-5.1662232726812363e-04" rms="2.1976370364427567e-02" purity="1.0000000000000000e+00" nType="-99"/>
                <Node pos="r" depth="5" NCoef="0" IVar="-1" Cut="0.0000000000000000e+00" cType="1" res="-2.2978004999458790e-03" rms="2.2629685699939728e-02" purity="1.0000000000000000e+00" nType="-99"/>
              </Node>
            </Node>
            <Node pos="r" depth="3" NCoef="0" IVar="12" Cut="3.4967369079589844e+01" cType="1" res="-1.0682551190257072e-02" rms="2.3879153653979301e-02" purity="1.0000000000000000e+00" nType="0">
              <Node pos="l" depth="4" NCoef="0" IVar="-1" Cut="0.0000000000000000e+00" cType="1" res="-1.4803225640207529e-03" rms="2.5786779820919037e-02" purity="1.0000000000000000e+00" nType="-99"/>
              <Node pos="r" depth="4" NCoef="0" IVar="5" Cut="7.2067707777023315e-02" cType="1" res="-1.4392326585948467e-02" rms="2.1436458453536034e-02" purity="1.0000000000000000e+00" nType="0">
                <Node pos="l" depth="5" NCoef="0" IVar="-1" Cut="0.0000000000000000e+00" cType="1" res="-1.7799867782741785e-03" rms="2.1055892109870911e-02" purity="1.0000000000000000e+00" nType="-99"/>
                <Node pos="r" depth="5" NCoef="0" IVar="-1" Cut="0.0000000000000000e+00" cType="1" res="-3.7366300821304321e-03" rms="2.1447688341140747e-02" purity="1.0000000000000000e+00" nType="-99"/>
              </Node>
            </Node>
          </Node>
          <Node pos="r" depth="2" NCoef="0" IVar="5" Cut="9.2225998640060425e-02" cType="1" res="-1.8460132181644440e-02" rms="2.0848711952567101e-02" purity="1.0000000000000000e+00" nType="0">
            <Node pos="l" depth="3" NCoef="0" IVar="8" Cut="6.6285736083984375e+01" cType="1" res="-1.5531803481280804e-02" rms="2.1590659394860268e-02" purity="1.0000000000000000e+00" nType="0">
              <Node pos="l" depth="4" NCoef="0" IVar="2" Cut="8.9262044057250023e-03" cType="1" res="-1.2277523055672646e-02" rms="2.3773832246661186e-02" purity="1.0000000000000000e+00" nType="0">
                <Node pos="l" depth="5" NCoef="0" IVar="-1" Cut="0.0000000000000000e+00" cType="1" res="-1.6867055092006922e-03" rms="2.5171395391225815e-02" purity="1.0000000000000000e+00" nType="-99"/>
                <Node pos="r" depth="5" NCoef="0" IVar="-1" Cut="0.0000000000000000e+00" cType="1" res="-3.2936376519501209e-03" rms="2.2174181416630745e-02" purity="1.0000000000000000e+00" nType="-99"/>
              </Node>
              <Node pos="r" depth="4" NCoef="0" IVar="5" Cut="7.4285678565502167e-02" cType="1" res="-1.8273634836077690e-02" rms="1.9138265401124954e-02" purity="1.0000000000000000e+00" nType="0">
                <Node pos="l" depth="5" NCoef="0" IVar="-1" Cut="0.0000000000000000e+00" cType="1" res="-2.3451715242117643e-03" rms="1.9879424944519997e-02" purity="1.0000000000000000e+00" nType="-99"/>
                <Node pos="r" depth="5" NCoef="0" IVar="-1" Cut="0.0000000000000000e+00" cType="1" res="-4.0005301125347614e-03" rms="1.7575284466147423e-02" purity="1.0000000000000000e+00" nType="-99"/>
              </Node>
            </Node>
            <Node pos="r" depth="3" NCoef="0" IVar="12" Cut="4.0611488342285156e+01" cType="1" res="-2.2480648010969162e-02" rms="1.9065648317337036e-02" purity="1.0000000000000000e+00" nType="0">
              <Node pos="l" depth="4" NCoef="0" IVar="2" Cut="9.2804357409477234e-03" cType="1" res="-1.7229272052645683e-02" rms="2.3280778899788857e-02" purity="1.0000000000000000e+00" nType="0">
                <Node pos="l" depth="5" NCoef="0" IVar="-1" Cut="0.0000000000000000e+00" cType="1" res="-4.7537861391901970e-03" rms="2.4670744314789772e-02" purity="1.0000000000000000e+00" nType="-99"/>
                <Node pos="r" depth="5" NCoef="0" IVar="-1" Cut="0.0000000000000000e+00" cType="1" res="-1.0432614013552666e-02" rms="2.1719019860029221e-02" purity="1.0000000000000000e+00" nType="-99"/>
              </Node>
              <Node pos="r" depth="4" NCoef="0" IVar="11" Cut="6.9563591003417969e+01" cType="1" res="-2.4934876710176468e-02" rms="1.6160681843757629e-02" purity="1.0000000000000000e+00" nType="0">
                <Node pos="l" depth="5" NCoef="0" IVar="-1" Cut="0.0000000000000000e+00" cType="1" res="-7.1872100234031677e-03" rms="1.8647463992238045e-02" purity="1.0000000000000000e+00" nType="-99"/>
                <Node pos="r" depth="5" NCoef="0" IVar="-1" Cut="0.0000000000000000e+00" cType="1" res="-6.7599550820887089e-03" rms="1.3027613051235676e-02" purity="1.0000000000000000e+00" nType="-99"/>
              </Node>
            </Node>
          </Node>
        </Node>
      </Node>
    </BinaryTree>
    <BinaryTree type="DecisionTree" boostWeight="1.0000000000000000e+00" itree="4">
      <Node pos="s" depth="0" NCoef="0" IVar="5" Cut="5.3953941911458969e-02" cType="1" res="-1.8292813329026103e-03" rms="2.0351763814687729e-02" purity="1.0000000000000000e+00" nType="0">
        <Node pos="l" depth="1" NCoef="0" IVar="5" Cut="3.1894471496343613e-02" cType="1" res="2.7631279081106186e-03" rms="1.7151881009340286e-02" purity="1.0000000000000000e+00" nType="0">
          <Node pos="l" depth="2" NCoef="0" IVar="4" Cut="1.0595580562949181e-02" cType="1" res="4.2290012352168560e-03" rms="1.5093880705535412e-02" purity="1.0000000000000000e+00" nType="0">
            <Node pos="l" depth="3" NCoef="0" IVar="13" Cut="9.9738818407058716e-01" cType="1" res="4.6010892838239670e-03" rms="1.4626774005591869e-02" purity="1.0000000000000000e+00" nType="0">
              <Node pos="l" depth="4" NCoef="0" IVar="6" Cut="6.2918185722082853e-04" cType="1" res="3.8679086137562990e-03" rms="1.6707682982087135e-02" purity="1.0000000000000000e+00" nType="0">
                <Node pos="l" depth="5" NCoef="0" IVar="-1" Cut="0.0000000000000000e+00" cType="1" res="5.0375197315588593e-04" rms="1.5824804082512856e-02" purity="1.0000000000000000e+00" nType="-99"/>
                <Node pos="r" depth="5" NCoef="0" IVar="-1" Cut="0.0000000000000000e+00" cType="1" res="1.5630443522240967e-04" rms="1.9476905465126038e-02" purity="1.0000000000000000e+00" nType="-99"/>
              </Node>
              <Node pos="r" depth="4" NCoef="0" IVar="6" Cut="3.0332405120134354e-02" cType="1" res="5.2548493258655071e-03" rms="1.2445674277842045e-02" purity="1.0000000000000000e+00" nType="0">
                <Node pos="l" depth="5" NCoef="0" IVar="-1" Cut="0.0000000000000000e+00" cType="1" res="5.3785898489877582e-04" rms="1.2078747153282166e-02" purity="1.0000000000000000e+00" nType="-99"/>
                <Node pos="r" depth="5" NCoef="0" IVar="-1" Cut="0.0000000000000000e+00" cType="1" res="9.6347054932266474e-04" rms="1.8245598301291466e-02" purity="1.0000000000000000e+00" nType="-99"/>
              </Node>
            </Node>
            <Node pos="r" depth="3" NCoef="0" IVar="13" Cut="9.9752944707870483e-01" cType="1" res="1.0387260699644685e-03" rms="1.8316395580768585e-02" purity="1.0000000000000000e+00" nType="0">
              <Node pos="l" depth="4" NCoef="0" IVar="2" Cut="9.0980501845479012e-03" cType="1" res="-1.6431367257609963e-03" rms="1.9838238134980202e-02" purity="1.0000000000000000e+00" nType="0">
                <Node pos="l" depth="5" NCoef="0" IVar="-1" Cut="0.0000000000000000e+00" cType="1" res="1.1304204963380471e-04" rms="1.8486043438315392e-02" purity="1.0000000000000000e+00" nType="-99"/>
                <Node pos="r" depth="5" NCoef="0" IVar="-1" Cut="0.0000000000000000e+00" cType="1" res="-6.6861737286671996e-04" rms="2.0885609090328217e-02" purity="1.0000000000000000e+00" nType="-99"/>
              </Node>
              <Node pos="r" depth="4" NCoef="0" IVar="10" Cut="9.3967556953430176e-01" cType="1" res="4.1280770674347878e-03" rms="1.5835814177989960e-02" purity="1.0000000000000000e+00" nType="0">
                <Node pos="l" depth="5" NCoef="0" IVar="-1" Cut="0.0000000000000000e+00" cType="1" res="3.3474154770374298e-04" rms="1.8489990383386612e-02" purity="1.0000000000000000e+00" nType="-99"/>
                <Node pos="r" depth="5" NCoef="0" IVar="-1" Cut="0.0000000000000000e+00" cType="1" res="5.7541026035323739e-04" rms="1.1830310337245464e-02" purity="1.0000000000000000e+00" nType="-99"/>
              </Node>
            </Node>
          </Node>
          <Node pos="r" depth="2" NCoef="0" IVar="6" Cut="4.2285667732357979e-03" cType="1" res="-2.5649566669017076e-04" rms="2.0429011434316635e-02" purity="1.0000000000000000e+00" nType="0">
            <Node pos="l" depth="3" NCoef="0" IVar="1" Cut="9.6246111392974854e-01" cType="1" res="2.0518552046269178e-03" rms="1.9612494856119156e-02" purity="1.0000000000000000e+00" nType="0">
              <Node pos="l" depth="4" NCoef="0" IVar="14" Cut="-8.3698797225952148e-01" cType="1" res="8.8296306785196066e-04" rms="1.9395940005779266e-02" purity="1.0000000000000000e+00" nType="0">
                <Node pos="l" depth="5" NCoef="0" IVar="-1" Cut="0.0000000000000000e+00" cType="1" res="6.8938493495807052e-04" rms="1.9834853708744049e-02" purity="1.0000000000000000e+00" nType="-99"/>
                <Node pos="r" depth="5" NCoef="0" IVar="-1" Cut="0.0000000000000000e+00" cType="1" res="-1.4622561866417527e-04" rms="1.8824093043804169e-02" purity="1.0000000000000000e+00" nType="-99"/>
              </Node>
              <Node pos="r" depth="4" NCoef="0" IVar="11" Cut="6.8720695495605469e+01" cType="1" res="6.2266723252832890e-03" rms="1.9811909645795822e-02" purity="1.0000000000000000e+00" nType="0">
                <Node pos="l" depth="5" NCoef="0" IVar="-1" Cut="0.0000000000000000e+00" cType="1" res="1.3595833443105221e-03" rms="2.1605532616376877e-02" purity="1.0000000000000000e+00" nType="-99"/>
                <Node pos="r" depth="5" NCoef="0" IVar="-1" Cut="0.0000000000000000e+00" cType="1" res="5.9948320267722011e-04" rms="1.8642731010913849e-02" purity="1.0000000000000000e+00" nType="-99"/>
              </Node>
            </Node>
            <Node pos="r" depth="3" NCoef="0" IVar="13" Cut="9.8624426126480103e-01" cType="1" res="-4.5147873461246490e-03" rms="2.1206002682447433e-02" purity="1.0000000000000000e+00" nType="0">
              <Node pos="l" depth="4" NCoef="0" IVar="2" Cut="8.9858798310160637e-03" cType="1" res="-5.7325796224176884e-03" rms="2.1815946325659752e-02" purity="1.0000000000000000e+00" nType="0">
                <Node pos="l" depth="5" NCoef="0" IVar="-1" Cut="0.0000000000000000e+00" cType="1" res="-4.4083886314183474e-04" rms="2.2087214514613152e-02" purity="1.0000000000000000e+00" nType="-99"/>
                <Node pos="r" depth="5" NCoef="0" IVar="-1" Cut="0.0000000000000000e+00" cType="1" res="-1.3887519016861916e-03" rms="2.1002359688282013e-02" purity="1.0000000000000000e+00" nType="-99"/>
              </Node>
              <Node pos="r" depth="4" NCoef="0" IVar="-1" Cut="0.0000000000000000e+00" cType="1" res="1.8475513206794858e-04" rms="1.6391567885875702e-02" purity="1.0000000000000000e+00" nType="-99"/>
            </Node>
          </Node>
        </Node>
        <Node pos="r" depth="1" NCoef="0" IVar="6" Cut="6.6183775197714567e-04" cType="1" res="-1.1570772156119347e-02" rms="2.3002652451395988e-02" purity="1.0000000000000000e+00" nType="0">
          <Node pos="l" depth="2" NCoef="0" IVar="14" Cut="1.1325891017913818e+00" cType="1" res="-4.5235329307615757e-03" rms="2.3961577564477921e-02" purity="1.0000000000000000e+00" nType="0">
            <Node pos="l" depth="3" NCoef="0" IVar="14" Cut="-1.1044832468032837e+00" cType="1" res="-6.1356369405984879e-03" rms="2.3518655449151993e-02" purity="1.0000000000000000e+00" nType="0">
              <Node pos="l" depth="4" NCoef="0" IVar="12" Cut="5.7980754852294922e+01" cType="1" res="2.7919625863432884e-03" rms="2.4306213483214378e-02" purity="1.0000000000000000e+00" nType="0">
                <Node pos="l" depth="5" NCoef="0" IVar="-1" Cut="0.0000000000000000e+00" cType="1" res="1.8120071617886424e-03" rms="2.5062859058380127e-02" purity="1.0000000000000000e+00" nType="-99"/>
                <Node pos="r" depth="5" NCoef="0" IVar="-1" Cut="0.0000000000000000e+00" cType="1" res="-1.4702550834044814e-04" rms="2.3018922656774521e-02" purity="1.0000000000000000e+00" nType="-99"/>
              </Node>
              <Node pos="r" depth="4" NCoef="0" IVar="4" Cut="9.7089391201734543e-03" cType="1" res="-8.5737910121679306e-03" rms="2.2696459665894508e-02" purity="1.0000000000000000e+00" nType="0">
                <Node pos="l" depth="5" NCoef="0" IVar="-1" Cut="0.0000000000000000e+00" cType="1" res="-4.4127751607447863e-04" rms="2.2008087486028671e-02" purity="1.0000000000000000e+00" nType="-99"/>
                <Node pos="r" depth="5" NCoef="0" IVar="-1" Cut="0.0000000000000000e+00" cType="1" res="-2.2476429585367441e-03" rms="2.2461948916316032e-02" purity="1.0000000000000000e+00" nType="-99"/>
              </Node>
            </Node>
            <Node pos="r" depth="3" NCoef="0" IVar="12" Cut="5.8379528045654297e+01" cType="1" res="3.0923222657293081e-03" rms="2.4560704827308655e-02" purity="1.0000000000000000e+00" nType="0">
              <Node pos="l" depth="4" NCoef="0" IVar="-1" Cut="0.0000000000000000e+00" cType="1" res="1.9598836079239845e-03" rms="2.4879055097699165e-02" purity="1.0000000000000000e+00" nType="-99"/>
              <Node pos="r" depth="4" NCoef="0" IVar="-1" Cut="0.0000000000000000e+00" cType="1" res="-2.3919688828755170e-04" rms="2.3429203778505325e-02" purity="1.0000000000000000e+00" nType="-99"/>
            </Node>
          </Node>
          <Node pos="r" depth="2" NCoef="0" IVar="5" Cut="7.4065819382667542e-02" cType="1" res="-1.6154678538441658e-02" rms="2.1130843088030815e-02" purity="1.0000000000000000e+00" nType="0">
            <Node pos="l" depth="3" NCoef="0" IVar="14" Cut="-1.0678511857986450e+00" cType="1" res="-1.1442571878433228e-02" rms="2.1541399881243706e-02" purity="1.0000000000000000e+00" nType="0">
              <Node pos="l" depth="4" NCoef="0" IVar="-1" Cut="0.0000000000000000e+00" cType="1" res="-9.1339432401582599e-04" rms="2.3435551673173904e-02" purity="1.0000000000000000e+00" nType="-99"/>
              <Node pos="r" depth="4" NCoef="0" IVar="14" Cut="9.5152723789215088e-01" cType="1" res="-1.2732269242405891e-02" rms="2.0902492105960846e-02" purity="1.0000000000000000e+00" nType="0">
                <Node pos="l" depth="5" NCoef="0" IVar="-1" Cut="0.0000000000000000e+00" cType="1" res="-2.4044997990131378e-03" rms="1.9624570384621620e-02" purity="1.0000000000000000e+00" nType="-99"/>
                <Node pos="r" depth="5" NCoef="0" IVar="-1" Cut="0.0000000000000000e+00" cType="1" res="-1.1679353192448616e-03" rms="2.3104583844542503e-02" purity="1.0000000000000000e+00" nType="-99"/>
              </Node>
            </Node>
            <Node pos="r" depth="3" NCoef="0" IVar="11" Cut="5.8585384368896484e+01" cType="1" res="-1.8813526257872581e-02" rms="2.0421285182237625e-02" purity="1.0000000000000000e+00" nType="0">
              <Node pos="l" depth="4" NCoef="0" IVar="5" Cut="1.0560303181409836e-01" cType="1" res="-1.5524817630648613e-02" rms="2.2930052131414413e-02" purity="1.0000000000000000e+00" nType="0">
                <Node pos="l" depth="5" NCoef="0" IVar="-1" Cut="0.0000000000000000e+00" cType="1" res="-3.1691482290625572e-03" rms="2.3712318390607834e-02" purity="1.0000000000000000e+00" nType="-99"/>
                <Node pos="r" depth="5" NCoef="0" IVar="-1" Cut="0.0000000000000000e+00" cType="1" res="-8.1304693594574928e-03" rms="2.1559316664934158e-02" purity="1.0000000000000000e+00" nType="-99"/>
              </Node>
              <Node pos="r" depth="4" NCoef="0" IVar="5" Cut="1.0213609784841537e-01" cType="1" res="-2.2134210914373398e-02" rms="1.6889795660972595e-02" purity="1.0000000000000000e+00" nType="0">
                <Node pos="l" depth="5" NCoef="0" IVar="-1" Cut="0.0000000000000000e+00" cType="1" res="-3.8019814528524876e-03" rms="1.8140632659196854e-02" purity="1.0000000000000000e+00" nType="-99"/>
                <Node pos="r" depth="5" NCoef="0" IVar="-1" Cut="0.0000000000000000e+00" cType="1" res="-7.0638791657984257e-03" rms="1.3520089909434319e-02" purity="1.0000000000000000e+00" nType="-99"/>
              </Node>
            </Node>
          </Node>
        </Node>
      </Node>
    </BinaryTree>
    <BinaryTree type="DecisionTree" boostWeight="1.0000000000000000e+00" itree="5">
      <Node pos="s" depth="0" NCoef="0" IVar="5" Cut="6.2403287738561630e-02" cType="1" res="-1.6769263893365860e-03" rms="1.9894285127520561e-02" purity="1.0000000000000000e+00" nType="0">
        <Node pos="l" depth="1" NCoef="0" IVar="5" Cut="4.2333647608757019e-02" cType="1" res="1.8532845424488187e-03" rms="1.7494970932602882e-02" purity="1.0000000000000000e+00" nType="0">
          <Node pos="l" depth="2" NCoef="0" IVar="4" Cut="1.1099583469331264e-02" cType="1" res="3.2678006682544947e-03" rms="1.5911769121885300e-02" purity="1.0000000000000000e+00" nType="0">
            <Node pos="l" depth="3" NCoef="0" IVar="5" Cut="2.0260848104953766e-02" cType="1" res="3.6342900712043047e-03" rms="1.5495409257709980e-02" purity="1.0000000000000000e+00" nType="0">
              <Node pos="l" depth="4" NCoef="0" IVar="14" Cut="-5.0296318531036377e-01" cType="1" res="4.4501498341560364e-03" rms="1.3223072513937950e-02" purity="1.0000000000000000e+00" nType="0">
                <Node pos="l" depth="5" NCoef="0" IVar="-1" Cut="0.0000000000000000e+00" cType="1" res="5.8947544312104583e-04" rms="1.3818451203405857e-02" purity="1.0000000000000000e+00" nType="-99"/>
                <Node pos="r" depth="5" NCoef="0" IVar="-1" Cut="0.0000000000000000e+00" cType="1" res="4.4304842595010996e-04" rms="1.3024526648223400e-02" purity="1.0000000000000000e+00" nType="-99"/>
              </Node>
              <Node pos="r" depth="4" NCoef="0" IVar="6" Cut="6.2918185722082853e-04" cType="1" res="2.5091092102229595e-03" rms="1.8108654767274857e-02" purity="1.0000000000000000e+00" nType="0">
                <Node pos="l" depth="5" NCoef="0" IVar="-1" Cut="0.0000000000000000e+00" cType="1" res="4.0645597619004548e-04" rms="1.7293058335781097e-02" purity="1.0000000000000000e+00" nType="-99"/>
                <Node pos="r" depth="5" NCoef="0" IVar="-1" Cut="0.0000000000000000e+00" cType="1" res="-6.2637613154947758e-05" rms="1.9986156374216080e-02" purity="1.0000000000000000e+00" nType="-99"/>
              </Node>
            </Node>
            <Node pos="r" depth="3" NCoef="0" IVar="5" Cut="2.2873682901263237e-02" cType="1" res="-2.0283102057874203e-03" rms="2.0301839336752892e-02" purity="1.0000000000000000e+00" nType="0">
              <Node pos="l" depth="4" NCoef="0" IVar="-1" Cut="0.0000000000000000e+00" cType="1" res="1.3763961032964289e-04" rms="1.8802985548973083e-02" purity="1.0000000000000000e+00" nType="-99"/>
              <Node pos="r" depth="4" NCoef="0" IVar="-1" Cut="0.0000000000000000e+00" cType="1" res="-8.0045324284583330e-04" rms="2.1162882447242737e-02" purity="1.0000000000000000e+00" nType="-99"/>
            </Node>
          </Node>
          <Node pos="r" depth="2" NCoef="0" IVar="6" Cut="4.8315878957509995e-03" cType="1" res="-2.6459814980626106e-03" rms="2.1158838644623756e-02" purity="1.0000000000000000e+00" nType="0">
            <Node pos="l" depth="3" NCoef="0" IVar="13" Cut="9.3383246660232544e-01" cType="1" res="2.9687411733902991e-04" rms="2.0683236420154572e-02" purity="1.0000000000000000e+00" nType="0">
              <Node pos="l" depth="4" NCoef="0" IVar="1" Cut="8.7427026033401489e-01" cType="1" res="2.7981034945696592e-03" rms="2.1462228149175644e-02" purity="1.0000000000000000e+00" nType="0">
                <Node pos="l" depth="5" NCoef="0" IVar="-1" Cut="0.0000000000000000e+00" cType="1" res="1.8605422519613057e-04" rms="2.1547261625528336e-02" purity="1.0000000000000000e+00" nType="-99"/>
                <Node pos="r" depth="5" NCoef="0" IVar="-1" Cut="0.0000000000000000e+00" cType="1" res="8.8959216373041272e-04" rms="2.0917562767863274e-02" purity="1.0000000000000000e+00" nType="-99"/>
              </Node>
              <Node pos="r" depth="4" NCoef="0" IVar="10" Cut="9.3323427438735962e-01" cType="1" res="-3.1299055553972721e-03" rms="1.9039498642086983e-02" purity="1.0000000000000000e+00" nType="0">
                <Node pos="l" depth="5" NCoef="0" IVar="-1" Cut="0.0000000000000000e+00" cType="1" res="-6.3682871405035257e-04" rms="1.9995288923382759e-02" purity="1.0000000000000000e+00" nType="-99"/>
                <Node pos="r" depth="5" NCoef="0" IVar="-1" Cut="0.0000000000000000e+00" cType="1" res="1.4823352103121579e-04" rms="1.4715718105435371e-02" purity="1.0000000000000000e+00" nType="-99"/>
              </Node>
            </Node>
            <Node pos="r" depth="3" NCoef="0" IVar="10" Cut="9.2553615570068359e-01" cType="1" res="-6.8412777036428452e-03" rms="2.1121537312865257e-02" purity="1.0000000000000000e+00" nType="0">
              <Node pos="l" depth="4" NCoef="0" IVar="2" Cut="8.9861284941434860e-03" cType="1" res="-7.9568568617105484e-03" rms="2.1684408187866211e-02" purity="1.0000000000000000e+00" nType="0">
                <Node pos="l" depth="5" NCoef="0" IVar="-1" Cut="0.0000000000000000e+00" cType="1" res="-7.9708022531121969e-04" rms="2.1911984309554100e-02" purity="1.0000000000000000e+00" nType="-99"/>
                <Node pos="r" depth="5" NCoef="0" IVar="-1" Cut="0.0000000000000000e+00" cType="1" res="-1.9156296039000154e-03" rms="2.0817842334508896e-02" purity="1.0000000000000000e+00" nType="-99"/>
              </Node>
              <Node pos="r" depth="4" NCoef="0" IVar="-1" Cut="0.0000000000000000e+00" cType="1" res="-5.5164637160487473e-05" rms="1.5983050689101219e-02" purity="1.0000000000000000e+00" nType="-99"/>
            </Node>
          </Node>
        </Node>
        <Node pos="r" depth="1" NCoef="0" IVar="6" Cut="6.6183775197714567e-04" cType="1" res="-1.2103213928639889e-02" rms="2.2698404267430305e-02" purity="1.0000000000000000e+00" nType="0">
          <Node pos="l" depth="2" NCoef="0" IVar="14" Cut="1.1325894594192505e+00" cType="1" res="-5.3495606407523155e-03" rms="2.4103125557303429e-02" purity="1.0000000000000000e+00" nType="0">
            <Node pos="l" depth="3" NCoef="0" IVar="14" Cut="-1.1252895593643188e+00" cType="1" res="-6.9526894949376583e-03" rms="2.3646265268325806e-02" purity="1.0000000000000000e+00" nType="0">
              <Node pos="l" depth="4" NCoef="0" IVar="-1" Cut="0.0000000000000000e+00" cType="1" res="3.4576051984913647e-04" rms="2.4626430124044418e-02" purity="1.0000000000000000e+00" nType="-99"/>
              <Node pos="r" depth="4" NCoef="0" IVar="12" Cut="3.7687053680419922e+01" cType="1" res="-9.2643406242132187e-03" rms="2.2826747968792915e-02" purity="1.0000000000000000e+00" nType="0">
                <Node pos="l" depth="5" NCoef="0" IVar="-1" Cut="0.0000000000000000e+00" cType="1" res="-1.1157833505421877e-03" rms="2.4401582777500153e-02" purity="1.0000000000000000e+00" nType="-99"/>
                <Node pos="r" depth="5" NCoef="0" IVar="-1" Cut="0.0000000000000000e+00" cType="1" res="-2.3410827852785587e-03" rms="2.0540932193398476e-02" purity="1.0000000000000000e+00" nType="-99"/>
              </Node>
            </Node>
            <Node pos="r" depth="3" NCoef="0" IVar="-1" Cut="0.0000000000000000e+00" cType="1" res="3.6304161767475307e-04" rms="2.4805558845400810e-02" purity="1.0000000000000000e+00" nType="-99"/>
          </Node>
          <Node pos="r" depth="2" NCoef="0" IVar="5" Cut="9.8300635814666748e-02" cType="1" res="-1.5823282301425934e-02" rms="2.0977173000574112e-02" purity="1.0000000000000000e+00" nType="0">
            <Node pos="l" depth="3" NCoef="0" IVar="11" Cut="7.7260536193847656e+01" cType="1" res="-1.3642760924994946e-02" rms="2.1328633651137352e-02" purity="1.0000000000000000e+00" nType="0">
              <Node pos="l" depth="4" NCoef="0" IVar="1" Cut="-9.5191854238510132e-01" cType="1" res="-1.0857623070478439e-02" rms="2.3043798282742500e-02" purity="1.0000000000000000e+00" nType="0">
                <Node pos="l" depth="5" NCoef="0" IVar="-1" Cut="0.0000000000000000e+00" cType="1" res="-9.5822341972962022e-04" rms="2.5261912494897842e-02" purity="1.0000000000000000e+00" nType="-99"/>
                <Node pos="r" depth="5" NCoef="0" IVar="-1" Cut="0.0000000000000000e+00" cType="1" res="-2.6598053518682718e-03" rms="2.2245634347200394e-02" purity="1.0000000000000000e+00" nType="-99"/>
              </Node>
              <Node pos="r" depth="4" NCoef="0" IVar="5" Cut="7.4224732816219330e-02" cType="1" res="-1.7166936770081520e-02" rms="1.8340516835451126e-02" purity="1.0000000000000000e+00" nType="0">
                <Node pos="l" depth="5" NCoef="0" IVar="-1" Cut="0.0000000000000000e+00" cType="1" res="-2.1618325263261795e-03" rms="1.9220305606722832e-02" purity="1.0000000000000000e+00" nType="-99"/>
                <Node pos="r" depth="5" NCoef="0" IVar="-1" Cut="0.0000000000000000e+00" cType="1" res="-3.4834539983421564e-03" rms="1.7372338101267815e-02" purity="1.0000000000000000e+00" nType="-99"/>
              </Node>
            </Node>
            <Node pos="r" depth="3" NCoef="0" IVar="12" Cut="4.3995712280273438e+01" cType="1" res="-1.9362827762961388e-02" rms="1.9891191273927689e-02" purity="1.0000000000000000e+00" nType="0">
              <Node pos="l" depth="4" NCoef="0" IVar="5" Cut="1.2714755535125732e-01" cType="1" res="-1.4353533275425434e-02" rms="2.3508647456765175e-02" purity="1.0000000000000000e+00" nType="0">
                <Node pos="l" depth="5" NCoef="0" IVar="-1" Cut="0.0000000000000000e+00" cType="1" res="-4.1271140798926353e-03" rms="2.4273989722132683e-02" purity="1.0000000000000000e+00" nType="-99"/>
                <Node pos="r" depth="5" NCoef="0" IVar="-1" Cut="0.0000000000000000e+00" cType="1" res="-1.0628789663314819e-02" rms="2.2125482559204102e-02" purity="1.0000000000000000e+00" nType="-99"/>
              </Node>
              <Node pos="r" depth="4" NCoef="0" IVar="5" Cut="1.2405453622341156e-01" cType="1" res="-2.2378556430339813e-02" rms="1.6641570255160332e-02" purity="1.0000000000000000e+00" nType="0">
                <Node pos="l" depth="5" NCoef="0" IVar="-1" Cut="0.0000000000000000e+00" cType="1" res="-5.0856159068644047e-03" rms="1.7662627622485161e-02" purity="1.0000000000000000e+00" nType="-99"/>
                <Node pos="r" depth="5" NCoef="0" IVar="-1" Cut="0.0000000000000000e+00" cType="1" res="-9.2031331732869148e-03" rms="1.3520828448235989e-02" purity="1.0000000000000000e+00" nType="-99"/>
              </Node>
            </Node>
          </Node>
        </Node>
      </Node>
    </BinaryTree>
    <BinaryTree type="DecisionTree" boostWeight="1.0000000000000000e+00" itree="6">
      <Node pos="s" depth="0" NCoef="0" IVar="5" Cut="6.4515627920627594e-02" cType="1" res="-1.5375755028799176e-03" rms="1.9509619101881981e-02" purity="1.0000000000000000e+00" nType="0">
        <Node pos="l" depth="1" NCoef="0" IVar="5" Cut="4.3974094092845917e-02" cType="1" res="1.5254644677042961e-03" rms="1.7376102507114410e-02" purity="1.0000000000000000e+00" nType="0">
          <Node pos="l" depth="2" NCoef="0" IVar="4" Cut="1.1237038299441338e-02" cType="1" res="2.8470447286963463e-03" rms="1.5898996964097023e-02" purity="1.0000000000000000e+00" nType="0">
            <Node pos="l" depth="3" NCoef="0" IVar="4" Cut="8.5252765566110611e-03" cType="1" res="3.1711186747997999e-03" rms="1.5523852780461311e-02" purity="1.0000000000000000e+00" nType="0">
              <Node pos="l" depth="4" NCoef="0" IVar="11" Cut="1.4233769226074219e+02" cType="1" res="4.2048059403896332e-03" rms="1.5008873306214809e-02" purity="1.0000000000000000e+00" nType="0">
                <Node pos="l" depth="5" NCoef="0" IVar="-1" Cut="0.0000000000000000e+00" cType="1" res="4.9365259474143386e-04" rms="1.4829494990408421e-02" purity="1.0000000000000000e+00" nType="-99"/>
                <Node pos="r" depth="5" NCoef="0" IVar="-1" Cut="0.0000000000000000e+00" cType="1" res="-1.8269087013322860e-04" rms="1.7845125868916512e-02" purity="1.0000000000000000e+00" nType="-99"/>
              </Node>
              <Node pos="r" depth="4" NCoef="0" IVar="13" Cut="9.9596059322357178e-01" cType="1" res="2.3037535138428211e-03" rms="1.5891345217823982e-02" purity="1.0000000000000000e+00" nType="0">
                <Node pos="l" depth="5" NCoef="0" IVar="-1" Cut="0.0000000000000000e+00" cType="1" res="1.2712457100860775e-04" rms="1.7784483730792999e-02" purity="1.0000000000000000e+00" nType="-99"/>
                <Node pos="r" depth="5" NCoef="0" IVar="-1" Cut="0.0000000000000000e+00" cType="1" res="4.2203289922326803e-04" rms="1.2592501007020473e-02" purity="1.0000000000000000e+00" nType="-99"/>
              </Node>
            </Node>
            <Node pos="r" depth="3" NCoef="0" IVar="5" Cut="2.3626601323485374e-02" cType="1" res="-2.5143467355519533e-03" rms="2.0428294315934181e-02" purity="1.0000000000000000e+00" nType="0">
              <Node pos="l" depth="4" NCoef="0" IVar="-1" Cut="0.0000000000000000e+00" cType="1" res="7.3611299740150571e-05" rms="1.9239800050854683e-02" purity="1.0000000000000000e+00" nType="-99"/>
              <Node pos="r" depth="4" NCoef="0" IVar="-1" Cut="0.0000000000000000e+00" cType="1" res="-8.7046582484617829e-04" rms="2.1001292392611504e-02" purity="1.0000000000000000e+00" nType="-99"/>
            </Node>
          </Node>
          <Node pos="r" depth="2" NCoef="0" IVar="6" Cut="5.3684308659285307e-04" cType="1" res="-2.8362132143229246e-03" rms="2.0960805937647820e-02" purity="1.0000000000000000e+00" nType="0">
            <Node pos="l" depth="3" NCoef="0" IVar="13" Cut="9.2778074741363525e-01" cType="1" res="-5.4321048082783818e-05" rms="2.0608613267540932e-02" purity="1.0000000000000000e+00" nType="0">
              <Node pos="l" depth="4" NCoef="0" IVar="1" Cut="8.7436282634735107e-01" cType="1" res="2.4387580342590809e-03" rms="2.1392947062849998e-02" purity="1.0000000000000000e+00" nType="0">
                <Node pos="l" depth="5" NCoef="0" IVar="-1" Cut="0.0000000000000000e+00" cType="1" res="1.4272841508500278e-04" rms="2.1438254043459892e-02" purity="1.0000000000000000e+00" nType="-99"/>
                <Node pos="r" depth="5" NCoef="0" IVar="-1" Cut="0.0000000000000000e+00" cType="1" res="8.4292574319988489e-04" rms="2.0965758711099625e-02" purity="1.0000000000000000e+00" nType="-99"/>
              </Node>
              <Node pos="r" depth="4" NCoef="0" IVar="10" Cut="9.3215030431747437e-01" cType="1" res="-3.2788051757961512e-03" rms="1.9070152193307877e-02" purity="1.0000000000000000e+00" nType="0">
                <Node pos="l" depth="5" NCoef="0" IVar="-1" Cut="0.0000000000000000e+00" cType="1" res="-6.5618997905403376e-04" rms="1.9998269155621529e-02" purity="1.0000000000000000e+00" nType="-99"/>
                <Node pos="r" depth="5" NCoef="0" IVar="-1" Cut="0.0000000000000000e+00" cType="1" res="1.0392908734502271e-04" rms="1.4809114858508110e-02" purity="1.0000000000000000e+00" nType="-99"/>
              </Node>
            </Node>
            <Node pos="r" depth="3" NCoef="0" IVar="1" Cut="1.0101537704467773e+00" cType="1" res="-6.5402481704950333e-03" rms="2.0852454006671906e-02" purity="1.0000000000000000e+00" nType="0">
              <Node pos="l" depth="4" NCoef="0" IVar="14" Cut="-1.0177764892578125e+00" cType="1" res="-7.7054039575159550e-03" rms="2.0331848412752151e-02" purity="1.0000000000000000e+00" nType="0">
                <Node pos="l" depth="5" NCoef="0" IVar="-1" Cut="0.0000000000000000e+00" cType="1" res="-2.8914466383866966e-04" rms="2.2066170349717140e-02" purity="1.0000000000000000e+00" nType="-99"/>
                <Node pos="r" depth="5" NCoef="0" IVar="-1" Cut="0.0000000000000000e+00" cType="1" res="-1.3800873421132565e-03" rms="1.9540071487426758e-02" purity="1.0000000000000000e+00" nType="-99"/>
              </Node>
              <Node pos="r" depth="4" NCoef="0" IVar="-1" Cut="0.0000000000000000e+00" cType="1" res="-2.1253661543596536e-04" rms="2.2354602813720703e-02" purity="1.0000000000000000e+00" nType="-99"/>
            </Node>
          </Node>
        </Node>
        <Node pos="r" depth="1" NCoef="0" IVar="6" Cut="6.6183775197714567e-04" cType="1" res="-1.1377153918147087e-02" rms="2.2504879161715508e-02" purity="1.0000000000000000e+00" nType="0">
          <Node pos="l" depth="2" NCoef="0" IVar="9" Cut="4.6175148010253906e+01" cType="1" res="-5.1601440645754337e-03" rms="2.3845652118325233e-02" purity="1.0000000000000000e+00" nType="0">
            <Node pos="l" depth="3" NCoef="0" IVar="2" Cut="9.3594538047909737e-03" cType="1" res="-2.3608584888279438e-03" rms="2.4715382605791092e-02" purity="1.0000000000000000e+00" nType="0">
              <Node pos="l" depth="4" NCoef="0" IVar="12" Cut="2.5427122116088867e+01" cType="1" res="3.8666900945827365e-04" rms="2.4596216157078743e-02" purity="1.0000000000000000e+00" nType="0">
                <Node pos="l" depth="5" NCoef="0" IVar="-1" Cut="0.0000000000000000e+00" cType="1" res="1.0351486271247268e-03" rms="2.4619413539767265e-02" purity="1.0000000000000000e+00" nType="-99"/>
                <Node pos="r" depth="5" NCoef="0" IVar="-1" Cut="0.0000000000000000e+00" cType="1" res="-3.6626670043915510e-04" rms="2.4343511089682579e-02" purity="1.0000000000000000e+00" nType="-99"/>
              </Node>
              <Node pos="r" depth="4" NCoef="0" IVar="-1" Cut="0.0000000000000000e+00" cType="1" res="-2.1293642930686474e-03" rms="2.3903846740722656e-02" purity="1.0000000000000000e+00" nType="-99"/>
            </Node>
            <Node pos="r" depth="3" NCoef="0" IVar="5" Cut="8.4277674555778503e-02" cType="1" res="-9.0001234784722328e-03" rms="2.2026887163519859e-02" purity="1.0000000000000000e+00" nType="0">
              <Node pos="l" depth="4" NCoef="0" IVar="10" Cut="8.1624364852905273e-01" cType="1" res="-6.3271019607782364e-03" rms="2.1969338878989220e-02" purity="1.0000000000000000e+00" nType="0">
                <Node pos="l" depth="5" NCoef="0" IVar="-1" Cut="0.0000000000000000e+00" cType="1" res="-3.4194698673672974e-04" rms="2.3196417838335037e-02" purity="1.0000000000000000e+00" nType="-99"/>
                <Node pos="r" depth="5" NCoef="0" IVar="-1" Cut="0.0000000000000000e+00" cType="1" res="-1.5920002479106188e-03" rms="2.0042372867465019e-02" purity="1.0000000000000000e+00" nType="-99"/>
              </Node>
              <Node pos="r" depth="4" NCoef="0" IVar="-1" Cut="0.0000000000000000e+00" cType="1" res="-3.6210133694112301e-03" rms="2.0763397216796875e-02" purity="1.0000000000000000e+00" nType="-99"/>
            </Node>
          </Node>
          <Node pos="r" depth="2" NCoef="0" IVar="12" Cut="3.9155475616455078e+01" cType="1" res="-1.4652957208454609e-02" rms="2.1038724109530449e-02" purity="1.0000000000000000e+00" nType="0">
            <Node pos="l" depth="3" NCoef="0" IVar="2" Cut="9.3658631667494774e-03" cType="1" res="-9.5990896224975586e-03" rms="2.4384504184126854e-02" purity="1.0000000000000000e+00" nType="0">
              <Node pos="l" depth="4" NCoef="0" IVar="-1" Cut="0.0000000000000000e+00" cType="1" res="-1.6988656716421247e-03" rms="2.5052610784769058e-02" purity="1.0000000000000000e+00" nType="-99"/>
              <Node pos="r" depth="4" NCoef="0" IVar="-1" Cut="0.0000000000000000e+00" cType="1" res="-5.6258155964314938e-03" rms="2.3140473291277885e-02" purity="1.0000000000000000e+00" nType="-99"/>
            </Node>
            <Node pos="r" depth="3" NCoef="0" IVar="5" Cut="9.1541647911071777e-02" cType="1" res="-1.6224486753344536e-02" rms="1.9620349630713463e-02" purity="1.0000000000000000e+00" nType="0">
              <Node pos="l" depth="4" NCoef="0" IVar="11" Cut="9.9769805908203125e+01" cType="1" res="-1.3453736901283264e-02" rms="2.0297586917877197e-02" purity="1.0000000000000000e+00" nType="0">
                <Node pos="l" depth="5" NCoef="0" IVar="-1" Cut="0.0000000000000000e+00" cType="1" res="-2.2792101372033358e-03" rms="2.1435007452964783e-02" purity="1.0000000000000000e+00" nType="-99"/>
                <Node pos="r" depth="5" NCoef="0" IVar="-1" Cut="0.0000000000000000e+00" cType="1" res="-2.6976603548973799e-03" rms="1.7260979861021042e-02" purity="1.0000000000000000e+00" nType="-99"/>
              </Node>
              <Node pos="r" depth="4" NCoef="0" IVar="12" Cut="7.6519203186035156e+01" cType="1" res="-1.9584752619266510e-02" rms="1.8209073692560196e-02" purity="1.0000000000000000e+00" nType="0">
                <Node pos="l" depth="5" NCoef="0" IVar="-1" Cut="0.0000000000000000e+00" cType="1" res="-5.1612704992294312e-03" rms="2.0408388227224350e-02" purity="1.0000000000000000e+00" nType="-99"/>
                <Node pos="r" depth="5" NCoef="0" IVar="-1" Cut="0.0000000000000000e+00" cType="1" res="-4.9884859472513199e-03" rms="1.5550811775028706e-02" purity="1.0000000000000000e+00" nType="-99"/>
              </Node>
            </Node>
          </Node>
        </Node>
      </Node>
    </BinaryTree>
    <BinaryTree type="DecisionTree" boostWeight="1.0000000000000000e+00" itree="7">
      <Node pos="s" depth="0" NCoef="0" IVar="5" Cut="5.8178614825010300e-02" cType="1" res="-1.4016967033967376e-03" rms="1.9184619188308716e-02" purity="1.0000000000000000e+00" nType="0">
        <Node pos="l" depth="1" NCoef="0" IVar="5" Cut="3.8446515798568726e-02" cType="1" res="1.7355004092678428e-03" rms="1.6785962507128716e-02" purity="1.0000000000000000e+00" nType="0">
          <Node pos="l" depth="2" NCoef="0" IVar="4" Cut="1.0549762286245823e-02" cType="1" res="2.7874652296304703e-03" rms="1.5295442193746567e-02" purity="1.0000000000000000e+00" nType="0">
            <Node pos="l" depth="3" NCoef="0" IVar="14" Cut="8.3843231201171875e-01" cType="1" res="3.1711026094853878e-03" rms="1.4864251948893070e-02" purity="1.0000000000000000e+00" nType="0">
              <Node pos="l" depth="4" NCoef="0" IVar="14" Cut="-4.9074220657348633e-01" cType="1" res="2.8757129330188036e-03" rms="1.4465658925473690e-02" purity="1.0000000000000000e+00" nType="0">
                <Node pos="l" depth="5" NCoef="0" IVar="-1" Cut="0.0000000000000000e+00" cType="1" res="4.7648264444433153e-04" rms="1.5591758303344250e-02" purity="1.0000000000000000e+00" nType="-99"/>
                <Node pos="r" depth="5" NCoef="0" IVar="-1" Cut="0.0000000000000000e+00" cType="1" res="2.4129841767717153e-04" rms="1.3835332356393337e-02" purity="1.0000000000000000e+00" nType="-99"/>
              </Node>
              <Node pos="r" depth="4" NCoef="0" IVar="14" Cut="1.4040907621383667e+00" cType="1" res="4.8345415852963924e-03" rms="1.6838103532791138e-02" purity="1.0000000000000000e+00" nType="0">
                <Node pos="l" depth="5" NCoef="0" IVar="-1" Cut="0.0000000000000000e+00" cType="1" res="6.5142894163727760e-04" rms="1.5674356371164322e-02" purity="1.0000000000000000e+00" nType="-99"/>
                <Node pos="r" depth="5" NCoef="0" IVar="-1" Cut="0.0000000000000000e+00" cType="1" res="-8.2913385995198041e-05" rms="2.1887546405196190e-02" purity="1.0000000000000000e+00" nType="-99"/>
              </Node>
            </Node>
            <Node pos="r" depth="3" NCoef="0" IVar="13" Cut="9.9477398395538330e-01" cType="1" res="-3.0995444831205532e-05" rms="1.7901562154293060e-02" purity="1.0000000000000000e+00" nType="0">
              <Node pos="l" depth="4" NCoef="0" IVar="2" Cut="9.0089039877057076e-03" cType="1" res="-2.1970469970256090e-03" rms="1.9404090940952301e-02" purity="1.0000000000000000e+00" nType="0">
                <Node pos="l" depth="5" NCoef="0" IVar="-1" Cut="0.0000000000000000e+00" cType="1" res="6.6794738813769072e-05" rms="1.8282745033502579e-02" purity="1.0000000000000000e+00" nType="-99"/>
                <Node pos="r" depth="5" NCoef="0" IVar="-1" Cut="0.0000000000000000e+00" cType="1" res="-7.1125297108665109e-04" rms="2.0029138773679733e-02" purity="1.0000000000000000e+00" nType="-99"/>
              </Node>
              <Node pos="r" depth="4" NCoef="0" IVar="10" Cut="9.4053822755813599e-01" cType="1" res="2.8731131460517645e-03" rms="1.5185173600912094e-02" purity="1.0000000000000000e+00" nType="0">
                <Node pos="l" depth="5" NCoef="0" IVar="-1" Cut="0.0000000000000000e+00" cType="1" res="1.9559261272661388e-04" rms="1.7339626327157021e-02" purity="1.0000000000000000e+00" nType="-99"/>
                <Node pos="r" depth="5" NCoef="0" IVar="-1" Cut="0.0000000000000000e+00" cType="1" res="4.4372913544066250e-04" rms="1.1575281620025635e-02" purity="1.0000000000000000e+00" nType="-99"/>
              </Node>
            </Node>
          </Node>
          <Node pos="r" depth="2" NCoef="0" IVar="6" Cut="8.9857038110494614e-03" cType="1" res="-1.2366612209007144e-03" rms="2.0122388377785683e-02" purity="1.0000000000000000e+00" nType="0">
            <Node pos="l" depth="3" NCoef="0" IVar="2" Cut="9.1640632599592209e-03" cType="1" res="6.8578298669308424e-04" rms="1.9594036042690277e-02" purity="1.0000000000000000e+00" nType="0">
              <Node pos="l" depth="4" NCoef="0" IVar="1" Cut="1.0686028003692627e+00" cType="1" res="2.0086420699954033e-03" rms="1.9478928297758102e-02" purity="1.0000000000000000e+00" nType="0">
                <Node pos="l" depth="5" NCoef="0" IVar="-1" Cut="0.0000000000000000e+00" cType="1" res="1.2557546142488718e-04" rms="1.9234431907534599e-02" purity="1.0000000000000000e+00" nType="-99"/>
                <Node pos="r" depth="5" NCoef="0" IVar="-1" Cut="0.0000000000000000e+00" cType="1" res="7.1295432280749083e-04" rms="1.9943127408623695e-02" purity="1.0000000000000000e+00" nType="-99"/>
              </Node>
              <Node pos="r" depth="4" NCoef="0" IVar="4" Cut="9.1664502397179604e-03" cType="1" res="-2.7535534463822842e-03" rms="1.9474107772111893e-02" purity="1.0000000000000000e+00" nType="0">
                <Node pos="l" depth="5" NCoef="0" IVar="-1" Cut="0.0000000000000000e+00" cType="1" res="8.3061029727105051e-05" rms="1.8376430496573448e-02" purity="1.0000000000000000e+00" nType="-99"/>
                <Node pos="r" depth="5" NCoef="0" IVar="-1" Cut="0.0000000000000000e+00" cType="1" res="-7.8670977381989360e-04" rms="1.9861472770571709e-02" purity="1.0000000000000000e+00" nType="-99"/>
              </Node>
            </Node>
            <Node pos="r" depth="3" NCoef="0" IVar="7" Cut="9.2580127716064453e-01" cType="1" res="-5.0402251072227955e-03" rms="2.0607007667422295e-02" purity="1.0000000000000000e+00" nType="0">
              <Node pos="l" depth="4" NCoef="0" IVar="1" Cut="8.8661509752273560e-01" cType="1" res="-6.2833060510456562e-03" rms="2.1304257214069366e-02" purity="1.0000000000000000e+00" nType="0">
                <Node pos="l" depth="5" NCoef="0" IVar="-1" Cut="0.0000000000000000e+00" cType="1" res="-1.2799869291484356e-03" rms="2.0806420594453812e-02" purity="1.0000000000000000e+00" nType="-99"/>
                <Node pos="r" depth="5" NCoef="0" IVar="-1" Cut="0.0000000000000000e+00" cType="1" res="-1.0967924026772380e-04" rms="2.2217826917767525e-02" purity="1.0000000000000000e+00" nType="-99"/>
              </Node>
              <Node pos="r" depth="4" NCoef="0" IVar="-1" Cut="0.0000000000000000e+00" cType="1" res="9.1693029389716685e-05" rms="1.5506952069699764e-02" purity="1.0000000000000000e+00" nType="-99"/>
            </Node>
          </Node>
        </Node>
        <Node pos="r" depth="1" NCoef="0" IVar="6" Cut="6.6183775197714567e-04" cType="1" res="-9.2691881582140923e-03" rms="2.2312477231025696e-02" purity="1.0000000000000000e+00" nType="0">
          <Node pos="l" depth="2" NCoef="0" IVar="2" Cut="9.1215856373310089e-03" cType="1" res="-3.8089226000010967e-03" rms="2.3049246519804001e-02" purity="1.0000000000000000e+00" nType="0">
            <Node pos="l" depth="3" NCoef="0" IVar="12" Cut="4.8642677307128906e+01" cType="1" res="-1.7425406258553267e-03" rms="2.3034758865833282e-02" purity="1.0000000000000000e+00" nType="0">
              <Node pos="l" depth="4" NCoef="0" IVar="5" Cut="9.0019069612026215e-02" cType="1" res="1.6935742460191250e-03" rms="2.3780126124620438e-02" purity="1.0000000000000000e+00" nType="0">
                <Node pos="l" depth="5" NCoef="0" IVar="-1" Cut="0.0000000000000000e+00" cType="1" res="6.5064377849921584e-04" rms="2.2794641554355621e-02" purity="1.0000000000000000e+00" nType="-99"/>
                <Node pos="r" depth="5" NCoef="0" IVar="-1" Cut="0.0000000000000000e+00" cType="1" res="-7.5577432289719582e-04" rms="2.5357173755764961e-02" purity="1.0000000000000000e+00" nType="-99"/>
              </Node>
              <Node pos="r" depth="4" NCoef="0" IVar="5" Cut="7.9920038580894470e-02" cType="1" res="-4.6979989856481552e-03" rms="2.1947598084807396e-02" purity="1.0000000000000000e+00" nType="0">
                <Node pos="l" depth="5" NCoef="0" IVar="-1" Cut="0.0000000000000000e+00" cType="1" res="-4.0840500150807202e-04" rms="2.1389473229646683e-02" purity="1.0000000000000000e+00" nType="-99"/>
                <Node pos="r" depth="5" NCoef="0" IVar="-1" Cut="0.0000000000000000e+00" cType="1" res="-2.5835849810391665e-03" rms="2.2148866206407547e-02" purity="1.0000000000000000e+00" nType="-99"/>
              </Node>
            </Node>
            <Node pos="r" depth="3" NCoef="0" IVar="12" Cut="2.5334831237792969e+01" cType="1" res="-7.7678211964666843e-03" rms="2.2554231807589531e-02" purity="1.0000000000000000e+00" nType="0">
              <Node pos="l" depth="4" NCoef="0" IVar="-1" Cut="0.0000000000000000e+00" cType="1" res="-7.1115634636953473e-04" rms="2.4443570524454117e-02" purity="1.0000000000000000e+00" nType="-99"/>
              <Node pos="r" depth="4" NCoef="0" IVar="5" Cut="7.9011686146259308e-02" cType="1" res="-9.7987698391079903e-03" rms="2.1400153636932373e-02" purity="1.0000000000000000e+00" nType="0">
                <Node pos="l" depth="5" NCoef="0" IVar="-1" Cut="0.0000000000000000e+00" cType="1" res="-1.2638957705348730e-03" rms="2.0996969193220139e-02" purity="1.0000000000000000e+00" nType="-99"/>
                <Node pos="r" depth="5" NCoef="0" IVar="-1" Cut="0.0000000000000000e+00" cType="1" res="-3.4063037019222975e-03" rms="2.1535463631153107e-02" purity="1.0000000000000000e+00" nType="-99"/>
              </Node>
            </Node>
          </Node>
          <Node pos="r" depth="2" NCoef="0" IVar="5" Cut="9.2225998640060425e-02" cType="1" res="-1.2548328377306461e-02" rms="2.1192401647567749e-02" purity="1.0000000000000000e+00" nType="0">
            <Node pos="l" depth="3" NCoef="0" IVar="8" Cut="4.9823535919189453e+01" cType="1" res="-1.0192861780524254e-02" rms="2.1179310977458954e-02" purity="1.0000000000000000e+00" nType="0">
              <Node pos="l" depth="4" NCoef="0" IVar="2" Cut="9.0795923024415970e-03" cType="1" res="-6.5113804303109646e-03" rms="2.3573990911245346e-02" purity="1.0000000000000000e+00" nType="0">
                <Node pos="l" depth="5" NCoef="0" IVar="-1" Cut="0.0000000000000000e+00" cType="1" res="-7.2362151695415378e-04" rms="2.4042217060923576e-02" purity="1.0000000000000000e+00" nType="-99"/>
                <Node pos="r" depth="5" NCoef="0" IVar="-1" Cut="0.0000000000000000e+00" cType="1" res="-2.3826616816222668e-03" rms="2.2643087431788445e-02" purity="1.0000000000000000e+00" nType="-99"/>
              </Node>
              <Node pos="r" depth="4" NCoef="0" IVar="5" Cut="6.9528251886367798e-02" cType="1" res="-1.1839058250188828e-02" rms="1.9795736297965050e-02" purity="1.0000000000000000e+00" nType="0">
                <Node pos="l" depth="5" NCoef="0" IVar="-1" Cut="0.0000000000000000e+00" cType="1" res="-1.3936290051788092e-03" rms="1.9818188622593880e-02" purity="1.0000000000000000e+00" nType="-99"/>
                <Node pos="r" depth="5" NCoef="0" IVar="-1" Cut="0.0000000000000000e+00" cType="1" res="-2.4232640862464905e-03" rms="1.9567415118217468e-02" purity="1.0000000000000000e+00" nType="-99"/>
              </Node>
            </Node>
            <Node pos="r" depth="3" NCoef="0" IVar="12" Cut="5.8378669738769531e+01" cType="1" res="-1.5782317146658897e-02" rms="2.0779876038432121e-02" purity="1.0000000000000000e+00" nType="0">
              <Node pos="l" depth="4" NCoef="0" IVar="5" Cut="1.3479417562484741e-01" cType="1" res="-1.2285134755074978e-02" rms="2.3207226768136024e-02" purity="1.0000000000000000e+00" nType="0">
                <Node pos="l" depth="5" NCoef="0" IVar="-1" Cut="0.0000000000000000e+00" cType="1" res="-3.4680250100791454e-03" rms="2.3689739406108856e-02" purity="1.0000000000000000e+00" nType="-99"/>
                <Node pos="r" depth="5" NCoef="0" IVar="-1" Cut="0.0000000000000000e+00" cType="1" res="-1.0328434407711029e-02" rms="2.0827511325478554e-02" purity="1.0000000000000000e+00" nType="-99"/>
              </Node>
              <Node pos="r" depth="4" NCoef="0" IVar="5" Cut="1.1410309374332428e-01" cType="1" res="-1.9279498606920242e-02" rms="1.7336970195174217e-02" purity="1.0000000000000000e+00" nType="0">
                <Node pos="l" depth="5" NCoef="0" IVar="-1" Cut="0.0000000000000000e+00" cType="1" res="-3.4930186811834574e-03" rms="1.8365180119872093e-02" purity="1.0000000000000000e+00" nType="-99"/>
                <Node pos="r" depth="5" NCoef="0" IVar="-1" Cut="0.0000000000000000e+00" cType="1" res="-6.7456322722136974e-03" rms="1.4876185916364193e-02" purity="1.0000000000000000e+00" nType="-99"/>
              </Node>
            </Node>
          </Node>
        </Node>
      </Node>
    </BinaryTree>
    <BinaryTree type="DecisionTree" boostWeight="1.0000000000000000e+00" itree="8">
      <Node pos="s" depth="0" NCoef="0" IVar="5" Cut="6.6627964377403259e-02" cType="1" res="-1.2794287176802754e-03" rms="1.8904855474829674e-02" purity="1.0000000000000000e+00" nType="0">
        <Node pos="l" depth="1" NCoef="0" IVar="5" Cut="4.7906912863254547e-02" cType="1" res="1.1362865334376693e-03" rms="1.7079753801226616e-02" purity="1.0000000000000000e+00" nType="0">
          <Node pos="l" depth="2" NCoef="0" IVar="4" Cut="1.0641398839652538e-02" cType="1" res="2.1420053672045469e-03" rms="1.5912141650915146e-02" purity="1.0000000000000000e+00" nType="0">
            <Node pos="l" depth="3" NCoef="0" IVar="2" Cut="9.4178654253482819e-03" cType="1" res="2.5950327981263399e-03" rms="1.5428450889885426e-02" purity="1.0000000000000000e+00" nType="0">
              <Node pos="l" depth="4" NCoef="0" IVar="1" Cut="-1.4275138378143311e+00" cType="1" res="3.0148131772875786e-03" rms="1.5419260598719120e-02" purity="1.0000000000000000e+00" nType="0">
                <Node pos="l" depth="5" NCoef="0" IVar="-1" Cut="0.0000000000000000e+00" cType="1" res="-6.2060484196990728e-04" rms="2.2388650104403496e-02" purity="1.0000000000000000e+00" nType="-99"/>
                <Node pos="r" depth="5" NCoef="0" IVar="-1" Cut="0.0000000000000000e+00" cType="1" res="3.5374466096982360e-04" rms="1.5180734917521477e-02" purity="1.0000000000000000e+00" nType="-99"/>
              </Node>
              <Node pos="r" depth="4" NCoef="0" IVar="10" Cut="9.4276368618011475e-01" cType="1" res="1.0187810985371470e-03" rms="1.5360839664936066e-02" purity="1.0000000000000000e+00" nType="0">
                <Node pos="l" depth="5" NCoef="0" IVar="-1" Cut="0.0000000000000000e+00" cType="1" res="-2.1601405751425773e-04" rms="1.8501468002796173e-02" purity="1.0000000000000000e+00" nType="-99"/>
                <Node pos="r" depth="5" NCoef="0" IVar="-1" Cut="0.0000000000000000e+00" cType="1" res="3.1649132142774761e-04" rms="1.2042851187288761e-02" purity="1.0000000000000000e+00" nType="-99"/>
              </Node>
            </Node>
            <Node pos="r" depth="3" NCoef="0" IVar="10" Cut="9.2952513694763184e-01" cType="1" res="-1.0420529870316386e-03" rms="1.8659047782421112e-02" purity="1.0000000000000000e+00" nType="0">
              <Node pos="l" depth="4" NCoef="0" IVar="1" Cut="7.2704905271530151e-01" cType="1" res="-2.7013157960027456e-03" rms="2.0227581262588501e-02" purity="1.0000000000000000e+00" nType="0">
                <Node pos="l" depth="5" NCoef="0" IVar="-1" Cut="0.0000000000000000e+00" cType="1" res="-6.5360753796994686e-04" rms="2.0015187561511993e-02" purity="1.0000000000000000e+00" nType="-99"/>
