<?xml version="1.0"?>
<MethodSetup Method="BDT::BDTG">
  <GeneralInfo>
    <Info name="TMVA Release" value="4.2.0 [262656]"/>
    <Info name="ROOT Release" value="6.02/10 [393738]"/>
    <Info name="Creator" value="tdoan"/>
    <Info name="Date" value="Sun Mar 20 13:46:28 2016"/>
    <Info name="Host" value="Linux cmsbuild15.cern.ch 2.6.32-504.23.4.el6.x86_64 #1 SMP Wed Jun 10 07:47:59 CEST 2015 x86_64 x86_64 x86_64 GNU/Linux"/>
    <Info name="Dir" value="/data4/tdoan/analyzer/HIAnalysis/ZJet/EnergyRegression/TMVA"/>
    <Info name="Training events" value="197154"/>
    <Info name="TrainingTime" value="2.88183907e+02"/>
    <Info name="AnalysisType" value="Regression"/>
  </GeneralInfo>
  <Options>
    <Option name="V" modified="No">False</Option>
    <Option name="VerbosityLevel" modified="No">Default</Option>
    <Option name="VarTransform" modified="No">None</Option>
    <Option name="H" modified="No">False</Option>
    <Option name="CreateMVAPdfs" modified="No">False</Option>
    <Option name="IgnoreNegWeightsInTraining" modified="No">False</Option>
    <Option name="NTrees" modified="Yes">500</Option>
    <Option name="MaxDepth" modified="Yes">5</Option>
    <Option name="MinNodeSize" modified="Yes">1</Option>
    <Option name="nCuts" modified="Yes">500</Option>
    <Option name="BoostType" modified="Yes">Grad</Option>
    <Option name="AdaBoostR2Loss" modified="No">quadratic</Option>
    <Option name="UseBaggedBoost" modified="No">False</Option>
    <Option name="Shrinkage" modified="Yes">1.000000e-01</Option>
    <Option name="AdaBoostBeta" modified="No">5.000000e-01</Option>
    <Option name="UseRandomisedTrees" modified="No">False</Option>
    <Option name="UseNvars" modified="No">4</Option>
    <Option name="UsePoissonNvars" modified="No">True</Option>
    <Option name="BaggedSampleFraction" modified="No">6.000000e-01</Option>
    <Option name="UseYesNoLeaf" modified="No">False</Option>
    <Option name="NegWeightTreatment" modified="Yes">ignorenegweightsintraining</Option>
    <Option name="Css" modified="No">1.000000e+00</Option>
    <Option name="Cts_sb" modified="No">1.000000e+00</Option>
    <Option name="Ctb_ss" modified="No">1.000000e+00</Option>
    <Option name="Cbb" modified="No">1.000000e+00</Option>
    <Option name="NodePurityLimit" modified="No">5.000000e-01</Option>
    <Option name="SeparationType" modified="No">regressionvariance</Option>
    <Option name="DoBoostMonitor" modified="No">False</Option>
    <Option name="UseFisherCuts" modified="No">False</Option>
    <Option name="MinLinCorrForFisher" modified="No">8.000000e-01</Option>
    <Option name="UseExclusiveVars" modified="No">False</Option>
    <Option name="DoPreselection" modified="No">False</Option>
    <Option name="SigToBkgFraction" modified="No">1.000000e+00</Option>
    <Option name="PruneMethod" modified="Yes">costcomplexity</Option>
    <Option name="PruneStrength" modified="Yes">5.000000e+00</Option>
    <Option name="PruningValFraction" modified="No">5.000000e-01</Option>
    <Option name="nEventsMin" modified="No">0</Option>
    <Option name="UseBaggedGrad" modified="Yes">False</Option>
    <Option name="GradBaggingFraction" modified="No">6.000000e-01</Option>
    <Option name="UseNTrainEvents" modified="No">0</Option>
    <Option name="NNodesMax" modified="No">0</Option>
  </Options>
  <Variables NVar="16">
    <Variable VarIndex="0" Expression="eleSCPhi" Label="eleSCPhi" Title="eleSCPhi" Unit="" Internal="eleSCPhi" Type="F" Min="-3.14155436e+00" Max="3.14158058e+00"/>
    <Variable VarIndex="1" Expression="eleSCEta" Label="eleSCEta" Title="eleSCEta" Unit="" Internal="eleSCEta" Type="F" Min="-2.59570861e+00" Max="3.27171850e+00"/>
    <Variable VarIndex="2" Expression="eleSigmaIEtaIEta_2012" Label="eleSigmaIEtaIEta_2012" Title="eleSigmaIEtaIEta_2012" Unit="" Internal="eleSigmaIEtaIEta_2012" Type="F" Min="1.33087020e-03" Max="6.20376244e-02"/>
    <Variable VarIndex="3" Expression="eleSigmaIPhiIPhi" Label="eleSigmaIPhiIPhi" Title="eleSigmaIPhiIPhi" Unit="" Internal="eleSigmaIPhiIPhi" Type="F" Min="3.57622816e-03" Max="7.90534467e-02"/>
    <Variable VarIndex="4" Expression="eleSCEtaWidth" Label="eleSCEtaWidth" Title="eleSCEtaWidth" Unit="" Internal="eleSCEtaWidth" Type="F" Min="6.64175488e-04" Max="8.80765438e-01"/>
    <Variable VarIndex="5" Expression="eleSCPhiWidth" Label="eleSCPhiWidth" Title="eleSCPhiWidth" Unit="" Internal="eleSCPhiWidth" Type="F" Min="5.55631064e-04" Max="1.43806696e+00"/>
    <Variable VarIndex="6" Expression="eleHoverE" Label="eleHoverE" Title="eleHoverE" Unit="" Internal="eleHoverE" Type="F" Min="0.00000000e+00" Max="1.47880757e+00"/>
    <Variable VarIndex="7" Expression="eleR9" Label="eleR9" Title="eleR9" Unit="" Internal="eleR9" Type="F" Min="1.19666249e-01" Max="1.00000012e+00"/>
    <Variable VarIndex="8" Expression="eleE3x3" Label="eleE3x3" Title="eleE3x3" Unit="" Internal="eleE3x3" Type="F" Min="4.77167559e+00" Max="6.81176270e+02"/>
    <Variable VarIndex="9" Expression="eleE5x5" Label="eleE5x5" Title="eleE5x5" Unit="" Internal="eleE5x5" Type="F" Min="3.89700413e+00" Max="7.13753235e+02"/>
    <Variable VarIndex="10" Expression="eleR9Full5x5" Label="eleR9Full5x5" Title="eleR9Full5x5" Unit="" Internal="eleR9Full5x5" Type="F" Min="1.45430684e-01" Max="1.04083776e+00"/>
    <Variable VarIndex="11" Expression="eleE3x3Full5x5" Label="eleE3x3Full5x5" Title="eleE3x3Full5x5" Unit="" Internal="eleE3x3Full5x5" Type="F" Min="5.84222889e+00" Max="6.81177979e+02"/>
    <Variable VarIndex="12" Expression="eleE5x5Full5x5" Label="eleE5x5Full5x5" Title="eleE5x5Full5x5" Unit="" Internal="eleE5x5Full5x5" Type="F" Min="6.64447165e+00" Max="7.30335876e+02"/>
    <Variable VarIndex="13" Expression="eleSeedEn/eleSCRawEn" Label="eleSeedEnToRawEn" Title="eleSeedEnToRawEn" Unit="" Internal="eleSeedEnToRawEn" Type="F" Min="1.61353841e-01" Max="1.00000000e+00"/>
    <Variable VarIndex="14" Expression="eleSeedEta" Label="eleSeedEta" Title="eleSeedEta" Unit="" Internal="eleSeedEta" Type="F" Min="-2.59483123e+00" Max="2.59815240e+00"/>
    <Variable VarIndex="15" Expression="eleSeedPhi" Label="eleSeedPhi" Title="eleSeedPhi" Unit="" Internal="eleSeedPhi" Type="F" Min="-3.14158130e+00" Max="3.14153504e+00"/>
  </Variables>
  <Spectators NSpec="0"/>
  <Classes NClass="1">
    <Class Name="Regression" Index="0"/>
  </Classes>
  <Targets NTrgt="1">
    <Target TargetIndex="0" Expression="eleTrueEn/eleEn" Label="eleTrueEn/eleEn" Title="eleTrueEn/eleEn" Unit="" Internal="eleTrueEn_D_eleEn" Type="F" Min="3.71550322e-02" Max="3.78470159e+00"/>
  </Targets>
  <Transformations NTransformations="0"/>
  <MVAPdfs/>
  <Weights NTrees="500" AnalysisType="1">
    <BinaryTree type="DecisionTree" boostWeight="9.9096906185150146e-01" itree="0">
      <Node pos="s" depth="0" NCoef="0" IVar="6" Cut="2.0661981776356697e-02" cType="1" res="-3.0352852772921324e-03" rms="3.7409204989671707e-02" purity="1.0000000000000000e+00" nType="0">
        <Node pos="l" depth="1" NCoef="0" IVar="6" Cut="1.4434320619329810e-03" cType="1" res="1.2063160538673401e-02" rms="2.9253197833895683e-02" purity="1.0000000000000000e+00" nType="0">
          <Node pos="l" depth="2" NCoef="0" IVar="11" Cut="1.5914845275878906e+02" cType="1" res="1.7358945682644844e-02" rms="2.6815313845872879e-02" purity="1.0000000000000000e+00" nType="0">
            <Node pos="l" depth="3" NCoef="0" IVar="14" Cut="-1.6249310970306396e+00" cType="1" res="2.1109687164425850e-02" rms="3.1327340751886368e-02" purity="1.0000000000000000e+00" nType="0">
              <Node pos="l" depth="4" NCoef="0" IVar="12" Cut="1.0988449859619141e+02" cType="1" res="2.3258861154317856e-02" rms="2.9527675360441208e-02" purity="1.0000000000000000e+00" nType="0">
                <Node pos="l" depth="5" NCoef="0" IVar="-1" Cut="0.0000000000000000e+00" cType="1" res="3.4182625822722912e-03" rms="3.1386289745569229e-02" purity="1.0000000000000000e+00" nType="-99"/>
                <Node pos="r" depth="5" NCoef="0" IVar="-1" Cut="0.0000000000000000e+00" cType="1" res="2.3392073344439268e-03" rms="2.6235876604914665e-02" purity="1.0000000000000000e+00" nType="-99"/>
              </Node>
              <Node pos="r" depth="4" NCoef="0" IVar="1" Cut="1.6272988319396973e+00" cType="1" res="1.9659539684653282e-02" rms="3.2404936850070953e-02" purity="1.0000000000000000e+00" nType="0">
                <Node pos="l" depth="5" NCoef="0" IVar="-1" Cut="0.0000000000000000e+00" cType="1" res="2.0939670503139496e-03" rms="3.6507844924926758e-02" purity="1.0000000000000000e+00" nType="-99"/>
                <Node pos="r" depth="5" NCoef="0" IVar="-1" Cut="0.0000000000000000e+00" cType="1" res="2.7589420787990093e-03" rms="2.9985949397087097e-02" purity="1.0000000000000000e+00" nType="-99"/>
              </Node>
            </Node>
            <Node pos="r" depth="3" NCoef="0" IVar="11" Cut="2.0349639892578125e+02" cType="1" res="1.4102235436439514e-02" rms="2.1643780171871185e-02" purity="1.0000000000000000e+00" nType="0">
              <Node pos="l" depth="4" NCoef="0" IVar="7" Cut="8.5833477973937988e-01" cType="1" res="1.6936955973505974e-02" rms="2.5131715461611748e-02" purity="1.0000000000000000e+00" nType="0">
                <Node pos="l" depth="5" NCoef="0" IVar="-1" Cut="0.0000000000000000e+00" cType="1" res="1.4537159586325288e-03" rms="2.7821974828839302e-02" purity="1.0000000000000000e+00" nType="-99"/>
                <Node pos="r" depth="5" NCoef="0" IVar="-1" Cut="0.0000000000000000e+00" cType="1" res="1.9445914076641202e-03" rms="2.4237582460045815e-02" purity="1.0000000000000000e+00" nType="-99"/>
              </Node>
              <Node pos="r" depth="4" NCoef="0" IVar="3" Cut="2.4608636274933815e-02" cType="1" res="1.2979069724678993e-02" rms="1.9984120503067970e-02" purity="1.0000000000000000e+00" nType="0">
                <Node pos="l" depth="5" NCoef="0" IVar="-1" Cut="0.0000000000000000e+00" cType="1" res="1.0341232409700751e-03" rms="1.8740776926279068e-02" purity="1.0000000000000000e+00" nType="-99"/>
                <Node pos="r" depth="5" NCoef="0" IVar="-1" Cut="0.0000000000000000e+00" cType="1" res="1.3842398766428232e-03" rms="2.0144343376159668e-02" purity="1.0000000000000000e+00" nType="-99"/>
              </Node>
            </Node>
          </Node>
          <Node pos="r" depth="2" NCoef="0" IVar="5" Cut="4.5593973249197006e-02" cType="1" res="4.1564940474927425e-03" rms="3.0910186469554901e-02" purity="1.0000000000000000e+00" nType="0">
            <Node pos="l" depth="3" NCoef="0" IVar="11" Cut="1.9639308166503906e+02" cType="1" res="8.2069337368011475e-03" rms="2.6806922629475594e-02" purity="1.0000000000000000e+00" nType="0">
              <Node pos="l" depth="4" NCoef="0" IVar="10" Cut="9.4219505786895752e-01" cType="1" res="1.3605825603008270e-02" rms="3.0724229291081429e-02" purity="1.0000000000000000e+00" nType="0">
                <Node pos="l" depth="5" NCoef="0" IVar="-1" Cut="0.0000000000000000e+00" cType="1" res="1.4750370755791664e-03" rms="3.2272379845380783e-02" purity="1.0000000000000000e+00" nType="-99"/>
                <Node pos="r" depth="5" NCoef="0" IVar="-1" Cut="0.0000000000000000e+00" cType="1" res="1.8520319135859609e-03" rms="2.6668664067983627e-02" purity="1.0000000000000000e+00" nType="-99"/>
              </Node>
              <Node pos="r" depth="4" NCoef="0" IVar="13" Cut="9.9339747428894043e-01" cType="1" res="6.1225844547152519e-03" rms="2.4819467216730118e-02" purity="1.0000000000000000e+00" nType="0">
                <Node pos="l" depth="5" NCoef="0" IVar="-1" Cut="0.0000000000000000e+00" cType="1" res="1.6799120930954814e-04" rms="2.7209458872675896e-02" purity="1.0000000000000000e+00" nType="-99"/>
                <Node pos="r" depth="5" NCoef="0" IVar="-1" Cut="0.0000000000000000e+00" cType="1" res="1.0122059611603618e-03" rms="2.2047454491257668e-02" purity="1.0000000000000000e+00" nType="-99"/>
              </Node>
            </Node>
            <Node pos="r" depth="3" NCoef="0" IVar="4" Cut="1.6956668347120285e-02" cType="1" res="-8.3478670567274094e-03" rms="3.8465049117803574e-02" purity="1.0000000000000000e+00" nType="0">
              <Node pos="l" depth="4" NCoef="0" IVar="11" Cut="1.2290872192382812e+02" cType="1" res="1.3334873365238309e-03" rms="3.8439989089965820e-02" purity="1.0000000000000000e+00" nType="0">
                <Node pos="l" depth="5" NCoef="0" IVar="-1" Cut="0.0000000000000000e+00" cType="1" res="1.6780885634943843e-03" rms="4.0092591196298599e-02" purity="1.0000000000000000e+00" nType="-99"/>
                <Node pos="r" depth="5" NCoef="0" IVar="-1" Cut="0.0000000000000000e+00" cType="1" res="-8.0349342897534370e-04" rms="3.5381507128477097e-02" purity="1.0000000000000000e+00" nType="-99"/>
              </Node>
              <Node pos="r" depth="4" NCoef="0" IVar="6" Cut="1.3058907352387905e-02" cType="1" res="-1.4835624024271965e-02" rms="3.7093803286552429e-02" purity="1.0000000000000000e+00" nType="0">
                <Node pos="l" depth="5" NCoef="0" IVar="-1" Cut="0.0000000000000000e+00" cType="1" res="-1.3098341878503561e-03" rms="3.6916382610797882e-02" purity="1.0000000000000000e+00" nType="-99"/>
                <Node pos="r" depth="5" NCoef="0" IVar="-1" Cut="0.0000000000000000e+00" cType="1" res="-3.1623234972357750e-03" rms="3.6296427249908447e-02" purity="1.0000000000000000e+00" nType="-99"/>
              </Node>
            </Node>
          </Node>
        </Node>
        <Node pos="r" depth="1" NCoef="0" IVar="5" Cut="4.0725607424974442e-02" cType="1" res="-2.4030093103647232e-02" rms="3.7385910749435425e-02" purity="1.0000000000000000e+00" nType="0">
          <Node pos="l" depth="2" NCoef="0" IVar="4" Cut="1.8476525321602821e-02" cType="1" res="-9.7069777548313141e-03" rms="3.6553982645273209e-02" purity="1.0000000000000000e+00" nType="0">
            <Node pos="l" depth="3" NCoef="0" IVar="11" Cut="2.2903463745117188e+02" cType="1" res="4.1424660012125969e-03" rms="3.5962555557489395e-02" purity="1.0000000000000000e+00" nType="0">
              <Node pos="l" depth="4" NCoef="0" IVar="4" Cut="1.4707540161907673e-02" cType="1" res="8.2291290163993835e-03" rms="3.6960437893867493e-02" purity="1.0000000000000000e+00" nType="0">
                <Node pos="l" depth="5" NCoef="0" IVar="-1" Cut="0.0000000000000000e+00" cType="1" res="1.7666654894128442e-03" rms="3.7241481244564056e-02" purity="1.0000000000000000e+00" nType="-99"/>
                <Node pos="r" depth="5" NCoef="0" IVar="-1" Cut="0.0000000000000000e+00" cType="1" res="3.3938698470592499e-04" rms="3.5896357148885727e-02" purity="1.0000000000000000e+00" nType="-99"/>
              </Node>
              <Node pos="r" depth="4" NCoef="0" IVar="-1" Cut="0.0000000000000000e+00" cType="1" res="-6.1273103347048163e-04" rms="3.1720772385597229e-02" purity="1.0000000000000000e+00" nType="-99"/>
            </Node>
            <Node pos="r" depth="3" NCoef="0" IVar="7" Cut="9.3770444393157959e-01" cType="1" res="-1.6372520476579666e-02" rms="3.4929811954498291e-02" purity="1.0000000000000000e+00" nType="0">
              <Node pos="l" depth="4" NCoef="0" IVar="2" Cut="2.5215538218617439e-02" cType="1" res="-2.4744125083088875e-02" rms="3.3910963684320450e-02" purity="1.0000000000000000e+00" nType="0">
                <Node pos="l" depth="5" NCoef="0" IVar="-1" Cut="0.0000000000000000e+00" cType="1" res="-1.8040033755823970e-03" rms="3.3764209598302841e-02" purity="1.0000000000000000e+00" nType="-99"/>
                <Node pos="r" depth="5" NCoef="0" IVar="-1" Cut="0.0000000000000000e+00" cType="1" res="-4.8835352063179016e-03" rms="3.2121390104293823e-02" purity="1.0000000000000000e+00" nType="-99"/>
              </Node>
              <Node pos="r" depth="4" NCoef="0" IVar="2" Cut="2.6198808103799820e-02" cType="1" res="-2.5476582814007998e-03" rms="3.2078888267278671e-02" purity="1.0000000000000000e+00" nType="0">
                <Node pos="l" depth="5" NCoef="0" IVar="-1" Cut="0.0000000000000000e+00" cType="1" res="1.5580565377604216e-04" rms="3.0616071075201035e-02" purity="1.0000000000000000e+00" nType="-99"/>
                <Node pos="r" depth="5" NCoef="0" IVar="-1" Cut="0.0000000000000000e+00" cType="1" res="-1.8958899891003966e-03" rms="3.2914411276578903e-02" purity="1.0000000000000000e+00" nType="-99"/>
              </Node>
            </Node>
          </Node>
          <Node pos="r" depth="2" NCoef="0" IVar="4" Cut="1.6965337097644806e-02" cType="1" res="-3.2598484307527542e-02" rms="3.5190358757972717e-02" purity="1.0000000000000000e+00" nType="0">
            <Node pos="l" depth="3" NCoef="0" IVar="12" Cut="1.4644891357421875e+02" cType="1" res="-9.6814157441258430e-03" rms="4.2381435632705688e-02" purity="1.0000000000000000e+00" nType="0">
              <Node pos="l" depth="4" NCoef="0" IVar="4" Cut="1.4195000752806664e-02" cType="1" res="-2.2596979979425669e-03" rms="4.4538088142871857e-02" purity="1.0000000000000000e+00" nType="0">
                <Node pos="l" depth="5" NCoef="0" IVar="-1" Cut="0.0000000000000000e+00" cType="1" res="1.2034749379381537e-03" rms="4.4066596776247025e-02" purity="1.0000000000000000e+00" nType="-99"/>
                <Node pos="r" depth="5" NCoef="0" IVar="-1" Cut="0.0000000000000000e+00" cType="1" res="-2.3121107369661331e-03" rms="4.3084889650344849e-02" purity="1.0000000000000000e+00" nType="-99"/>
              </Node>
              <Node pos="r" depth="4" NCoef="0" IVar="-1" Cut="0.0000000000000000e+00" cType="1" res="-3.1579567585140467e-03" rms="3.5234853625297546e-02" purity="1.0000000000000000e+00" nType="-99"/>
            </Node>
            <Node pos="r" depth="3" NCoef="0" IVar="6" Cut="4.6856217086315155e-02" cType="1" res="-3.7772092968225479e-02" rms="3.1098233535885811e-02" purity="1.0000000000000000e+00" nType="0">
              <Node pos="l" depth="4" NCoef="0" IVar="13" Cut="9.7151285409927368e-01" cType="1" res="-2.9221618548035622e-02" rms="3.3616725355386734e-02" purity="1.0000000000000000e+00" nType="0">
                <Node pos="l" depth="5" NCoef="0" IVar="-1" Cut="0.0000000000000000e+00" cType="1" res="-5.2474741823971272e-03" rms="3.2966829836368561e-02" purity="1.0000000000000000e+00" nType="-99"/>
                <Node pos="r" depth="5" NCoef="0" IVar="-1" Cut="0.0000000000000000e+00" cType="1" res="-2.0245080813765526e-03" rms="3.3714398741722107e-02" purity="1.0000000000000000e+00" nType="-99"/>
              </Node>
              <Node pos="r" depth="4" NCoef="0" IVar="13" Cut="9.6149927377700806e-01" cType="1" res="-4.1372794657945633e-02" rms="2.9235472902655602e-02" purity="1.0000000000000000e+00" nType="0">
                <Node pos="l" depth="5" NCoef="0" IVar="-1" Cut="0.0000000000000000e+00" cType="1" res="-1.0148774832487106e-02" rms="2.7908155694603920e-02" purity="1.0000000000000000e+00" nType="-99"/>
                <Node pos="r" depth="5" NCoef="0" IVar="-1" Cut="0.0000000000000000e+00" cType="1" res="-4.8085660673677921e-03" rms="3.3769011497497559e-02" purity="1.0000000000000000e+00" nType="-99"/>
              </Node>
            </Node>
          </Node>
        </Node>
      </Node>
    </BinaryTree>
    <BinaryTree type="DecisionTree" boostWeight="1.0000000000000000e+00" itree="1">
      <Node pos="s" depth="0" NCoef="0" IVar="6" Cut="2.3613693192601204e-02" cType="1" res="-2.8294997755438089e-03" rms="3.5811878740787506e-02" purity="1.0000000000000000e+00" nType="0">
        <Node pos="l" depth="1" NCoef="0" IVar="6" Cut="6.4569874666631222e-03" cType="1" res="1.0097426362335682e-02" rms="2.8970696032047272e-02" purity="1.0000000000000000e+00" nType="0">
          <Node pos="l" depth="2" NCoef="0" IVar="11" Cut="1.8836372375488281e+02" cType="1" res="1.4237053692340851e-02" rms="2.6323115453124046e-02" purity="1.0000000000000000e+00" nType="0">
            <Node pos="l" depth="3" NCoef="0" IVar="11" Cut="1.1838935089111328e+02" cType="1" res="1.7620848491787910e-02" rms="3.0194273218512535e-02" purity="1.0000000000000000e+00" nType="0">
              <Node pos="l" depth="4" NCoef="0" IVar="14" Cut="-1.5969609022140503e+00" cType="1" res="1.9660903140902519e-02" rms="3.2703131437301636e-02" purity="1.0000000000000000e+00" nType="0">
                <Node pos="l" depth="5" NCoef="0" IVar="-1" Cut="0.0000000000000000e+00" cType="1" res="2.9689799994230270e-03" rms="3.1034411862492561e-02" purity="1.0000000000000000e+00" nType="-99"/>
                <Node pos="r" depth="5" NCoef="0" IVar="-1" Cut="0.0000000000000000e+00" cType="1" res="2.6021569501608610e-03" rms="3.3808898180723190e-02" purity="1.0000000000000000e+00" nType="-99"/>
              </Node>
              <Node pos="r" depth="4" NCoef="0" IVar="5" Cut="5.4643906652927399e-02" cType="1" res="1.5320477075874805e-02" rms="2.6903033256530762e-02" purity="1.0000000000000000e+00" nType="0">
                <Node pos="l" depth="5" NCoef="0" IVar="-1" Cut="0.0000000000000000e+00" cType="1" res="1.8023414304479957e-03" rms="2.5549231097102165e-02" purity="1.0000000000000000e+00" nType="-99"/>
                <Node pos="r" depth="5" NCoef="0" IVar="-1" Cut="0.0000000000000000e+00" cType="1" res="1.0837242007255554e-03" rms="3.5561036318540573e-02" purity="1.0000000000000000e+00" nType="-99"/>
              </Node>
            </Node>
            <Node pos="r" depth="3" NCoef="0" IVar="5" Cut="4.6837572008371353e-02" cType="1" res="1.0879284702241421e-02" rms="2.1287670359015465e-02" purity="1.0000000000000000e+00" nType="0">
              <Node pos="l" depth="4" NCoef="0" IVar="11" Cut="2.3984310913085938e+02" cType="1" res="1.1362533085048199e-02" rms="2.0397901535034180e-02" purity="1.0000000000000000e+00" nType="0">
                <Node pos="l" depth="5" NCoef="0" IVar="-1" Cut="0.0000000000000000e+00" cType="1" res="1.4464086852967739e-03" rms="2.2488186135888100e-02" purity="1.0000000000000000e+00" nType="-99"/>
                <Node pos="r" depth="5" NCoef="0" IVar="-1" Cut="0.0000000000000000e+00" cType="1" res="1.0523257078602910e-03" rms="1.9257638603448868e-02" purity="1.0000000000000000e+00" nType="-99"/>
              </Node>
              <Node pos="r" depth="4" NCoef="0" IVar="-1" Cut="0.0000000000000000e+00" cType="1" res="3.5786663647741079e-04" rms="3.1632423400878906e-02" purity="1.0000000000000000e+00" nType="-99"/>
            </Node>
          </Node>
          <Node pos="r" depth="2" NCoef="0" IVar="5" Cut="4.3291550129652023e-02" cType="1" res="7.0290709845721722e-04" rms="3.2316941767930984e-02" purity="1.0000000000000000e+00" nType="0">
            <Node pos="l" depth="3" NCoef="0" IVar="8" Cut="1.9809217834472656e+02" cType="1" res="5.8059636503458023e-03" rms="2.8101056814193726e-02" purity="1.0000000000000000e+00" nType="0">
              <Node pos="l" depth="4" NCoef="0" IVar="8" Cut="1.1861377716064453e+02" cType="1" res="1.1597821488976479e-02" rms="3.0877159908413887e-02" purity="1.0000000000000000e+00" nType="0">
                <Node pos="l" depth="5" NCoef="0" IVar="-1" Cut="0.0000000000000000e+00" cType="1" res="1.9947590772062540e-03" rms="3.2987020909786224e-02" purity="1.0000000000000000e+00" nType="-99"/>
                <Node pos="r" depth="5" NCoef="0" IVar="-1" Cut="0.0000000000000000e+00" cType="1" res="1.1318189790472388e-03" rms="2.9622931033372879e-02" purity="1.0000000000000000e+00" nType="-99"/>
              </Node>
              <Node pos="r" depth="4" NCoef="0" IVar="13" Cut="9.9216085672378540e-01" cType="1" res="2.7248896658420563e-03" rms="2.5985237210988998e-02" purity="1.0000000000000000e+00" nType="0">
                <Node pos="l" depth="5" NCoef="0" IVar="-1" Cut="0.0000000000000000e+00" cType="1" res="-3.0315844924189150e-04" rms="2.7649605646729469e-02" purity="1.0000000000000000e+00" nType="-99"/>
                <Node pos="r" depth="5" NCoef="0" IVar="-1" Cut="0.0000000000000000e+00" cType="1" res="7.3062599403783679e-04" rms="2.3758335039019585e-02" purity="1.0000000000000000e+00" nType="-99"/>
              </Node>
            </Node>
            <Node pos="r" depth="3" NCoef="0" IVar="11" Cut="1.6321887207031250e+02" cType="1" res="-9.1454265639185905e-03" rms="3.7265408784151077e-02" purity="1.0000000000000000e+00" nType="0">
              <Node pos="l" depth="4" NCoef="0" IVar="5" Cut="7.0713333785533905e-02" cType="1" res="-1.9417094299569726e-03" rms="3.9956390857696533e-02" purity="1.0000000000000000e+00" nType="0">
                <Node pos="l" depth="5" NCoef="0" IVar="-1" Cut="0.0000000000000000e+00" cType="1" res="5.0929473945870996e-04" rms="3.8077693432569504e-02" purity="1.0000000000000000e+00" nType="-99"/>
                <Node pos="r" depth="5" NCoef="0" IVar="-1" Cut="0.0000000000000000e+00" cType="1" res="-2.7083850000053644e-03" rms="4.1470382362604141e-02" purity="1.0000000000000000e+00" nType="-99"/>
              </Node>
              <Node pos="r" depth="4" NCoef="0" IVar="5" Cut="5.5003952234983444e-02" cType="1" res="-1.7592029646039009e-02" rms="3.1825516372919083e-02" purity="1.0000000000000000e+00" nType="0">
                <Node pos="l" depth="5" NCoef="0" IVar="-1" Cut="0.0000000000000000e+00" cType="1" res="-1.5199292683973908e-03" rms="3.1268954277038574e-02" purity="1.0000000000000000e+00" nType="-99"/>
                <Node pos="r" depth="5" NCoef="0" IVar="-1" Cut="0.0000000000000000e+00" cType="1" res="-3.6306718830019236e-03" rms="3.1031919643282890e-02" purity="1.0000000000000000e+00" nType="-99"/>
              </Node>
            </Node>
          </Node>
        </Node>
        <Node pos="r" depth="1" NCoef="0" IVar="4" Cut="1.8231067806482315e-02" cType="1" res="-2.2685306146740913e-02" rms="3.6225728690624237e-02" purity="1.0000000000000000e+00" nType="0">
          <Node pos="l" depth="2" NCoef="0" IVar="5" Cut="4.4901888817548752e-02" cType="1" res="-6.0404054820537567e-03" rms="3.9284709841012955e-02" purity="1.0000000000000000e+00" nType="0">
            <Node pos="l" depth="3" NCoef="0" IVar="11" Cut="2.0227632141113281e+02" cType="1" res="2.5421602185815573e-03" rms="3.6029145121574402e-02" purity="1.0000000000000000e+00" nType="0">
              <Node pos="l" depth="4" NCoef="0" IVar="4" Cut="1.5038876794278622e-02" cType="1" res="7.3570958338677883e-03" rms="3.7276882678270340e-02" purity="1.0000000000000000e+00" nType="0">
                <Node pos="l" depth="5" NCoef="0" IVar="-1" Cut="0.0000000000000000e+00" cType="1" res="1.7352113500237465e-03" rms="3.7299159914255142e-02" purity="1.0000000000000000e+00" nType="-99"/>
                <Node pos="r" depth="5" NCoef="0" IVar="-1" Cut="0.0000000000000000e+00" cType="1" res="4.4853699364466593e-05" rms="3.6250170320272446e-02" purity="1.0000000000000000e+00" nType="-99"/>
              </Node>
              <Node pos="r" depth="4" NCoef="0" IVar="-1" Cut="0.0000000000000000e+00" cType="1" res="-6.6194287501275539e-04" rms="3.2471604645252228e-02" purity="1.0000000000000000e+00" nType="-99"/>
            </Node>
            <Node pos="r" depth="3" NCoef="0" IVar="4" Cut="1.4295231550931931e-02" cType="1" res="-1.4207988046109676e-02" rms="4.0494617074728012e-02" purity="1.0000000000000000e+00" nType="0">
              <Node pos="l" depth="4" NCoef="0" IVar="-1" Cut="0.0000000000000000e+00" cType="1" res="-2.0628390484489501e-04" rms="4.2479559779167175e-02" purity="1.0000000000000000e+00" nType="-99"/>
              <Node pos="r" depth="4" NCoef="0" IVar="11" Cut="1.4989584350585938e+02" cType="1" res="-2.1190356463193893e-02" rms="3.7569228559732437e-02" purity="1.0000000000000000e+00" nType="0">
                <Node pos="l" depth="5" NCoef="0" IVar="-1" Cut="0.0000000000000000e+00" cType="1" res="-3.0605553183704615e-03" rms="4.1322510689496994e-02" purity="1.0000000000000000e+00" nType="-99"/>
                <Node pos="r" depth="5" NCoef="0" IVar="-1" Cut="0.0000000000000000e+00" cType="1" res="-4.3445033952593803e-03" rms="3.0193775892257690e-02" purity="1.0000000000000000e+00" nType="-99"/>
              </Node>
            </Node>
          </Node>
          <Node pos="r" depth="2" NCoef="0" IVar="10" Cut="9.1930544376373291e-01" cType="1" res="-2.8664106503129005e-02" rms="3.3076755702495575e-02" purity="1.0000000000000000e+00" nType="0">
            <Node pos="l" depth="3" NCoef="0" IVar="6" Cut="5.5565327405929565e-02" cType="1" res="-3.5081602632999420e-02" rms="3.0648745596408844e-02" purity="1.0000000000000000e+00" nType="0">
              <Node pos="l" depth="4" NCoef="0" IVar="13" Cut="9.7751015424728394e-01" cType="1" res="-2.8142165392637253e-02" rms="3.2733500003814697e-02" purity="1.0000000000000000e+00" nType="0">
                <Node pos="l" depth="5" NCoef="0" IVar="-1" Cut="0.0000000000000000e+00" cType="1" res="-5.1547717303037643e-03" rms="3.1485285609960556e-02" purity="1.0000000000000000e+00" nType="-99"/>
                <Node pos="r" depth="5" NCoef="0" IVar="-1" Cut="0.0000000000000000e+00" cType="1" res="-1.7168769845739007e-03" rms="3.5555697977542877e-02" purity="1.0000000000000000e+00" nType="-99"/>
              </Node>
              <Node pos="r" depth="4" NCoef="0" IVar="13" Cut="9.4810771942138672e-01" cType="1" res="-3.8617391139268875e-02" rms="2.8896041214466095e-02" purity="1.0000000000000000e+00" nType="0">
                <Node pos="l" depth="5" NCoef="0" IVar="-1" Cut="0.0000000000000000e+00" cType="1" res="-1.0220106691122055e-02" rms="2.7177644893527031e-02" purity="1.0000000000000000e+00" nType="-99"/>
                <Node pos="r" depth="5" NCoef="0" IVar="-1" Cut="0.0000000000000000e+00" cType="1" res="-5.5645825341343880e-03" rms="3.1735222786664963e-02" purity="1.0000000000000000e+00" nType="-99"/>
              </Node>
            </Node>
            <Node pos="r" depth="3" NCoef="0" IVar="7" Cut="9.4941592216491699e-01" cType="1" res="-9.7092725336551666e-03" rms="3.2713081687688828e-02" purity="1.0000000000000000e+00" nType="0">
              <Node pos="l" depth="4" NCoef="0" IVar="12" Cut="2.9305120849609375e+02" cType="1" res="-1.4523515477776527e-02" rms="3.2060157507658005e-02" purity="1.0000000000000000e+00" nType="0">
                <Node pos="l" depth="5" NCoef="0" IVar="-1" Cut="0.0000000000000000e+00" cType="1" res="-1.0615597711876035e-03" rms="3.4528538584709167e-02" purity="1.0000000000000000e+00" nType="-99"/>
                <Node pos="r" depth="5" NCoef="0" IVar="-1" Cut="0.0000000000000000e+00" cType="1" res="-2.3497410584241152e-03" rms="2.8889171779155731e-02" purity="1.0000000000000000e+00" nType="-99"/>
              </Node>
              <Node pos="r" depth="4" NCoef="0" IVar="-1" Cut="0.0000000000000000e+00" cType="1" res="3.2448407728224993e-04" rms="3.0904369428753853e-02" purity="1.0000000000000000e+00" nType="-99"/>
            </Node>
          </Node>
        </Node>
      </Node>
    </BinaryTree>
    <BinaryTree type="DecisionTree" boostWeight="1.0000000000000000e+00" itree="2">
      <Node pos="s" depth="0" NCoef="0" IVar="6" Cut="2.6565404608845711e-02" cType="1" res="-2.6300414465367794e-03" rms="3.4399364143610001e-02" purity="1.0000000000000000e+00" nType="0">
        <Node pos="l" depth="1" NCoef="0" IVar="6" Cut="7.4233049526810646e-03" cType="1" res="8.4612043574452400e-03" rms="2.8649117797613144e-02" purity="1.0000000000000000e+00" nType="0">
          <Node pos="l" depth="2" NCoef="0" IVar="11" Cut="1.4518367004394531e+02" cType="1" res="1.2439795769751072e-02" rms="2.6056574657559395e-02" purity="1.0000000000000000e+00" nType="0">
            <Node pos="l" depth="3" NCoef="0" IVar="14" Cut="-1.5558527708053589e+00" cType="1" res="1.6430953517556190e-02" rms="3.1334768980741501e-02" purity="1.0000000000000000e+00" nType="0">
              <Node pos="l" depth="4" NCoef="0" IVar="12" Cut="7.7112632751464844e+01" cType="1" res="1.8069434911012650e-02" rms="3.0271127820014954e-02" purity="1.0000000000000000e+00" nType="0">
                <Node pos="l" depth="5" NCoef="0" IVar="-1" Cut="0.0000000000000000e+00" cType="1" res="3.3318456262350082e-03" rms="3.3368378877639771e-02" purity="1.0000000000000000e+00" nType="-99"/>
                <Node pos="r" depth="5" NCoef="0" IVar="-1" Cut="0.0000000000000000e+00" cType="1" res="2.0595958922058344e-03" rms="2.8428398072719574e-02" purity="1.0000000000000000e+00" nType="-99"/>
              </Node>
              <Node pos="r" depth="4" NCoef="0" IVar="1" Cut="1.5751730203628540e+00" cType="1" res="1.4942978508770466e-02" rms="3.2198186963796616e-02" purity="1.0000000000000000e+00" nType="0">
                <Node pos="l" depth="5" NCoef="0" IVar="-1" Cut="0.0000000000000000e+00" cType="1" res="4.4821217306889594e-04" rms="3.9202336221933365e-02" purity="1.0000000000000000e+00" nType="-99"/>
                <Node pos="r" depth="5" NCoef="0" IVar="-1" Cut="0.0000000000000000e+00" cType="1" res="2.2159516811370850e-03" rms="3.0604250729084015e-02" purity="1.0000000000000000e+00" nType="-99"/>
              </Node>
            </Node>
            <Node pos="r" depth="3" NCoef="0" IVar="6" Cut="1.4816067960055079e-05" cType="1" res="1.0310711339116096e-02" rms="2.2457078099250793e-02" purity="1.0000000000000000e+00" nType="0">
              <Node pos="l" depth="4" NCoef="0" IVar="8" Cut="2.0353720092773438e+02" cType="1" res="1.1567164212465286e-02" rms="2.1667476743459702e-02" purity="1.0000000000000000e+00" nType="0">
                <Node pos="l" depth="5" NCoef="0" IVar="-1" Cut="0.0000000000000000e+00" cType="1" res="1.5135504072532058e-03" rms="2.4830978363752365e-02" purity="1.0000000000000000e+00" nType="-99"/>
                <Node pos="r" depth="5" NCoef="0" IVar="-1" Cut="0.0000000000000000e+00" cType="1" res="1.0822655167430639e-03" rms="1.9693361595273018e-02" purity="1.0000000000000000e+00" nType="-99"/>
              </Node>
              <Node pos="r" depth="4" NCoef="0" IVar="5" Cut="4.4059678912162781e-02" cType="1" res="7.0923166349530220e-03" rms="2.4065807461738586e-02" purity="1.0000000000000000e+00" nType="0">
                <Node pos="l" depth="5" NCoef="0" IVar="-1" Cut="0.0000000000000000e+00" cType="1" res="9.0475234901532531e-04" rms="2.2261608392000198e-02" purity="1.0000000000000000e+00" nType="-99"/>
                <Node pos="r" depth="5" NCoef="0" IVar="-1" Cut="0.0000000000000000e+00" cType="1" res="-2.8328807093203068e-04" rms="3.1651902943849564e-02" purity="1.0000000000000000e+00" nType="-99"/>
              </Node>
            </Node>
          </Node>
          <Node pos="r" depth="2" NCoef="0" IVar="5" Cut="4.4740598648786545e-02" cType="1" res="-5.3089350694790483e-04" rms="3.2010685652494431e-02" purity="1.0000000000000000e+00" nType="0">
            <Node pos="l" depth="3" NCoef="0" IVar="11" Cut="1.9641693115234375e+02" cType="1" res="4.2319050990045071e-03" rms="2.8325198218226433e-02" purity="1.0000000000000000e+00" nType="0">
              <Node pos="l" depth="4" NCoef="0" IVar="11" Cut="1.0290976715087891e+02" cType="1" res="9.7533538937568665e-03" rms="3.1048741191625595e-02" purity="1.0000000000000000e+00" nType="0">
                <Node pos="l" depth="5" NCoef="0" IVar="-1" Cut="0.0000000000000000e+00" cType="1" res="2.0588149782270193e-03" rms="3.2960094511508942e-02" purity="1.0000000000000000e+00" nType="-99"/>
                <Node pos="r" depth="5" NCoef="0" IVar="-1" Cut="0.0000000000000000e+00" cType="1" res="9.6051377477124333e-04" rms="3.0214114114642143e-02" purity="1.0000000000000000e+00" nType="-99"/>
              </Node>
              <Node pos="r" depth="4" NCoef="0" IVar="13" Cut="9.9224215745925903e-01" cType="1" res="1.3369378866627812e-03" rms="2.6328051462769508e-02" purity="1.0000000000000000e+00" nType="0">
                <Node pos="l" depth="5" NCoef="0" IVar="-1" Cut="0.0000000000000000e+00" cType="1" res="-4.5270592090673745e-04" rms="2.7672883123159409e-02" purity="1.0000000000000000e+00" nType="-99"/>
                <Node pos="r" depth="5" NCoef="0" IVar="-1" Cut="0.0000000000000000e+00" cType="1" res="6.4197945175692439e-04" rms="2.4110995233058929e-02" purity="1.0000000000000000e+00" nType="-99"/>
              </Node>
            </Node>
            <Node pos="r" depth="3" NCoef="0" IVar="11" Cut="1.3918331909179688e+02" cType="1" res="-9.9908867850899696e-03" rms="3.6493945866823196e-02" purity="1.0000000000000000e+00" nType="0">
              <Node pos="l" depth="4" NCoef="0" IVar="4" Cut="1.6956668347120285e-02" cType="1" res="-1.4078965177759528e-03" rms="3.9672024548053741e-02" purity="1.0000000000000000e+00" nType="0">
                <Node pos="l" depth="5" NCoef="0" IVar="-1" Cut="0.0000000000000000e+00" cType="1" res="1.0920355562120676e-03" rms="3.7970174103975296e-02" purity="1.0000000000000000e+00" nType="-99"/>
                <Node pos="r" depth="5" NCoef="0" IVar="-1" Cut="0.0000000000000000e+00" cType="1" res="-1.6132168238982558e-03" rms="3.9794586598873138e-02" purity="1.0000000000000000e+00" nType="-99"/>
              </Node>
              <Node pos="r" depth="4" NCoef="0" IVar="5" Cut="6.1054684221744537e-02" cType="1" res="-1.6937218606472015e-02" rms="3.2062944024801254e-02" purity="1.0000000000000000e+00" nType="0">
                <Node pos="l" depth="5" NCoef="0" IVar="-1" Cut="0.0000000000000000e+00" cType="1" res="-1.6783659812062979e-03" rms="3.1734108924865723e-02" purity="1.0000000000000000e+00" nType="-99"/>
                <Node pos="r" depth="5" NCoef="0" IVar="-1" Cut="0.0000000000000000e+00" cType="1" res="-4.2136018164455891e-03" rms="3.0765831470489502e-02" purity="1.0000000000000000e+00" nType="-99"/>
              </Node>
            </Node>
          </Node>
        </Node>
        <Node pos="r" depth="1" NCoef="0" IVar="4" Cut="1.6474377363920212e-02" cType="1" res="-2.1303765475749969e-02" rms="3.5183653235435486e-02" purity="1.0000000000000000e+00" nType="0">
          <Node pos="l" depth="2" NCoef="0" IVar="5" Cut="4.6277347952127457e-02" cType="1" res="-1.4360018540173769e-03" rms="3.8750205188989639e-02" purity="1.0000000000000000e+00" nType="0">
            <Node pos="l" depth="3" NCoef="0" IVar="11" Cut="1.9905187988281250e+02" cType="1" res="4.7797774896025658e-03" rms="3.5851400345563889e-02" purity="1.0000000000000000e+00" nType="0">
              <Node pos="l" depth="4" NCoef="0" IVar="4" Cut="1.2750509195029736e-02" cType="1" res="8.2446336746215820e-03" rms="3.6695323884487152e-02" purity="1.0000000000000000e+00" nType="0">
                <Node pos="l" depth="5" NCoef="0" IVar="-1" Cut="0.0000000000000000e+00" cType="1" res="2.1534000989049673e-03" rms="3.7654642015695572e-02" purity="1.0000000000000000e+00" nType="-99"/>
                <Node pos="r" depth="5" NCoef="0" IVar="-1" Cut="0.0000000000000000e+00" cType="1" res="5.4778059711679816e-04" rms="3.5366557538509369e-02" purity="1.0000000000000000e+00" nType="-99"/>
              </Node>
              <Node pos="r" depth="4" NCoef="0" IVar="-1" Cut="0.0000000000000000e+00" cType="1" res="-4.2158272117376328e-04" rms="3.2514661550521851e-02" purity="1.0000000000000000e+00" nType="-99"/>
            </Node>
            <Node pos="r" depth="3" NCoef="0" IVar="12" Cut="1.1160770416259766e+02" cType="1" res="-8.3433492109179497e-03" rms="4.0635555982589722e-02" purity="1.0000000000000000e+00" nType="0">
              <Node pos="l" depth="4" NCoef="0" IVar="-1" Cut="0.0000000000000000e+00" cType="1" res="-1.2244735262356699e-04" rms="4.2510934174060822e-02" purity="1.0000000000000000e+00" nType="-99"/>
              <Node pos="r" depth="4" NCoef="0" IVar="-1" Cut="0.0000000000000000e+00" cType="1" res="-2.9365269001573324e-03" rms="3.6378521472215652e-02" purity="1.0000000000000000e+00" nType="-99"/>
            </Node>
          </Node>
          <Node pos="r" depth="2" NCoef="0" IVar="10" Cut="9.1573101282119751e-01" cType="1" res="-2.5416700169444084e-02" rms="3.2934337854385376e-02" purity="1.0000000000000000e+00" nType="0">
            <Node pos="l" depth="3" NCoef="0" IVar="4" Cut="2.1650124341249466e-02" cType="1" res="-3.1263194978237152e-02" rms="3.1273007392883301e-02" purity="1.0000000000000000e+00" nType="0">
              <Node pos="l" depth="4" NCoef="0" IVar="5" Cut="4.5900642871856689e-02" cType="1" res="-2.4155279621481895e-02" rms="3.4406345337629318e-02" purity="1.0000000000000000e+00" nType="0">
                <Node pos="l" depth="5" NCoef="0" IVar="-1" Cut="0.0000000000000000e+00" cType="1" res="-2.0860314834862947e-03" rms="3.4986753016710281e-02" purity="1.0000000000000000e+00" nType="-99"/>
                <Node pos="r" depth="5" NCoef="0" IVar="-1" Cut="0.0000000000000000e+00" cType="1" res="-5.1937149837613106e-03" rms="3.3537860959768295e-02" purity="1.0000000000000000e+00" nType="-99"/>
              </Node>
              <Node pos="r" depth="4" NCoef="0" IVar="13" Cut="9.1462886333465576e-01" cType="1" res="-3.4744460135698318e-02" rms="2.8988691046833992e-02" purity="1.0000000000000000e+00" nType="0">
                <Node pos="l" depth="5" NCoef="0" IVar="-1" Cut="0.0000000000000000e+00" cType="1" res="-1.1064697057008743e-02" rms="2.6720171794295311e-02" purity="1.0000000000000000e+00" nType="-99"/>
                <Node pos="r" depth="5" NCoef="0" IVar="-1" Cut="0.0000000000000000e+00" cType="1" res="-5.2080703899264336e-03" rms="3.0278341844677925e-02" purity="1.0000000000000000e+00" nType="-99"/>
              </Node>
            </Node>
            <Node pos="r" depth="3" NCoef="0" IVar="7" Cut="9.4252604246139526e-01" cType="1" res="-9.8007796332240105e-03" rms="3.2162532210350037e-02" purity="1.0000000000000000e+00" nType="0">
              <Node pos="l" depth="4" NCoef="0" IVar="12" Cut="2.1326396179199219e+02" cType="1" res="-1.5446069650352001e-02" rms="3.1713712960481644e-02" purity="1.0000000000000000e+00" nType="0">
                <Node pos="l" depth="5" NCoef="0" IVar="-1" Cut="0.0000000000000000e+00" cType="1" res="-8.8918459368869662e-04" rms="3.5159282386302948e-02" purity="1.0000000000000000e+00" nType="-99"/>
                <Node pos="r" depth="5" NCoef="0" IVar="-1" Cut="0.0000000000000000e+00" cType="1" res="-2.3735587019473314e-03" rms="2.9530011117458344e-02" purity="1.0000000000000000e+00" nType="-99"/>
              </Node>
              <Node pos="r" depth="4" NCoef="0" IVar="7" Cut="9.5732671022415161e-01" cType="1" res="-4.9894308904185891e-04" rms="3.0702291056513786e-02" purity="1.0000000000000000e+00" nType="0">
                <Node pos="l" depth="5" NCoef="0" IVar="-1" Cut="0.0000000000000000e+00" cType="1" res="-6.1623286455869675e-04" rms="3.0102340504527092e-02" purity="1.0000000000000000e+00" nType="-99"/>
                <Node pos="r" depth="5" NCoef="0" IVar="-1" Cut="0.0000000000000000e+00" cType="1" res="9.2749489704146981e-04" rms="3.0087213963270187e-02" purity="1.0000000000000000e+00" nType="-99"/>
              </Node>
            </Node>
          </Node>
        </Node>
      </Node>
    </BinaryTree>
    <BinaryTree type="DecisionTree" boostWeight="1.0000000000000000e+00" itree="3">
      <Node pos="s" depth="0" NCoef="0" IVar="6" Cut="2.9517117887735367e-02" cType="1" res="-2.4445715826004744e-03" rms="3.3238850533962250e-02" purity="1.0000000000000000e+00" nType="0">
        <Node pos="l" depth="1" NCoef="0" IVar="6" Cut="8.1888325512409210e-03" cType="1" res="7.1116657927632332e-03" rms="2.8342781588435173e-02" purity="1.0000000000000000e+00" nType="0">
          <Node pos="l" depth="2" NCoef="0" IVar="8" Cut="2.0135086059570312e+02" cType="1" res="1.0921340435743332e-02" rms="2.5849556550383568e-02" purity="1.0000000000000000e+00" nType="0">
            <Node pos="l" depth="3" NCoef="0" IVar="6" Cut="3.0887119937688112e-03" cType="1" res="1.3309131376445293e-02" rms="2.9284045100212097e-02" purity="1.0000000000000000e+00" nType="0">
              <Node pos="l" depth="4" NCoef="0" IVar="11" Cut="9.8670120239257812e+01" cType="1" res="1.4047258533537388e-02" rms="2.9050495475530624e-02" purity="1.0000000000000000e+00" nType="0">
                <Node pos="l" depth="5" NCoef="0" IVar="-1" Cut="0.0000000000000000e+00" cType="1" res="2.4501283187419176e-03" rms="3.2923810184001923e-02" purity="1.0000000000000000e+00" nType="-99"/>
                <Node pos="r" depth="5" NCoef="0" IVar="-1" Cut="0.0000000000000000e+00" cType="1" res="1.4734280994161963e-03" rms="2.6138436049222946e-02" purity="1.0000000000000000e+00" nType="-99"/>
              </Node>
              <Node pos="r" depth="4" NCoef="0" IVar="5" Cut="4.3091531842947006e-02" cType="1" res="7.6119760051369667e-03" rms="3.0431043356657028e-02" purity="1.0000000000000000e+00" nType="0">
                <Node pos="l" depth="5" NCoef="0" IVar="-1" Cut="0.0000000000000000e+00" cType="1" res="1.3227602466940880e-03" rms="2.6512509211897850e-02" purity="1.0000000000000000e+00" nType="-99"/>
                <Node pos="r" depth="5" NCoef="0" IVar="-1" Cut="0.0000000000000000e+00" cType="1" res="2.5460059987381101e-04" rms="3.4654110670089722e-02" purity="1.0000000000000000e+00" nType="-99"/>
              </Node>
            </Node>
            <Node pos="r" depth="3" NCoef="0" IVar="5" Cut="4.6837572008371353e-02" cType="1" res="8.1483041867613792e-03" rms="2.0832236856222153e-02" purity="1.0000000000000000e+00" nType="0">
              <Node pos="l" depth="4" NCoef="0" IVar="6" Cut="1.4382607769221067e-03" cType="1" res="8.6076408624649048e-03" rms="2.0064555108547211e-02" purity="1.0000000000000000e+00" nType="0">
                <Node pos="l" depth="5" NCoef="0" IVar="-1" Cut="0.0000000000000000e+00" cType="1" res="9.8768330644816160e-04" rms="1.9134361296892166e-02" purity="1.0000000000000000e+00" nType="-99"/>
                <Node pos="r" depth="5" NCoef="0" IVar="-1" Cut="0.0000000000000000e+00" cType="1" res="7.0397759554907680e-04" rms="2.1671000868082047e-02" purity="1.0000000000000000e+00" nType="-99"/>
              </Node>
              <Node pos="r" depth="4" NCoef="0" IVar="-1" Cut="0.0000000000000000e+00" cType="1" res="-1.7841857697931118e-05" rms="3.0609328299760818e-02" purity="1.0000000000000000e+00" nType="-99"/>
            </Node>
          </Node>
          <Node pos="r" depth="2" NCoef="0" IVar="5" Cut="4.3291550129652023e-02" cType="1" res="-1.3675473164767027e-03" rms="3.1620189547538757e-02" purity="1.0000000000000000e+00" nType="0">
            <Node pos="l" depth="3" NCoef="0" IVar="8" Cut="2.1494665527343750e+02" cType="1" res="3.4622156526893377e-03" rms="2.8043136000633240e-02" purity="1.0000000000000000e+00" nType="0">
              <Node pos="l" depth="4" NCoef="0" IVar="11" Cut="1.0278629302978516e+02" cType="1" res="7.8626880422234535e-03" rms="3.0522391200065613e-02" purity="1.0000000000000000e+00" nType="0">
                <Node pos="l" depth="5" NCoef="0" IVar="-1" Cut="0.0000000000000000e+00" cType="1" res="1.9183747936040163e-03" rms="3.2736621797084808e-02" purity="1.0000000000000000e+00" nType="-99"/>
                <Node pos="r" depth="5" NCoef="0" IVar="-1" Cut="0.0000000000000000e+00" cType="1" res="7.5884209945797920e-04" rms="2.9713397845625877e-02" purity="1.0000000000000000e+00" nType="-99"/>
              </Node>
              <Node pos="r" depth="4" NCoef="0" IVar="10" Cut="9.4543534517288208e-01" cType="1" res="4.9038277938961983e-04" rms="2.5815673172473907e-02" purity="1.0000000000000000e+00" nType="0">
                <Node pos="l" depth="5" NCoef="0" IVar="-1" Cut="0.0000000000000000e+00" cType="1" res="-4.6175334136933088e-04" rms="2.7216229587793350e-02" purity="1.0000000000000000e+00" nType="-99"/>
                <Node pos="r" depth="5" NCoef="0" IVar="-1" Cut="0.0000000000000000e+00" cType="1" res="6.2559155048802495e-04" rms="2.2846475243568420e-02" purity="1.0000000000000000e+00" nType="-99"/>
              </Node>
            </Node>
            <Node pos="r" depth="3" NCoef="0" IVar="4" Cut="1.8077708780765533e-02" cType="1" res="-9.4089088961482048e-03" rms="3.5378932952880859e-02" purity="1.0000000000000000e+00" nType="0">
              <Node pos="l" depth="4" NCoef="0" IVar="11" Cut="1.2274461364746094e+02" cType="1" res="-1.4489461900666356e-03" rms="3.5619035363197327e-02" purity="1.0000000000000000e+00" nType="0">
                <Node pos="l" depth="5" NCoef="0" IVar="-1" Cut="0.0000000000000000e+00" cType="1" res="1.1605380568653345e-03" rms="3.7301778793334961e-02" purity="1.0000000000000000e+00" nType="-99"/>
                <Node pos="r" depth="5" NCoef="0" IVar="-1" Cut="0.0000000000000000e+00" cType="1" res="-1.1425503762438893e-03" rms="3.2627098262310028e-02" purity="1.0000000000000000e+00" nType="-99"/>
              </Node>
              <Node pos="r" depth="4" NCoef="0" IVar="5" Cut="7.0710726082324982e-02" cType="1" res="-1.5602003782987595e-02" rms="3.3922776579856873e-02" purity="1.0000000000000000e+00" nType="0">
                <Node pos="l" depth="5" NCoef="0" IVar="-1" Cut="0.0000000000000000e+00" cType="1" res="-1.8507582135498524e-03" rms="3.2995242625474930e-02" purity="1.0000000000000000e+00" nType="-99"/>
                <Node pos="r" depth="5" NCoef="0" IVar="-1" Cut="0.0000000000000000e+00" cType="1" res="-5.2081854082643986e-03" rms="3.5323660820722580e-02" purity="1.0000000000000000e+00" nType="-99"/>
              </Node>
            </Node>
          </Node>
        </Node>
        <Node pos="r" depth="1" NCoef="0" IVar="4" Cut="1.8231067806482315e-02" cType="1" res="-1.9974367693066597e-02" rms="3.4396067261695862e-02" purity="1.0000000000000000e+00" nType="0">
          <Node pos="l" depth="2" NCoef="0" IVar="4" Cut="1.4442852698266506e-02" cType="1" res="-5.7407720014452934e-03" rms="3.7398971617221832e-02" purity="1.0000000000000000e+00" nType="0">
            <Node pos="l" depth="3" NCoef="0" IVar="4" Cut="1.1252555064857006e-02" cType="1" res="3.2056828495115042e-03" rms="3.8328103721141815e-02" purity="1.0000000000000000e+00" nType="0">
              <Node pos="l" depth="4" NCoef="0" IVar="-1" Cut="0.0000000000000000e+00" cType="1" res="2.0086762961000204e-03" rms="3.8636360317468643e-02" purity="1.0000000000000000e+00" nType="-99"/>
              <Node pos="r" depth="4" NCoef="0" IVar="5" Cut="4.6488925814628601e-02" cType="1" res="-5.2333500934764743e-04" rms="3.7643134593963623e-02" purity="1.0000000000000000e+00" nType="0">
                <Node pos="l" depth="5" NCoef="0" IVar="-1" Cut="0.0000000000000000e+00" cType="1" res="6.3932122429832816e-04" rms="3.4717693924903870e-02" purity="1.0000000000000000e+00" nType="-99"/>
                <Node pos="r" depth="5" NCoef="0" IVar="-1" Cut="0.0000000000000000e+00" cType="1" res="-1.3112102169543505e-03" rms="3.9566848427057266e-02" purity="1.0000000000000000e+00" nType="-99"/>
              </Node>
            </Node>
            <Node pos="r" depth="3" NCoef="0" IVar="13" Cut="9.8794484138488770e-01" cType="1" res="-1.1480103246867657e-02" rms="3.5626661032438278e-02" purity="1.0000000000000000e+00" nType="0">
              <Node pos="l" depth="4" NCoef="0" IVar="11" Cut="1.0834718322753906e+02" cType="1" res="-1.5664702281355858e-02" rms="3.5495411604642868e-02" purity="1.0000000000000000e+00" nType="0">
                <Node pos="l" depth="5" NCoef="0" IVar="-1" Cut="0.0000000000000000e+00" cType="1" res="-2.0119915716350079e-03" rms="4.0031049400568008e-02" purity="1.0000000000000000e+00" nType="-99"/>
                <Node pos="r" depth="5" NCoef="0" IVar="-1" Cut="0.0000000000000000e+00" cType="1" res="-2.8863234911113977e-03" rms="3.2610714435577393e-02" purity="1.0000000000000000e+00" nType="-99"/>
              </Node>
              <Node pos="r" depth="4" NCoef="0" IVar="-1" Cut="0.0000000000000000e+00" cType="1" res="6.1827275203540921e-04" rms="3.0847448855638504e-02" purity="1.0000000000000000e+00" nType="-99"/>
            </Node>
          </Node>
          <Node pos="r" depth="2" NCoef="0" IVar="10" Cut="9.1226065158843994e-01" cType="1" res="-2.4709628894925117e-02" rms="3.1961582601070404e-02" purity="1.0000000000000000e+00" nType="0">
            <Node pos="l" depth="3" NCoef="0" IVar="2" Cut="2.5312542915344238e-02" cType="1" res="-3.0213650315999985e-02" rms="3.0412392690777779e-02" purity="1.0000000000000000e+00" nType="0">
              <Node pos="l" depth="4" NCoef="0" IVar="13" Cut="9.6819508075714111e-01" cType="1" res="-2.4082416668534279e-02" rms="3.2273791730403900e-02" purity="1.0000000000000000e+00" nType="0">
                <Node pos="l" depth="5" NCoef="0" IVar="-1" Cut="0.0000000000000000e+00" cType="1" res="-4.7314399853348732e-03" rms="3.1185029074549675e-02" purity="1.0000000000000000e+00" nType="-99"/>
                <Node pos="r" depth="5" NCoef="0" IVar="-1" Cut="0.0000000000000000e+00" cType="1" res="-1.3453023275360465e-03" rms="3.4158121794462204e-02" purity="1.0000000000000000e+00" nType="-99"/>
              </Node>
              <Node pos="r" depth="4" NCoef="0" IVar="11" Cut="7.5936958312988281e+01" cType="1" res="-3.3817738294601440e-02" rms="2.8657233342528343e-02" purity="1.0000000000000000e+00" nType="0">
                <Node pos="l" depth="5" NCoef="0" IVar="-1" Cut="0.0000000000000000e+00" cType="1" res="-8.4213679656386375e-03" rms="3.8134761154651642e-02" purity="1.0000000000000000e+00" nType="-99"/>
                <Node pos="r" depth="5" NCoef="0" IVar="-1" Cut="0.0000000000000000e+00" cType="1" res="-7.6680192723870277e-03" rms="2.6449186727404594e-02" purity="1.0000000000000000e+00" nType="-99"/>
              </Node>
            </Node>
            <Node pos="r" depth="3" NCoef="0" IVar="7" Cut="9.4304662942886353e-01" cType="1" res="-1.0655037127435207e-02" rms="3.1518224626779556e-02" purity="1.0000000000000000e+00" nType="0">
              <Node pos="l" depth="4" NCoef="0" IVar="12" Cut="2.9444079589843750e+02" cType="1" res="-1.5152532607316971e-02" rms="3.0991015955805779e-02" purity="1.0000000000000000e+00" nType="0">
                <Node pos="l" depth="5" NCoef="0" IVar="-1" Cut="0.0000000000000000e+00" cType="1" res="-1.3457173481583595e-03" rms="3.3447429537773132e-02" purity="1.0000000000000000e+00" nType="-99"/>
                <Node pos="r" depth="5" NCoef="0" IVar="-1" Cut="0.0000000000000000e+00" cType="1" res="-2.4989049416035414e-03" rms="2.7809778228402138e-02" purity="1.0000000000000000e+00" nType="-99"/>
              </Node>
              <Node pos="r" depth="4" NCoef="0" IVar="12" Cut="3.5775634765625000e+02" cType="1" res="-1.3383914483711123e-03" rms="3.0544472858309746e-02" purity="1.0000000000000000e+00" nType="0">
                <Node pos="l" depth="5" NCoef="0" IVar="-1" Cut="0.0000000000000000e+00" cType="1" res="3.2788049429655075e-04" rms="3.0873417854309082e-02" purity="1.0000000000000000e+00" nType="-99"/>
                <Node pos="r" depth="5" NCoef="0" IVar="-1" Cut="0.0000000000000000e+00" cType="1" res="-9.6888450207188725e-04" rms="2.8852514922618866e-02" purity="1.0000000000000000e+00" nType="-99"/>
              </Node>
            </Node>
          </Node>
        </Node>
      </Node>
    </BinaryTree>
    <BinaryTree type="DecisionTree" boostWeight="1.0000000000000000e+00" itree="4">
      <Node pos="s" depth="0" NCoef="0" IVar="6" Cut="3.2468829303979874e-02" cType="1" res="-2.2613522596657276e-03" rms="3.2242033630609512e-02" purity="1.0000000000000000e+00" nType="0">
        <Node pos="l" depth="1" NCoef="0" IVar="6" Cut="9.2675490304827690e-03" cType="1" res="5.9822052717208862e-03" rms="2.8032643720507622e-02" purity="1.0000000000000000e+00" nType="0">
          <Node pos="l" depth="2" NCoef="0" IVar="6" Cut="1.8497752535040490e-05" cType="1" res="9.5413718372583389e-03" rms="2.5682887062430382e-02" purity="1.0000000000000000e+00" nType="0">
            <Node pos="l" depth="3" NCoef="0" IVar="11" Cut="1.4247944641113281e+02" cType="1" res="1.0902103036642075e-02" rms="2.5670470669865608e-02" purity="1.0000000000000000e+00" nType="0">
              <Node pos="l" depth="4" NCoef="0" IVar="3" Cut="2.7696430683135986e-02" cType="1" res="1.3322240673005581e-02" rms="3.0696554109454155e-02" purity="1.0000000000000000e+00" nType="0">
                <Node pos="l" depth="5" NCoef="0" IVar="-1" Cut="0.0000000000000000e+00" cType="1" res="1.2964248890057206e-03" rms="2.9432171955704689e-02" purity="1.0000000000000000e+00" nType="-99"/>
                <Node pos="r" depth="5" NCoef="0" IVar="-1" Cut="0.0000000000000000e+00" cType="1" res="1.9790381193161011e-03" rms="3.0928321182727814e-02" purity="1.0000000000000000e+00" nType="-99"/>
              </Node>
              <Node pos="r" depth="4" NCoef="0" IVar="8" Cut="2.4016838073730469e+02" cType="1" res="9.2550162225961685e-03" rms="2.1435094997286797e-02" purity="1.0000000000000000e+00" nType="0">
                <Node pos="l" depth="5" NCoef="0" IVar="-1" Cut="0.0000000000000000e+00" cType="1" res="1.1415893677622080e-03" rms="2.3603538051247597e-02" purity="1.0000000000000000e+00" nType="-99"/>
                <Node pos="r" depth="5" NCoef="0" IVar="-1" Cut="0.0000000000000000e+00" cType="1" res="8.1761705223470926e-04" rms="1.8446218222379684e-02" purity="1.0000000000000000e+00" nType="-99"/>
              </Node>
            </Node>
            <Node pos="r" depth="3" NCoef="0" IVar="5" Cut="4.7599863260984421e-02" cType="1" res="5.3575527854263783e-03" rms="2.5266058743000031e-02" purity="1.0000000000000000e+00" nType="0">
              <Node pos="l" depth="4" NCoef="0" IVar="8" Cut="2.2940867614746094e+02" cType="1" res="6.7472374066710472e-03" rms="2.3222075775265694e-02" purity="1.0000000000000000e+00" nType="0">
                <Node pos="l" depth="5" NCoef="0" IVar="-1" Cut="0.0000000000000000e+00" cType="1" res="1.0712424991652369e-03" rms="2.6404520496726036e-02" purity="1.0000000000000000e+00" nType="-99"/>
                <Node pos="r" depth="5" NCoef="0" IVar="-1" Cut="0.0000000000000000e+00" cType="1" res="5.6702014990150928e-04" rms="2.1238209679722786e-02" purity="1.0000000000000000e+00" nType="-99"/>
              </Node>
              <Node pos="r" depth="4" NCoef="0" IVar="-1" Cut="0.0000000000000000e+00" cType="1" res="-3.9167539216578007e-04" rms="3.3654775470495224e-02" purity="1.0000000000000000e+00" nType="-99"/>
            </Node>
          </Node>
          <Node pos="r" depth="2" NCoef="0" IVar="5" Cut="4.4740598648786545e-02" cType="1" res="-2.0583677105605602e-03" rms="3.1268239021301270e-02" purity="1.0000000000000000e+00" nType="0">
            <Node pos="l" depth="3" NCoef="0" IVar="13" Cut="9.9336659908294678e-01" cType="1" res="2.4016601964831352e-03" rms="2.8121819719672203e-02" purity="1.0000000000000000e+00" nType="0">
              <Node pos="l" depth="4" NCoef="0" IVar="8" Cut="2.2770639038085938e+02" cType="1" res="-9.4070332124829292e-04" rms="2.9594916850328445e-02" purity="1.0000000000000000e+00" nType="0">
                <Node pos="l" depth="5" NCoef="0" IVar="-1" Cut="0.0000000000000000e+00" cType="1" res="5.5500800954177976e-04" rms="3.1722098588943481e-02" purity="1.0000000000000000e+00" nType="-99"/>
                <Node pos="r" depth="5" NCoef="0" IVar="-1" Cut="0.0000000000000000e+00" cType="1" res="-6.8931630812585354e-04" rms="2.6437178254127502e-02" purity="1.0000000000000000e+00" nType="-99"/>
              </Node>
              <Node pos="r" depth="4" NCoef="0" IVar="12" Cut="3.3866766357421875e+02" cType="1" res="6.2379897572100163e-03" rms="2.5801341980695724e-02" purity="1.0000000000000000e+00" nType="0">
                <Node pos="l" depth="5" NCoef="0" IVar="-1" Cut="0.0000000000000000e+00" cType="1" res="8.9722545817494392e-04" rms="2.6476655155420303e-02" purity="1.0000000000000000e+00" nType="-99"/>
                <Node pos="r" depth="5" NCoef="0" IVar="-1" Cut="0.0000000000000000e+00" cType="1" res="2.3317881277762353e-04" rms="2.3638462647795677e-02" purity="1.0000000000000000e+00" nType="-99"/>
              </Node>
            </Node>
            <Node pos="r" depth="3" NCoef="0" IVar="11" Cut="1.4303039550781250e+02" cType="1" res="-9.7558237612247467e-03" rms="3.4736562520265579e-02" purity="1.0000000000000000e+00" nType="0">
              <Node pos="l" depth="4" NCoef="0" IVar="5" Cut="7.4838273227214813e-02" cType="1" res="-2.2323089651763439e-03" rms="3.7786677479743958e-02" purity="1.0000000000000000e+00" nType="0">
                <Node pos="l" depth="5" NCoef="0" IVar="-1" Cut="0.0000000000000000e+00" cType="1" res="4.2729126289486885e-04" rms="3.6477833986282349e-02" purity="1.0000000000000000e+00" nType="-99"/>
                <Node pos="r" depth="5" NCoef="0" IVar="-1" Cut="0.0000000000000000e+00" cType="1" res="-2.9057811480015516e-03" rms="3.8455482572317123e-02" purity="1.0000000000000000e+00" nType="-99"/>
              </Node>
              <Node pos="r" depth="4" NCoef="0" IVar="5" Cut="6.1992496252059937e-02" cType="1" res="-1.5850940719246864e-02" rms="3.0731329694390297e-02" purity="1.0000000000000000e+00" nType="0">
                <Node pos="l" depth="5" NCoef="0" IVar="-1" Cut="0.0000000000000000e+00" cType="1" res="-1.6534909373149276e-03" rms="3.0582770705223083e-02" purity="1.0000000000000000e+00" nType="-99"/>
                <Node pos="r" depth="5" NCoef="0" IVar="-1" Cut="0.0000000000000000e+00" cType="1" res="-4.1271625086665154e-03" rms="2.9189085587859154e-02" purity="1.0000000000000000e+00" nType="-99"/>
              </Node>
            </Node>
          </Node>
        </Node>
        <Node pos="r" depth="1" NCoef="0" IVar="5" Cut="4.6464174985885620e-02" cType="1" res="-1.8692523241043091e-02" rms="3.3761389553546906e-02" purity="1.0000000000000000e+00" nType="0">
          <Node pos="l" depth="2" NCoef="0" IVar="2" Cut="2.7145508676767349e-02" cType="1" res="-1.0248349048197269e-02" rms="3.3349260687828064e-02" purity="1.0000000000000000e+00" nType="0">
            <Node pos="l" depth="3" NCoef="0" IVar="8" Cut="2.0287686157226562e+02" cType="1" res="-5.7957395911216736e-03" rms="3.2783534377813339e-02" purity="1.0000000000000000e+00" nType="0">
              <Node pos="l" depth="4" NCoef="0" IVar="4" Cut="1.4937620609998703e-02" cType="1" res="2.7230619452893734e-03" rms="3.4735765308141708e-02" purity="1.0000000000000000e+00" nType="0">
                <Node pos="l" depth="5" NCoef="0" IVar="-1" Cut="0.0000000000000000e+00" cType="1" res="1.2975181452929974e-03" rms="3.5887621343135834e-02" purity="1.0000000000000000e+00" nType="-99"/>
                <Node pos="r" depth="5" NCoef="0" IVar="-1" Cut="0.0000000000000000e+00" cType="1" res="-8.3957624156028032e-05" rms="3.3748127520084381e-02" purity="1.0000000000000000e+00" nType="-99"/>
              </Node>
              <Node pos="r" depth="4" NCoef="0" IVar="10" Cut="9.3553227186203003e-01" cType="1" res="-1.0758562944829464e-02" rms="3.0513314530253410e-02" purity="1.0000000000000000e+00" nType="0">
                <Node pos="l" depth="5" NCoef="0" IVar="-1" Cut="0.0000000000000000e+00" cType="1" res="-2.1926802583038807e-03" rms="3.0037429183721542e-02" purity="1.0000000000000000e+00" nType="-99"/>
                <Node pos="r" depth="5" NCoef="0" IVar="-1" Cut="0.0000000000000000e+00" cType="1" res="-3.0599930323660374e-04" rms="2.9207734391093254e-02" purity="1.0000000000000000e+00" nType="-99"/>
              </Node>
            </Node>
            <Node pos="r" depth="3" NCoef="0" IVar="12" Cut="1.4399877929687500e+02" cType="1" res="-2.2052980959415436e-02" rms="3.1928837299346924e-02" purity="1.0000000000000000e+00" nType="0">
              <Node pos="l" depth="4" NCoef="0" IVar="-1" Cut="0.0000000000000000e+00" cType="1" res="-1.4921883121132851e-03" rms="3.7741057574748993e-02" purity="1.0000000000000000e+00" nType="-99"/>
              <Node pos="r" depth="4" NCoef="0" IVar="6" Cut="7.3286019265651703e-02" cType="1" res="-2.7083439752459526e-02" rms="2.7950501069426537e-02" purity="1.0000000000000000e+00" nType="0">
                <Node pos="l" depth="5" NCoef="0" IVar="-1" Cut="0.0000000000000000e+00" cType="1" res="-2.6893869508057833e-03" rms="2.9670352116227150e-02" purity="1.0000000000000000e+00" nType="-99"/>
                <Node pos="r" depth="5" NCoef="0" IVar="-1" Cut="0.0000000000000000e+00" cType="1" res="-5.2927071228623390e-03" rms="2.6052404195070267e-02" purity="1.0000000000000000e+00" nType="-99"/>
              </Node>
            </Node>
          </Node>
          <Node pos="r" depth="2" NCoef="0" IVar="4" Cut="1.8717465922236443e-02" cType="1" res="-2.5392314419150352e-02" rms="3.2562475651502609e-02" purity="1.0000000000000000e+00" nType="0">
            <Node pos="l" depth="3" NCoef="0" IVar="11" Cut="1.5738543701171875e+02" cType="1" res="-1.2384335510432720e-02" rms="3.7331722676753998e-02" purity="1.0000000000000000e+00" nType="0">
              <Node pos="l" depth="4" NCoef="0" IVar="4" Cut="1.4310509897768497e-02" cType="1" res="-7.0358365774154663e-03" rms="3.9416905492544174e-02" purity="1.0000000000000000e+00" nType="0">
                <Node pos="l" depth="5" NCoef="0" IVar="-1" Cut="0.0000000000000000e+00" cType="1" res="5.3993926849216223e-04" rms="3.9676815271377563e-02" purity="1.0000000000000000e+00" nType="-99"/>
                <Node pos="r" depth="5" NCoef="0" IVar="-1" Cut="0.0000000000000000e+00" cType="1" res="-2.8344325255602598e-03" rms="3.8163565099239349e-02" purity="1.0000000000000000e+00" nType="-99"/>
              </Node>
              <Node pos="r" depth="4" NCoef="0" IVar="-1" Cut="0.0000000000000000e+00" cType="1" res="-3.6504480522125959e-03" rms="2.9859635978937149e-02" purity="1.0000000000000000e+00" nType="-99"/>
            </Node>
            <Node pos="r" depth="3" NCoef="0" IVar="13" Cut="9.5145559310913086e-01" cType="1" res="-2.9670728370547295e-02" rms="2.9609419405460358e-02" purity="1.0000000000000000e+00" nType="0">
              <Node pos="l" depth="4" NCoef="0" IVar="11" Cut="6.5299018859863281e+01" cType="1" res="-3.1617216765880585e-02" rms="2.8832850977778435e-02" purity="1.0000000000000000e+00" nType="0">
                <Node pos="l" depth="5" NCoef="0" IVar="-1" Cut="0.0000000000000000e+00" cType="1" res="-7.1252770721912384e-03" rms="3.8343049585819244e-02" purity="1.0000000000000000e+00" nType="-99"/>
                <Node pos="r" depth="5" NCoef="0" IVar="-1" Cut="0.0000000000000000e+00" cType="1" res="-7.4423346668481827e-03" rms="2.6953075081110001e-02" purity="1.0000000000000000e+00" nType="-99"/>
              </Node>
              <Node pos="r" depth="4" NCoef="0" IVar="8" Cut="2.1091468811035156e+02" cType="1" res="-2.0320463925600052e-02" rms="3.1449981033802032e-02" purity="1.0000000000000000e+00" nType="0">
                <Node pos="l" depth="5" NCoef="0" IVar="-1" Cut="0.0000000000000000e+00" cType="1" res="-2.4934145621955395e-03" rms="3.5130821168422699e-02" purity="1.0000000000000000e+00" nType="-99"/>
                <Node pos="r" depth="5" NCoef="0" IVar="-1" Cut="0.0000000000000000e+00" cType="1" res="-3.5443822853267193e-03" rms="2.7478450909256935e-02" purity="1.0000000000000000e+00" nType="-99"/>
              </Node>
            </Node>
          </Node>
        </Node>
      </Node>
    </BinaryTree>
    <BinaryTree type="DecisionTree" boostWeight="1.0000000000000000e+00" itree="5">
      <Node pos="s" depth="0" NCoef="0" IVar="6" Cut="2.3613693192601204e-02" cType="1" res="-2.0917819347232580e-03" rms="3.1378079205751419e-02" purity="1.0000000000000000e+00" nType="0">
        <Node pos="l" depth="1" NCoef="0" IVar="6" Cut="3.2520592212677002e-03" cType="1" res="6.3650817610323429e-03" rms="2.6871059089899063e-02" purity="1.0000000000000000e+00" nType="0">
          <Node pos="l" depth="2" NCoef="0" IVar="12" Cut="1.8154049682617188e+02" cType="1" res="9.5528271049261093e-03" rms="2.5246992707252502e-02" purity="1.0000000000000000e+00" nType="0">
            <Node pos="l" depth="3" NCoef="0" IVar="11" Cut="4.5865482330322266e+01" cType="1" res="1.1318742297589779e-02" rms="2.9132585972547531e-02" purity="1.0000000000000000e+00" nType="0">
              <Node pos="l" depth="4" NCoef="0" IVar="-1" Cut="0.0000000000000000e+00" cType="1" res="3.3560039009898901e-03" rms="3.4987591207027435e-02" purity="1.0000000000000000e+00" nType="-99"/>
              <Node pos="r" depth="4" NCoef="0" IVar="5" Cut="7.0547297596931458e-02" cType="1" res="1.0888203978538513e-02" rms="2.8447965160012245e-02" purity="1.0000000000000000e+00" nType="0">
                <Node pos="l" depth="5" NCoef="0" IVar="-1" Cut="0.0000000000000000e+00" cType="1" res="1.4151446521282196e-03" rms="2.7809230610728264e-02" purity="1.0000000000000000e+00" nType="-99"/>
                <Node pos="r" depth="5" NCoef="0" IVar="-1" Cut="0.0000000000000000e+00" cType="1" res="7.9336261842399836e-04" rms="3.6620963364839554e-02" purity="1.0000000000000000e+00" nType="-99"/>
              </Node>
            </Node>
            <Node pos="r" depth="3" NCoef="0" IVar="8" Cut="3.1064761352539062e+02" cType="1" res="7.6408036984503269e-03" rms="2.0039942115545273e-02" purity="1.0000000000000000e+00" nType="0">
              <Node pos="l" depth="4" NCoef="0" IVar="5" Cut="4.5244913548231125e-02" cType="1" res="8.3791641518473625e-03" rms="2.1163456141948700e-02" purity="1.0000000000000000e+00" nType="0">
                <Node pos="l" depth="5" NCoef="0" IVar="-1" Cut="0.0000000000000000e+00" cType="1" res="9.2469662195071578e-04" rms="2.0342802628874779e-02" purity="1.0000000000000000e+00" nType="-99"/>
                <Node pos="r" depth="5" NCoef="0" IVar="-1" Cut="0.0000000000000000e+00" cType="1" res="5.3044391097500920e-04" rms="2.8047930449247360e-02" purity="1.0000000000000000e+00" nType="-99"/>
              </Node>
              <Node pos="r" depth="4" NCoef="0" IVar="3" Cut="2.5219285860657692e-02" cType="1" res="6.1603565700352192e-03" rms="1.7478434368968010e-02" purity="1.0000000000000000e+00" nType="0">
                <Node pos="l" depth="5" NCoef="0" IVar="-1" Cut="0.0000000000000000e+00" cType="1" res="4.2123181628994644e-04" rms="1.6841059550642967e-02" purity="1.0000000000000000e+00" nType="-99"/>
                <Node pos="r" depth="5" NCoef="0" IVar="-1" Cut="0.0000000000000000e+00" cType="1" res="7.1770558133721352e-04" rms="1.7670525237917900e-02" purity="1.0000000000000000e+00" nType="-99"/>
              </Node>
            </Node>
          </Node>
          <Node pos="r" depth="2" NCoef="0" IVar="5" Cut="4.7638699412345886e-02" cType="1" res="1.5378555981442332e-03" rms="2.8487535193562508e-02" purity="1.0000000000000000e+00" nType="0">
            <Node pos="l" depth="3" NCoef="0" IVar="11" Cut="2.4194735717773438e+02" cType="1" res="3.9628241211175919e-03" rms="2.5937596336007118e-02" purity="1.0000000000000000e+00" nType="0">
              <Node pos="l" depth="4" NCoef="0" IVar="13" Cut="9.9601995944976807e-01" cType="1" res="6.5211281180381775e-03" rms="2.8100050985813141e-02" purity="1.0000000000000000e+00" nType="0">
                <Node pos="l" depth="5" NCoef="0" IVar="-1" Cut="0.0000000000000000e+00" cType="1" res="6.3726329244673252e-04" rms="2.9397513717412949e-02" purity="1.0000000000000000e+00" nType="-99"/>
                <Node pos="r" depth="5" NCoef="0" IVar="-1" Cut="0.0000000000000000e+00" cType="1" res="1.0272824438288808e-03" rms="2.5464579463005066e-02" purity="1.0000000000000000e+00" nType="-99"/>
              </Node>
              <Node pos="r" depth="4" NCoef="0" IVar="13" Cut="9.9111568927764893e-01" cType="1" res="1.5320398379117250e-03" rms="2.3443596437573433e-02" purity="1.0000000000000000e+00" nType="0">
                <Node pos="l" depth="5" NCoef="0" IVar="-1" Cut="0.0000000000000000e+00" cType="1" res="-3.2412534346804023e-04" rms="2.5154681876301765e-02" purity="1.0000000000000000e+00" nType="-99"/>
                <Node pos="r" depth="5" NCoef="0" IVar="-1" Cut="0.0000000000000000e+00" cType="1" res="4.8665580106899142e-04" rms="2.1639857441186905e-02" purity="1.0000000000000000e+00" nType="-99"/>
              </Node>
            </Node>
            <Node pos="r" depth="3" NCoef="0" IVar="4" Cut="1.5537349507212639e-02" cType="1" res="-6.0527445748448372e-03" rms="3.4204162657260895e-02" purity="1.0000000000000000e+00" nType="0">
              <Node pos="l" depth="4" NCoef="0" IVar="-1" Cut="0.0000000000000000e+00" cType="1" res="4.8117610276676714e-04" rms="3.4366779029369354e-02" purity="1.0000000000000000e+00" nType="-99"/>
              <Node pos="r" depth="4" NCoef="0" IVar="8" Cut="1.0630326080322266e+02" cType="1" res="-9.7297914326190948e-03" rms="3.3441711217164993e-02" purity="1.0000000000000000e+00" nType="0">
                <Node pos="l" depth="5" NCoef="0" IVar="-1" Cut="0.0000000000000000e+00" cType="1" res="-5.5958761367946863e-04" rms="3.7388987839221954e-02" purity="1.0000000000000000e+00" nType="-99"/>
                <Node pos="r" depth="5" NCoef="0" IVar="-1" Cut="0.0000000000000000e+00" cType="1" res="-1.7816075123846531e-03" rms="3.1647704541683197e-02" purity="1.0000000000000000e+00" nType="-99"/>
              </Node>
            </Node>
          </Node>
        </Node>
        <Node pos="r" depth="1" NCoef="0" IVar="5" Cut="4.9333460628986359e-02" cType="1" res="-1.5081555582582951e-02" rms="3.3305317163467407e-02" purity="1.0000000000000000e+00" nType="0">
          <Node pos="l" depth="2" NCoef="0" IVar="2" Cut="2.6421416550874710e-02" cType="1" res="-8.1076994538307190e-03" rms="3.2301034778356552e-02" purity="1.0000000000000000e+00" nType="0">
            <Node pos="l" depth="3" NCoef="0" IVar="8" Cut="2.1623718261718750e+02" cType="1" res="-3.8669102359563112e-03" rms="3.1479153782129288e-02" purity="1.0000000000000000e+00" nType="0">
              <Node pos="l" depth="4" NCoef="0" IVar="13" Cut="9.9613302946090698e-01" cType="1" res="2.7593399863690138e-03" rms="3.3362906426191330e-02" purity="1.0000000000000000e+00" nType="0">
                <Node pos="l" depth="5" NCoef="0" IVar="-1" Cut="0.0000000000000000e+00" cType="1" res="-3.1829582439968362e-05" rms="3.4134577959775925e-02" purity="1.0000000000000000e+00" nType="-99"/>
                <Node pos="r" depth="5" NCoef="0" IVar="-1" Cut="0.0000000000000000e+00" cType="1" res="1.2016940163448453e-03" rms="3.0552500858902931e-02" purity="1.0000000000000000e+00" nType="-99"/>
              </Node>
              <Node pos="r" depth="4" NCoef="0" IVar="13" Cut="9.8846244812011719e-01" cType="1" res="-8.3879791200160980e-03" rms="2.9277961701154709e-02" purity="1.0000000000000000e+00" nType="0">
                <Node pos="l" depth="5" NCoef="0" IVar="-1" Cut="0.0000000000000000e+00" cType="1" res="-1.8310459563508630e-03" rms="2.8290579095482826e-02" purity="1.0000000000000000e+00" nType="-99"/>
                <Node pos="r" depth="5" NCoef="0" IVar="-1" Cut="0.0000000000000000e+00" cType="1" res="-1.6177615907508880e-04" rms="2.8846127912402153e-02" purity="1.0000000000000000e+00" nType="-99"/>
              </Node>
            </Node>
            <Node pos="r" depth="3" NCoef="0" IVar="12" Cut="1.3402700805664062e+02" cType="1" res="-1.7762588337063789e-02" rms="3.2070826739072800e-02" purity="1.0000000000000000e+00" nType="0">
              <Node pos="l" depth="4" NCoef="0" IVar="-1" Cut="0.0000000000000000e+00" cType="1" res="-6.9654657272621989e-04" rms="3.6933623254299164e-02" purity="1.0000000000000000e+00" nType="-99"/>
              <Node pos="r" depth="4" NCoef="0" IVar="7" Cut="9.2435002326965332e-01" cType="1" res="-2.2007279098033905e-02" rms="2.9158635064959526e-02" purity="1.0000000000000000e+00" nType="0">
                <Node pos="l" depth="5" NCoef="0" IVar="-1" Cut="0.0000000000000000e+00" cType="1" res="-4.4411532580852509e-03" rms="2.8125073760747910e-02" purity="1.0000000000000000e+00" nType="-99"/>
                <Node pos="r" depth="5" NCoef="0" IVar="-1" Cut="0.0000000000000000e+00" cType="1" res="-1.8282110104337335e-03" rms="2.9326722025871277e-02" purity="1.0000000000000000e+00" nType="-99"/>
              </Node>
            </Node>
          </Node>
          <Node pos="r" depth="2" NCoef="0" IVar="4" Cut="1.8717465922236443e-02" cType="1" res="-2.2479491308331490e-02" rms="3.2753873616456985e-02" purity="1.0000000000000000e+00" nType="0">
            <Node pos="l" depth="3" NCoef="0" IVar="12" Cut="7.9054435729980469e+01" cType="1" res="-1.0636437684297562e-02" rms="3.6561962217092514e-02" purity="1.0000000000000000e+00" nType="0">
              <Node pos="l" depth="4" NCoef="0" IVar="-1" Cut="0.0000000000000000e+00" cType="1" res="1.3783620670437813e-04" rms="3.9765559136867523e-02" purity="1.0000000000000000e+00" nType="-99"/>
              <Node pos="r" depth="4" NCoef="0" IVar="4" Cut="1.5357770957052708e-02" cType="1" res="-1.5444655902683735e-02" rms="3.3997736871242523e-02" purity="1.0000000000000000e+00" nType="0">
                <Node pos="l" depth="5" NCoef="0" IVar="-1" Cut="0.0000000000000000e+00" cType="1" res="-1.6217752126976848e-03" rms="3.6298342049121857e-02" purity="1.0000000000000000e+00" nType="-99"/>
                <Node pos="r" depth="5" NCoef="0" IVar="-1" Cut="0.0000000000000000e+00" cType="1" res="-3.3930425997823477e-03" rms="3.1929068267345428e-02" purity="1.0000000000000000e+00" nType="-99"/>
              </Node>
            </Node>
            <Node pos="r" depth="3" NCoef="0" IVar="6" Cut="8.1707283854484558e-02" cType="1" res="-2.6720514521002769e-02" rms="3.0167507007718086e-02" purity="1.0000000000000000e+00" nType="0">
              <Node pos="l" depth="4" NCoef="0" IVar="8" Cut="1.1374489593505859e+02" cType="1" res="-2.2738814353942871e-02" rms="3.1080000102519989e-02" purity="1.0000000000000000e+00" nType="0">
                <Node pos="l" depth="5" NCoef="0" IVar="-1" Cut="0.0000000000000000e+00" cType="1" res="-3.7922158371657133e-03" rms="3.7166018038988113e-02" purity="1.0000000000000000e+00" nType="-99"/>
                <Node pos="r" depth="5" NCoef="0" IVar="-1" Cut="0.0000000000000000e+00" cType="1" res="-4.3351091444492340e-03" rms="2.8072720393538475e-02" purity="1.0000000000000000e+00" nType="-99"/>
              </Node>
              <Node pos="r" depth="4" NCoef="0" IVar="8" Cut="6.7788536071777344e+01" cType="1" res="-3.1247135251760483e-02" rms="2.8425835072994232e-02" purity="1.0000000000000000e+00" nType="0">
                <Node pos="l" depth="5" NCoef="0" IVar="-1" Cut="0.0000000000000000e+00" cType="1" res="-8.1435199826955795e-03" rms="3.6322318017482758e-02" purity="1.0000000000000000e+00" nType="-99"/>
                <Node pos="r" depth="5" NCoef="0" IVar="-1" Cut="0.0000000000000000e+00" cType="1" res="-8.3223991096019745e-03" rms="2.6378072798252106e-02" purity="1.0000000000000000e+00" nType="-99"/>
              </Node>
            </Node>
          </Node>
        </Node>
      </Node>
    </BinaryTree>
    <BinaryTree type="DecisionTree" boostWeight="1.0000000000000000e+00" itree="6">
      <Node pos="s" depth="0" NCoef="0" IVar="6" Cut="3.5420540720224380e-02" cType="1" res="-1.9250212935730815e-03" rms="3.0634827911853790e-02" purity="1.0000000000000000e+00" nType="0">
        <Node pos="l" depth="1" NCoef="0" IVar="6" Cut="1.2937745079398155e-02" cType="1" res="4.5198784209787846e-03" rms="2.7293294668197632e-02" purity="1.0000000000000000e+00" nType="0">
          <Node pos="l" depth="2" NCoef="0" IVar="6" Cut="1.4460881939157844e-03" cType="1" res="7.1980408392846584e-03" rms="2.5508889928460121e-02" purity="1.0000000000000000e+00" nType="0">
            <Node pos="l" depth="3" NCoef="0" IVar="11" Cut="1.1170588684082031e+02" cType="1" res="8.6562018841505051e-03" rms="2.5268979370594025e-02" purity="1.0000000000000000e+00" nType="0">
              <Node pos="l" depth="4" NCoef="0" IVar="3" Cut="3.1046073883771896e-02" cType="1" res="1.1203845031559467e-02" rms="3.1378071755170822e-02" purity="1.0000000000000000e+00" nType="0">
                <Node pos="l" depth="5" NCoef="0" IVar="-1" Cut="0.0000000000000000e+00" cType="1" res="1.3005239889025688e-03" rms="3.0582984909415245e-02" purity="1.0000000000000000e+00" nType="-99"/>
                <Node pos="r" depth="5" NCoef="0" IVar="-1" Cut="0.0000000000000000e+00" cType="1" res="1.9364894833415747e-03" rms="3.1738191843032837e-02" purity="1.0000000000000000e+00" nType="-99"/>
              </Node>
              <Node pos="r" depth="4" NCoef="0" IVar="8" Cut="2.2942378234863281e+02" cType="1" res="7.6142740435898304e-03" rms="2.2209227085113525e-02" purity="1.0000000000000000e+00" nType="0">
                <Node pos="l" depth="5" NCoef="0" IVar="-1" Cut="0.0000000000000000e+00" cType="1" res="9.6785894129425287e-04" rms="2.4554025381803513e-02" purity="1.0000000000000000e+00" nType="-99"/>
                <Node pos="r" depth="5" NCoef="0" IVar="-1" Cut="0.0000000000000000e+00" cType="1" res="6.6851422889158130e-04" rms="1.8542865291237831e-02" purity="1.0000000000000000e+00" nType="-99"/>
              </Node>
            </Node>
            <Node pos="r" depth="3" NCoef="0" IVar="5" Cut="5.2969247102737427e-02" cType="1" res="3.9958208799362183e-03" rms="2.5739710777997971e-02" purity="1.0000000000000000e+00" nType="0">
              <Node pos="l" depth="4" NCoef="0" IVar="8" Cut="2.1758068847656250e+02" cType="1" res="5.0408910028636456e-03" rms="2.4140760302543640e-02" purity="1.0000000000000000e+00" nType="0">
                <Node pos="l" depth="5" NCoef="0" IVar="-1" Cut="0.0000000000000000e+00" cType="1" res="8.9424866018816829e-04" rms="2.7498964220285416e-02" purity="1.0000000000000000e+00" nType="-99"/>
                <Node pos="r" depth="5" NCoef="0" IVar="-1" Cut="0.0000000000000000e+00" cType="1" res="4.0801125578582287e-04" rms="2.2020967677235603e-02" purity="1.0000000000000000e+00" nType="-99"/>
              </Node>
              <Node pos="r" depth="4" NCoef="0" IVar="-1" Cut="0.0000000000000000e+00" cType="1" res="-5.5365829030051827e-04" rms="3.4024208784103394e-02" purity="1.0000000000000000e+00" nType="-99"/>
            </Node>
          </Node>
          <Node pos="r" depth="2" NCoef="0" IVar="5" Cut="3.6402106285095215e-02" cType="1" res="-3.1506405211985111e-03" rms="3.0584322288632393e-02" purity="1.0000000000000000e+00" nType="0">
            <Node pos="l" depth="3" NCoef="0" IVar="10" Cut="9.5043873786926270e-01" cType="1" res="2.7587471995502710e-03" rms="2.6827316731214523e-02" purity="1.0000000000000000e+00" nType="0">
              <Node pos="l" depth="4" NCoef="0" IVar="12" Cut="3.4246343994140625e+02" cType="1" res="4.8154062824323773e-04" rms="2.8037028387188911e-02" purity="1.0000000000000000e+00" nType="0">
                <Node pos="l" depth="5" NCoef="0" IVar="-1" Cut="0.0000000000000000e+00" cType="1" res="2.5981359067372978e-04" rms="2.8627840802073479e-02" purity="1.0000000000000000e+00" nType="-99"/>
                <Node pos="r" depth="5" NCoef="0" IVar="-1" Cut="0.0000000000000000e+00" cType="1" res="-7.7323248842731118e-04" rms="2.4248247966170311e-02" purity="1.0000000000000000e+00" nType="-99"/>
              </Node>
              <Node pos="r" depth="4" NCoef="0" IVar="12" Cut="3.2785900878906250e+02" cType="1" res="6.7781736142933369e-03" rms="2.4025993421673775e-02" purity="1.0000000000000000e+00" nType="0">
                <Node pos="l" depth="5" NCoef="0" IVar="-1" Cut="0.0000000000000000e+00" cType="1" res="1.0100299259647727e-03" rms="2.4914832785725594e-02" purity="1.0000000000000000e+00" nType="-99"/>
                <Node pos="r" depth="5" NCoef="0" IVar="-1" Cut="0.0000000000000000e+00" cType="1" res="3.3968657953664660e-04" rms="2.2059146314859390e-02" purity="1.0000000000000000e+00" nType="-99"/>
              </Node>
            </Node>
            <Node pos="r" depth="3" NCoef="0" IVar="11" Cut="1.3931166076660156e+02" cType="1" res="-7.7261347323656082e-03" rms="3.2472066581249237e-02" purity="1.0000000000000000e+00" nType="0">
              <Node pos="l" depth="4" NCoef="0" IVar="5" Cut="7.4332885444164276e-02" cType="1" res="-1.1556632816791534e-03" rms="3.6053311079740524e-02" purity="1.0000000000000000e+00" nType="0">
                <Node pos="l" depth="5" NCoef="0" IVar="-1" Cut="0.0000000000000000e+00" cType="1" res="5.9175590286031365e-04" rms="3.4682705998420715e-02" purity="1.0000000000000000e+00" nType="-99"/>
                <Node pos="r" depth="5" NCoef="0" IVar="-1" Cut="0.0000000000000000e+00" cType="1" res="-3.0200772453099489e-03" rms="3.6873586475849152e-02" purity="1.0000000000000000e+00" nType="-99"/>
              </Node>
              <Node pos="r" depth="4" NCoef="0" IVar="5" Cut="5.7214554399251938e-02" cType="1" res="-1.1248687282204628e-02" rms="2.9787836596369743e-02" purity="1.0000000000000000e+00" nType="0">
                <Node pos="l" depth="5" NCoef="0" IVar="-1" Cut="0.0000000000000000e+00" cType="1" res="-1.0763807222247124e-03" rms="2.9290081933140755e-02" purity="1.0000000000000000e+00" nType="-99"/>
                <Node pos="r" depth="5" NCoef="0" IVar="-1" Cut="0.0000000000000000e+00" cType="1" res="-3.2506349962204695e-03" rms="2.9415758326649666e-02" purity="1.0000000000000000e+00" nType="-99"/>
              </Node>
            </Node>
          </Node>
        </Node>
        <Node pos="r" depth="1" NCoef="0" IVar="4" Cut="1.9987756386399269e-02" cType="1" res="-1.5876572579145432e-02" rms="3.2756023108959198e-02" purity="1.0000000000000000e+00" nType="0">
          <Node pos="l" depth="2" NCoef="0" IVar="4" Cut="1.4395085163414478e-02" cType="1" res="-6.6971355117857456e-03" rms="3.4563809633255005e-02" purity="1.0000000000000000e+00" nType="0">
            <Node pos="l" depth="3" NCoef="0" IVar="6" Cut="7.8930728137493134e-02" cType="1" res="3.1205932609736919e-03" rms="3.6298446357250214e-02" purity="1.0000000000000000e+00" nType="0">
              <Node pos="l" depth="4" NCoef="0" IVar="-1" Cut="0.0000000000000000e+00" cType="1" res="-1.8231707508675754e-04" rms="3.4812685102224350e-02" purity="1.0000000000000000e+00" nType="-99"/>
              <Node pos="r" depth="4" NCoef="0" IVar="-1" Cut="0.0000000000000000e+00" cType="1" res="2.6912377215921879e-03" rms="3.7950694561004639e-02" purity="1.0000000000000000e+00" nType="-99"/>
            </Node>
            <Node pos="r" depth="3" NCoef="0" IVar="13" Cut="9.8945176601409912e-01" cType="1" res="-1.0362084023654461e-02" rms="3.3156558871269226e-02" purity="1.0000000000000000e+00" nType="0">
              <Node pos="l" depth="4" NCoef="0" IVar="11" Cut="1.0781246948242188e+02" cType="1" res="-1.3301029801368713e-02" rms="3.3127069473266602e-02" purity="1.0000000000000000e+00" nType="0">
                <Node pos="l" depth="5" NCoef="0" IVar="-1" Cut="0.0000000000000000e+00" cType="1" res="-1.7582905711606145e-03" rms="3.7490908056497574e-02" purity="1.0000000000000000e+00" nType="-99"/>
                <Node pos="r" depth="5" NCoef="0" IVar="-1" Cut="0.0000000000000000e+00" cType="1" res="-2.4768486618995667e-03" rms="3.0705504119396210e-02" purity="1.0000000000000000e+00" nType="-99"/>
              </Node>
              <Node pos="r" depth="4" NCoef="0" IVar="-1" Cut="0.0000000000000000e+00" cType="1" res="3.6577283754013479e-04" rms="2.9680229723453522e-02" purity="1.0000000000000000e+00" nType="-99"/>
            </Node>
          </Node>
          <Node pos="r" depth="2" NCoef="0" IVar="10" Cut="8.9065051078796387e-01" cType="1" res="-2.0474031567573547e-02" rms="3.0800418928265572e-02" purity="1.0000000000000000e+00" nType="0">
            <Node pos="l" depth="3" NCoef="0" IVar="2" Cut="2.5027653202414513e-02" cType="1" res="-2.6402384042739868e-02" rms="2.9751647263765335e-02" purity="1.0000000000000000e+00" nType="0">
              <Node pos="l" depth="4" NCoef="0" IVar="5" Cut="5.9257443994283676e-02" cType="1" res="-1.9750805571675301e-02" rms="3.1861115247011185e-02" purity="1.0000000000000000e+00" nType="0">
                <Node pos="l" depth="5" NCoef="0" IVar="-1" Cut="0.0000000000000000e+00" cType="1" res="-2.1737953647971153e-03" rms="3.2095611095428467e-02" purity="1.0000000000000000e+00" nType="-99"/>
                <Node pos="r" depth="5" NCoef="0" IVar="-1" Cut="0.0000000000000000e+00" cType="1" res="-5.0512403249740601e-03" rms="3.1039103865623474e-02" purity="1.0000000000000000e+00" nType="-99"/>
              </Node>
              <Node pos="r" depth="4" NCoef="0" IVar="11" Cut="7.8511642456054688e+01" cType="1" res="-2.8995025902986526e-02" rms="2.8469879180192947e-02" purity="1.0000000000000000e+00" nType="0">
                <Node pos="l" depth="5" NCoef="0" IVar="-1" Cut="0.0000000000000000e+00" cType="1" res="-7.5859674252569675e-03" rms="3.6265030503273010e-02" purity="1.0000000000000000e+00" nType="-99"/>
                <Node pos="r" depth="5" NCoef="0" IVar="-1" Cut="0.0000000000000000e+00" cType="1" res="-7.1560651995241642e-03" rms="2.6315726339817047e-02" purity="1.0000000000000000e+00" nType="-99"/>
              </Node>
            </Node>
            <Node pos="r" depth="3" NCoef="0" IVar="7" Cut="9.3058139085769653e-01" cType="1" res="-1.1255636811256409e-02" rms="3.0129486694931984e-02" purity="1.0000000000000000e+00" nType="0">
              <Node pos="l" depth="4" NCoef="0" IVar="12" Cut="2.1240641784667969e+02" cType="1" res="-1.4995170757174492e-02" rms="2.9743161052465439e-02" purity="1.0000000000000000e+00" nType="0">
                <Node pos="l" depth="5" NCoef="0" IVar="-1" Cut="0.0000000000000000e+00" cType="1" res="-1.0392774129286408e-03" rms="3.3250838518142700e-02" purity="1.0000000000000000e+00" nType="-99"/>
                <Node pos="r" depth="5" NCoef="0" IVar="-1" Cut="0.0000000000000000e+00" cType="1" res="-2.4794666096568108e-03" rms="2.7608040720224380e-02" purity="1.0000000000000000e+00" nType="-99"/>
              </Node>
              <Node pos="r" depth="4" NCoef="0" IVar="12" Cut="4.0151095581054688e+02" cType="1" res="-4.8663821071386337e-03" rms="2.9708422720432281e-02" purity="1.0000000000000000e+00" nType="0">
                <Node pos="l" depth="5" NCoef="0" IVar="-1" Cut="0.0000000000000000e+00" cType="1" res="-1.4270954125095159e-04" rms="3.0365627259016037e-02" purity="1.0000000000000000e+00" nType="-99"/>
                <Node pos="r" depth="5" NCoef="0" IVar="-1" Cut="0.0000000000000000e+00" cType="1" res="-1.6766723711043596e-03" rms="2.6255326345562935e-02" purity="1.0000000000000000e+00" nType="-99"/>
              </Node>
            </Node>
          </Node>
        </Node>
      </Node>
    </BinaryTree>
    <BinaryTree type="DecisionTree" boostWeight="1.0000000000000000e+00" itree="7">
      <Node pos="s" depth="0" NCoef="0" IVar="6" Cut="3.8372252136468887e-02" cType="1" res="-1.7711855471134186e-03" rms="2.9986010864377022e-02" purity="1.0000000000000000e+00" nType="0">
        <Node pos="l" depth="1" NCoef="0" IVar="6" Cut="1.2943834066390991e-02" cType="1" res="3.8190491031855345e-03" rms="2.7056112885475159e-02" purity="1.0000000000000000e+00" nType="0">
          <Node pos="l" depth="2" NCoef="0" IVar="6" Cut="1.4467915752902627e-03" cType="1" res="6.4214100129902363e-03" rms="2.5280803442001343e-02" purity="1.0000000000000000e+00" nType="0">
            <Node pos="l" depth="3" NCoef="0" IVar="11" Cut="1.2581043243408203e+02" cType="1" res="7.7199088409543037e-03" rms="2.5090998038649559e-02" purity="1.0000000000000000e+00" nType="0">
              <Node pos="l" depth="4" NCoef="0" IVar="14" Cut="-2.0799810886383057e+00" cType="1" res="9.7003262490034103e-03" rms="3.0560623854398727e-02" purity="1.0000000000000000e+00" nType="0">
                <Node pos="l" depth="5" NCoef="0" IVar="-1" Cut="0.0000000000000000e+00" cType="1" res="1.9498760811984539e-03" rms="2.7401793748140335e-02" purity="1.0000000000000000e+00" nType="-99"/>
                <Node pos="r" depth="5" NCoef="0" IVar="-1" Cut="0.0000000000000000e+00" cType="1" res="1.3876436278223991e-03" rms="3.0802099034190178e-02" purity="1.0000000000000000e+00" nType="-99"/>
              </Node>
              <Node pos="r" depth="4" NCoef="0" IVar="5" Cut="1.7434531822800636e-02" cType="1" res="6.6849184222519398e-03" rms="2.1618451923131943e-02" purity="1.0000000000000000e+00" nType="0">
                <Node pos="l" depth="5" NCoef="0" IVar="-1" Cut="0.0000000000000000e+00" cType="1" res="3.9915993693284690e-04" rms="2.0217351615428925e-02" purity="1.0000000000000000e+00" nType="-99"/>
                <Node pos="r" depth="5" NCoef="0" IVar="-1" Cut="0.0000000000000000e+00" cType="1" res="7.6436856761574745e-04" rms="2.1748889237642288e-02" purity="1.0000000000000000e+00" nType="-99"/>
              </Node>
            </Node>
            <Node pos="r" depth="3" NCoef="0" IVar="5" Cut="4.2862202972173691e-02" cType="1" res="3.5718237049877644e-03" rms="2.5461345911026001e-02" purity="1.0000000000000000e+00" nType="0">
              <Node pos="l" depth="4" NCoef="0" IVar="8" Cut="2.3024681091308594e+02" cType="1" res="5.0104693509638309e-03" rms="2.3023776710033417e-02" purity="1.0000000000000000e+00" nType="0">
                <Node pos="l" depth="5" NCoef="0" IVar="-1" Cut="0.0000000000000000e+00" cType="1" res="8.2494062371551991e-04" rms="2.6029970496892929e-02" purity="1.0000000000000000e+00" nType="-99"/>
                <Node pos="r" depth="5" NCoef="0" IVar="-1" Cut="0.0000000000000000e+00" cType="1" res="4.1453223093412817e-04" rms="2.1033445373177528e-02" purity="1.0000000000000000e+00" nType="-99"/>
              </Node>
              <Node pos="r" depth="4" NCoef="0" IVar="11" Cut="1.9448591613769531e+02" cType="1" res="-9.0923713287338614e-04" rms="3.1462296843528748e-02" purity="1.0000000000000000e+00" nType="0">
                <Node pos="l" depth="5" NCoef="0" IVar="-1" Cut="0.0000000000000000e+00" cType="1" res="3.3529775100760162e-04" rms="3.2945066690444946e-02" purity="1.0000000000000000e+00" nType="-99"/>
                <Node pos="r" depth="5" NCoef="0" IVar="-1" Cut="0.0000000000000000e+00" cType="1" res="-7.0901296567171812e-04" rms="2.8388792648911476e-02" purity="1.0000000000000000e+00" nType="-99"/>
              </Node>
            </Node>
          </Node>
          <Node pos="r" depth="2" NCoef="0" IVar="5" Cut="3.9886958897113800e-02" cType="1" res="-3.0041292775422335e-03" rms="3.0188318341970444e-02" purity="1.0000000000000000e+00" nType="0">
            <Node pos="l" depth="3" NCoef="0" IVar="10" Cut="9.5027476549148560e-01" cType="1" res="1.7296423902735114e-03" rms="2.7057567611336708e-02" purity="1.0000000000000000e+00" nType="0">
              <Node pos="l" depth="4" NCoef="0" IVar="3" Cut="3.2557561993598938e-02" cType="1" res="-2.4925282923504710e-04" rms="2.8127361088991165e-02" purity="1.0000000000000000e+00" nType="0">
                <Node pos="l" depth="5" NCoef="0" IVar="-1" Cut="0.0000000000000000e+00" cType="1" res="-4.1263375896960497e-04" rms="2.7455767616629601e-02" purity="1.0000000000000000e+00" nType="-99"/>
                <Node pos="r" depth="5" NCoef="0" IVar="-1" Cut="0.0000000000000000e+00" cType="1" res="4.9170682905241847e-04" rms="2.8573874384164810e-02" purity="1.0000000000000000e+00" nType="-99"/>
              </Node>
              <Node pos="r" depth="4" NCoef="0" IVar="10" Cut="9.6315467357635498e-01" cType="1" res="6.0242731124162674e-03" rms="2.4021813645958900e-02" purity="1.0000000000000000e+00" nType="0">
                <Node pos="l" depth="5" NCoef="0" IVar="-1" Cut="0.0000000000000000e+00" cType="1" res="4.3868180364370346e-04" rms="2.3835100233554840e-02" purity="1.0000000000000000e+00" nType="-99"/>
                <Node pos="r" depth="5" NCoef="0" IVar="-1" Cut="0.0000000000000000e+00" cType="1" res="1.0580922244116664e-03" rms="2.3987093940377235e-02" purity="1.0000000000000000e+00" nType="-99"/>
              </Node>
            </Node>
            <Node pos="r" depth="3" NCoef="0" IVar="11" Cut="1.7268641662597656e+02" cType="1" res="-7.8059192746877670e-03" rms="3.2362703233957291e-02" purity="1.0000000000000000e+00" nType="0">
              <Node pos="l" depth="4" NCoef="0" IVar="5" Cut="7.1083955466747284e-02" cType="1" res="-2.9289973899722099e-03" rms="3.5057533532381058e-02" purity="1.0000000000000000e+00" nType="0">
                <Node pos="l" depth="5" NCoef="0" IVar="-1" Cut="0.0000000000000000e+00" cType="1" res="2.2621014795731753e-04" rms="3.3922646194696426e-02" purity="1.0000000000000000e+00" nType="-99"/>
                <Node pos="r" depth="5" NCoef="0" IVar="-1" Cut="0.0000000000000000e+00" cType="1" res="-2.8224226552993059e-03" rms="3.5664569586515427e-02" purity="1.0000000000000000e+00" nType="-99"/>
              </Node>
              <Node pos="r" depth="4" NCoef="0" IVar="5" Cut="5.7009499520063400e-02" cType="1" res="-1.2623435817658901e-02" rms="2.8656035661697388e-02" purity="1.0000000000000000e+00" nType="0">
                <Node pos="l" depth="5" NCoef="0" IVar="-1" Cut="0.0000000000000000e+00" cType="1" res="-1.2607777025550604e-03" rms="2.8216980397701263e-02" purity="1.0000000000000000e+00" nType="-99"/>
                <Node pos="r" depth="5" NCoef="0" IVar="-1" Cut="0.0000000000000000e+00" cType="1" res="-3.2076458446681499e-03" rms="2.8346266597509384e-02" purity="1.0000000000000000e+00" nType="-99"/>
              </Node>
            </Node>
          </Node>
        </Node>
        <Node pos="r" depth="1" NCoef="0" IVar="4" Cut="1.9987756386399269e-02" cType="1" res="-1.4847636222839355e-02" rms="3.2341998070478439e-02" purity="1.0000000000000000e+00" nType="0">
          <Node pos="l" depth="2" NCoef="0" IVar="4" Cut="1.5552183613181114e-02" cType="1" res="-6.3070692121982574e-03" rms="3.4074425697326660e-02" purity="1.0000000000000000e+00" nType="0">
            <Node pos="l" depth="3" NCoef="0" IVar="4" Cut="1.1272667907178402e-02" cType="1" res="9.9535530898720026e-04" rms="3.5616468638181686e-02" purity="1.0000000000000000e+00" nType="0">
              <Node pos="l" depth="4" NCoef="0" IVar="-1" Cut="0.0000000000000000e+00" cType="1" res="2.0465957932174206e-03" rms="3.6048837006092072e-02" purity="1.0000000000000000e+00" nType="-99"/>
              <Node pos="r" depth="4" NCoef="0" IVar="5" Cut="4.1910167783498764e-02" cType="1" res="-2.0287719089537859e-03" rms="3.4982088953256607e-02" purity="1.0000000000000000e+00" nType="0">
                <Node pos="l" depth="5" NCoef="0" IVar="-1" Cut="0.0000000000000000e+00" cType="1" res="5.1416631322354078e-04" rms="3.2229576259851456e-02" purity="1.0000000000000000e+00" nType="-99"/>
                <Node pos="r" depth="5" NCoef="0" IVar="-1" Cut="0.0000000000000000e+00" cType="1" res="-1.3518974883481860e-03" rms="3.6131292581558228e-02" purity="1.0000000000000000e+00" nType="-99"/>
              </Node>
            </Node>
            <Node pos="r" depth="3" NCoef="0" IVar="13" Cut="9.7829145193099976e-01" cType="1" res="-1.0586867108941078e-02" rms="3.2380755990743637e-02" purity="1.0000000000000000e+00" nType="0">
              <Node pos="l" depth="4" NCoef="0" IVar="11" Cut="1.0781246948242188e+02" cType="1" res="-1.4149262569844723e-02" rms="3.2447692006826401e-02" purity="1.0000000000000000e+00" nType="0">
                <Node pos="l" depth="5" NCoef="0" IVar="-1" Cut="0.0000000000000000e+00" cType="1" res="-2.0879851654171944e-03" rms="3.6718107759952545e-02" purity="1.0000000000000000e+00" nType="-99"/>
                <Node pos="r" depth="5" NCoef="0" IVar="-1" Cut="0.0000000000000000e+00" cType="1" res="-2.6978661771863699e-03" rms="2.9994616284966469e-02" purity="1.0000000000000000e+00" nType="-99"/>
              </Node>
              <Node pos="r" depth="4" NCoef="0" IVar="-1" Cut="0.0000000000000000e+00" cType="1" res="-1.3771458179689944e-04" rms="2.9994547367095947e-02" purity="1.0000000000000000e+00" nType="-99"/>
            </Node>
          </Node>
          <Node pos="r" depth="2" NCoef="0" IVar="10" Cut="8.8725543022155762e-01" cType="1" res="-1.8980758264660835e-02" rms="3.0625807121396065e-02" purity="1.0000000000000000e+00" nType="0">
            <Node pos="l" depth="3" NCoef="0" IVar="2" Cut="2.7059992775321007e-02" cType="1" res="-2.4417616426944733e-02" rms="3.0025860294699669e-02" purity="1.0000000000000000e+00" nType="0">
